{"type":"LSTM","options":{"inputSize":42,"inputRange":42,"hiddenLayers":[20,20],"outputSize":42,"decayRate":0.999,"smoothEps":1e-8,"regc":0.000001,"clipval":5,"maxPredictionLength":100,"dataFormatter":{"values":["boolean","Boolean","Promise<boolean>","Call<Boolean>","boolean|undefined","Promise<boolean|undefined>","boolean[]","List<Boolean>","Promise<boolean[]>","Call<List<Boolean>>","boolean[]|undefined","Promise<boolean[]|undefined>","Map<string,boolean>","Map<String,Boolean>","Promise<Map<string,boolean>>","Call<Map<String,Boolean>>","Map<string,boolean>|undefined","Promise<Map<string,boolean>|undefined>","Map<string,boolean>[]","List<Map<String,Boolean>>","Promise<Map<string,boolean>[]>","Call<List<Map<String,Boolean>>>","Map<string,boolean>[]|undefined","Promise<Map<string,boolean>[]|undefined>","Map<number,boolean>","Map<Int,Boolean>","Promise<Map<number,boolean>>","Call<Map<Int,Boolean>>","Map<number,boolean>|undefined","Promise<Map<number,boolean>|undefined>","Map<number,boolean>[]","List<Map<Int,Boolean>>","Promise<Map<number,boolean>[]>","Call<List<Map<Int,Boolean>>>","Map<number,boolean>[]|undefined","Promise<Map<number,boolean>[]|undefined>","number","Float","Promise<number>","Call<Float>","number|undefined","Promise<number|undefined>","number[]","List<Float>","Promise<number[]>","Call<List<Float>>","number[]|undefined","Promise<number[]|undefined>","Map<string,number>","Map<String,Float>","Promise<Map<string,number>>","Call<Map<String,Float>>","Map<string,number>|undefined","Promise<Map<string,number>|undefined>","Map<string,number>[]","List<Map<String,Float>>","Promise<Map<string,number>[]>","Call<List<Map<String,Float>>>","Map<string,number>[]|undefined","Promise<Map<string,number>[]|undefined>","Map<number,number>","Map<Int,Float>","Promise<Map<number,number>>","Call<Map<Int,Float>>","Map<number,number>|undefined","Promise<Map<number,number>|undefined>","Map<number,number>[]","List<Map<Int,Float>>","Promise<Map<number,number>[]>","Call<List<Map<Int,Float>>>","Map<number,number>[]|undefined","Promise<Map<number,number>[]|undefined>","string","String","Promise<string>","Call<String>","string|undefined","Promise<string|undefined>","string[]","List<String>","Promise<string[]>","Call<List<String>>","string[]|undefined","Promise<string[]|undefined>","Map<string,string>","Map<String,String>","Promise<Map<string,string>>","Call<Map<String,String>>","Map<string,string>|undefined","Promise<Map<string,string>|undefined>","Map<string,string>[]","List<Map<String,String>>","Promise<Map<string,string>[]>","Call<List<Map<String,String>>>","Map<string,string>[]|undefined","Promise<Map<string,string>[]|undefined>","Map<number,string>","Map<Int,String>","Promise<Map<number,string>>","Call<Map<Int,String>>","Map<number,string>|undefined","Promise<Map<number,string>|undefined>","Map<number,string>[]","List<Map<Int,String>>","Promise<Map<number,string>[]>","Call<List<Map<Int,String>>>","Map<number,string>[]|undefined","Promise<Map<number,string>[]|undefined>","any","Any","Promise<any>","Call<Any>","any|undefined","Promise<any|undefined>","any[]","List<Any>","Promise<any[]>","Call<List<Any>>","any[]|undefined","Promise<any[]|undefined>","Map<string,any>","Map<String,Any>","Promise<Map<string,any>>","Call<Map<String,Any>>","Map<string,any>|undefined","Promise<Map<string,any>|undefined>","Map<string,any>[]","List<Map<String,Any>>","Promise<Map<string,any>[]>","Call<List<Map<String,Any>>>","Map<string,any>[]|undefined","Promise<Map<string,any>[]|undefined>","Map<number,any>","Map<Int,Any>","Promise<Map<number,any>>","Call<Map<Int,Any>>","Map<number,any>|undefined","Promise<Map<number,any>|undefined>","Map<number,any>[]","List<Map<Int,Any>>","Promise<Map<number,any>[]>","Call<List<Map<Int,Any>>>","Map<number,any>[]|undefined","Promise<Map<number,any>[]|undefined>","Call<void>","Call<Unit>","Get","GET","Post","POST","Put","PUT","Delete","DELETE","Body"],"indexTable":{"b":0,"o":1,"l":2,"e":3,"a":4,"n":5,"B":6,"P":7,"r":8,"m":9,"i":10,"s":11,"<":12,">":13,"C":14,"|":15,"u":16,"d":17,"f":18,"[":19,"]":20,"L":21,"t":22,"M":23,"p":24,"g":25,",":26,"S":27,"I":28,"F":29,"y":30,"A":31,"v":32,"U":33,"G":34,"E":35,"T":36,"O":37,"D":38,"stop-input":39,"start-output":40,"unrecognized":41},"characterTable":{"0":"b","1":"o","2":"l","3":"e","4":"a","5":"n","6":"B","7":"P","8":"r","9":"m","10":"i","11":"s","12":"<","13":">","14":"C","15":"|","16":"u","17":"d","18":"f","19":"[","20":"]","21":"L","22":"t","23":"M","24":"p","25":"g","26":",","27":"S","28":"I","29":"F","30":"y","31":"A","32":"v","33":"U","34":"G","35":"E","36":"T","37":"O","38":"D","39":null,"40":null,"41":null},"characters":["b","o","l","e","a","n","B","P","r","m","i","s","<",">","C","|","u","d","f","[","]","L","t","M","p","g",",","S","I","F","y","A","v","U","G","E","T","O","D","stop-input","start-output","unrecognized"],"specialIndexes":[39,40,41]}},"input":{"rows":43,"columns":42,"weights":{"0":1.4542160034179688,"1":1.2471439838409424,"2":-0.07847533375024796,"3":-1.1117630004882812,"4":-1.1752073764801025,"5":-0.32410892844200134,"6":1.4642596244812012,"7":0.4232053756713867,"8":-1.3742592334747314,"9":0.7163249850273132,"10":0.8401417136192322,"11":1.421494483947754,"12":1.298497200012207,"13":-1.309045672416687,"14":-1.2664556503295898,"15":-0.1993218958377838,"16":-2.477113723754883,"17":-0.8489867448806763,"18":0.16524653136730194,"19":0.26253601908683777,"20":0.8236367106437683,"21":-0.8356947302818298,"22":1.0037667751312256,"23":-2.875664234161377,"24":1.0737643241882324,"25":-0.49854588508605957,"26":2.5764498710632324,"27":-0.35900136828422546,"28":0.3883192837238312,"29":-2.167794942855835,"30":2.42138671875,"31":-0.10028799623250961,"32":-0.8997616767883301,"33":-0.9897510409355164,"34":-3.5681440830230713,"35":0.626190185546875,"36":-0.5111154317855835,"37":-0.041958969086408615,"38":-1.7130663394927979,"39":-0.9594670534133911,"40":-0.5775872468948364,"41":-0.7369927763938904,"42":-0.9692767858505249,"43":1.4654971361160278,"44":-1.9095189571380615,"45":-1.916988492012024,"46":-0.7041510343551636,"47":0.7203397154808044,"48":-1.2242285013198853,"49":-1.3410147428512573,"50":3.1147563457489014,"51":-0.24215921759605408,"52":-2.1541435718536377,"53":-0.7611142992973328,"54":1.1674379110336304,"55":-0.9844028949737549,"56":-1.3225955963134766,"57":-0.11348046362400055,"58":-0.6597736477851868,"59":-0.34977206587791443,"60":-1.8875577449798584,"61":-0.0952071025967598,"62":1.3880445957183838,"63":1.555775761604309,"64":-0.4382036328315735,"65":4.877299785614014,"66":1.6896942853927612,"67":3.460684299468994,"68":-0.4929371476173401,"69":0.4276127517223358,"70":-2.6407182216644287,"71":-0.02222733199596405,"72":2.052908182144165,"73":-2.101658344268799,"74":0.21786744892597198,"75":0.32629913091659546,"76":2.35992169380188,"77":-2.218414545059204,"78":0.29985129833221436,"79":-0.5888792276382446,"80":0.6145502924919128,"81":-1.0584379434585571,"82":-1.403679370880127,"83":-0.308418869972229,"84":-0.029490502551198006,"85":-1.3208913803100586,"86":1.6712679862976074,"87":0.49840086698532104,"88":-4.23748779296875,"89":0.4754639267921448,"90":-1.8050349950790405,"91":0.014276294969022274,"92":-0.572163462638855,"93":0.1802726536989212,"94":-0.8842837810516357,"95":0.48161616921424866,"96":0.3045109808444977,"97":0.616329550743103,"98":2.930436611175537,"99":-1.007427453994751,"100":0.43368589878082275,"101":2.050950527191162,"102":1.4217455387115479,"103":-1.945443034172058,"104":0.10036534816026688,"105":2.131836175918579,"106":-2.3098626136779785,"107":0.35829824209213257,"108":0.20835228264331818,"109":-0.21533076465129852,"110":-0.21727195382118225,"111":3.1810994148254395,"112":0.6149677634239197,"113":1.4667659997940063,"114":0.13394220173358917,"115":0.3253616392612457,"116":2.3458504676818848,"117":-1.1097655296325684,"118":-2.568244218826294,"119":1.215347409248352,"120":0.057512067258358,"121":0.6578923463821411,"122":0.20161192119121552,"123":1.0121936798095703,"124":1.0058577060699463,"125":0.22053465247154236,"126":0.16158072650432587,"127":-0.9085029363632202,"128":-1.9451801776885986,"129":-2.138730764389038,"130":3.4216558933258057,"131":-0.6156710982322693,"132":1.2595824003219604,"133":3.654850959777832,"134":-0.430337131023407,"135":-1.9651381969451904,"136":-0.8370561003684998,"137":2.0158495903015137,"138":-0.1149691790342331,"139":-1.887444257736206,"140":1.558081030845642,"141":-1.8144835233688354,"142":-1.0202162265777588,"143":-0.8868592977523804,"144":-0.5011499524116516,"145":-0.892081618309021,"146":-0.4434962570667267,"147":-2.03538179397583,"148":1.6198060512542725,"149":1.688798427581787,"150":1.0336344242095947,"151":0.30291661620140076,"152":3.4452033042907715,"153":0.16363602876663208,"154":-1.0373048782348633,"155":0.13512542843818665,"156":1.1723544597625732,"157":0.018036220222711563,"158":0.6018333435058594,"159":-1.0066263675689697,"160":0.2978523075580597,"161":-0.8745366930961609,"162":-2.13578200340271,"163":-1.4849658012390137,"164":0.18004633486270905,"165":-1.4812554121017456,"166":0.9283406138420105,"167":-2.3870551586151123,"168":-1.5319796800613403,"169":1.2228444814682007,"170":0.15267431735992432,"171":-1.331140398979187,"172":1.0163373947143555,"173":2.664447784423828,"174":0.0994396060705185,"175":0.055620696395635605,"176":-1.0271157026290894,"177":-0.941487193107605,"178":1.0719327926635742,"179":-2.9769771099090576,"180":-1.3875378370285034,"181":1.5629184246063232,"182":-0.09792281687259674,"183":1.942726731300354,"184":0.8708930611610413,"185":1.089381456375122,"186":1.3887214660644531,"187":-1.3928818702697754,"188":-3.0471746921539307,"189":-0.96860271692276,"190":-0.9153067469596863,"191":1.663507103919983,"192":-0.0316174142062664,"193":-2.939459800720215,"194":0.5989652872085571,"195":-1.4980189800262451,"196":-2.5256457328796387,"197":1.8177189826965332,"198":0.3349456489086151,"199":0.9492263793945312,"200":-2.5321013927459717,"201":-0.34547901153564453,"202":0.07461530715227127,"203":0.7989363670349121,"204":0.49798843264579773,"205":-1.787574052810669,"206":-1.2774279117584229,"207":-1.0588243007659912,"208":-1.1839262247085571,"209":1.7424778938293457,"210":1.1586997509002686,"211":-2.512477159500122,"212":-0.7128043174743652,"213":-0.6147488951683044,"214":0.6622276902198792,"215":-1.0983425378799438,"216":1.207863450050354,"217":0.06558560580015182,"218":1.9953964948654175,"219":-2.925481081008911,"220":1.906470537185669,"221":1.3957096338272095,"222":-0.01820208691060543,"223":0.2160840630531311,"224":0.16134944558143616,"225":-0.6889762878417969,"226":-0.7667849659919739,"227":1.889725923538208,"228":-0.19399088621139526,"229":0.8213462233543396,"230":0.599223256111145,"231":-0.9317485094070435,"232":0.32665538787841797,"233":1.9451406002044678,"234":1.7822985649108887,"235":3.180492401123047,"236":-0.8641660809516907,"237":2.636613130569458,"238":1.369304895401001,"239":-0.08077076077461243,"240":0.05163834989070892,"241":-1.5055880546569824,"242":2.080514669418335,"243":0.7809430360794067,"244":0.32948067784309387,"245":1.1840124130249023,"246":-5.594374179840088,"247":-0.9730393290519714,"248":-0.1604761928319931,"249":-2.699492931365967,"250":1.7014617919921875,"251":-0.5416829586029053,"252":-1.3677960634231567,"253":2.9059791564941406,"254":-1.0015041828155518,"255":1.884678840637207,"256":2.277141571044922,"257":0.55348801612854,"258":1.7809807062149048,"259":3.696549415588379,"260":-0.2669946849346161,"261":-2.168761968612671,"262":1.3332030773162842,"263":0.574137270450592,"264":0.4116402864456177,"265":0.755932629108429,"266":2.8083677291870117,"267":2.637399673461914,"268":-0.7648366689682007,"269":0.48584452271461487,"270":-1.049872875213623,"271":1.4937565326690674,"272":-0.4016875624656677,"273":0.006200725212693214,"274":-0.14080648124217987,"275":-0.8804228901863098,"276":-0.375975102186203,"277":-0.8248432278633118,"278":0.9542566537857056,"279":-0.1937325894832611,"280":-1.53974449634552,"281":-1.2657912969589233,"282":-0.779822051525116,"283":2.084832191467285,"284":2.559016704559326,"285":-2.392730712890625,"286":-0.19121991097927094,"287":2.3826828002929688,"288":-0.31147968769073486,"289":-4.281700611114502,"290":1.3696644306182861,"291":1.406124472618103,"292":-1.6762374639511108,"293":3.0415990352630615,"294":-0.2237781137228012,"295":2.4186110496520996,"296":-0.962637722492218,"297":-1.488328218460083,"298":0.8569368720054626,"299":2.188631057739258,"300":2.319253921508789,"301":-0.4656991958618164,"302":1.534376859664917,"303":-2.8428196907043457,"304":5.164508819580078,"305":-2.6568779945373535,"306":-1.3241631984710693,"307":-0.21798381209373474,"308":2.0416505336761475,"309":0.399177223443985,"310":-3.9022903442382812,"311":-1.7277464866638184,"312":-2.2184906005859375,"313":4.036360263824463,"314":0.613219141960144,"315":1.2284536361694336,"316":3.1156649589538574,"317":1.4754323959350586,"318":-3.69158673286438,"319":-3.644094228744507,"320":0.6636354923248291,"321":-2.605064630508423,"322":-1.5144164562225342,"323":-4.736963272094727,"324":-1.7206834554672241,"325":0.8599382042884827,"326":-1.253871202468872,"327":-0.5764829516410828,"328":1.0694167613983154,"329":-1.3858827352523804,"330":0.7306817770004272,"331":-5.265364646911621,"332":3.311509609222412,"333":-5.145709037780762,"334":-0.5258532762527466,"335":-1.475716233253479,"336":0.5022963285446167,"337":1.4122549295425415,"338":0.03557129576802254,"339":1.63606858253479,"340":0.2354011982679367,"341":-1.9209496974945068,"342":-0.3427622616291046,"343":-1.2718586921691895,"344":2.141517400741577,"345":1.162834882736206,"346":2.7996773719787598,"347":0.8703420162200928,"348":0.6908819079399109,"349":-3.6415703296661377,"350":1.1141430139541626,"351":2.1408493518829346,"352":-1.4231964349746704,"353":-0.551596462726593,"354":0.20282620191574097,"355":-1.3746411800384521,"356":-1.8167738914489746,"357":0.34011387825012207,"358":-0.08630774915218353,"359":1.4960689544677734,"360":-0.03973516449332237,"361":0.4936695098876953,"362":-2.4725124835968018,"363":1.1463091373443604,"364":0.3747842311859131,"365":-0.0560535192489624,"366":1.8527793884277344,"367":-1.0103448629379272,"368":6.985706806182861,"369":2.030982732772827,"370":-0.6845077276229858,"371":3.516178607940674,"372":-2.7778875827789307,"373":-2.1840293407440186,"374":-2.980647563934326,"375":-2.4390199184417725,"376":3.4932448863983154,"377":-3.653642177581787,"378":-0.4075007140636444,"379":-0.472686231136322,"380":-1.2213350534439087,"381":2.260526418685913,"382":0.4321742653846741,"383":-0.13821513950824738,"384":-1.2939573526382446,"385":-0.8593263626098633,"386":0.40878623723983765,"387":-0.48639994859695435,"388":-4.317845344543457,"389":3.188673496246338,"390":1.5700321197509766,"391":-1.0208336114883423,"392":0.5220723748207092,"393":-1.242783784866333,"394":-4.559418201446533,"395":-0.44969913363456726,"396":0.4838842749595642,"397":-1.439473271369934,"398":0.9013938307762146,"399":0.9409876465797424,"400":1.3722811937332153,"401":-0.4367761015892029,"402":1.7047492265701294,"403":1.1598401069641113,"404":-1.0689133405685425,"405":-0.2815726101398468,"406":0.4449176490306854,"407":0.5614716410636902,"408":-1.582851767539978,"409":-0.41743579506874084,"410":-0.13272328674793243,"411":0.18739010393619537,"412":2.1041617393493652,"413":-0.9404897093772888,"414":-0.016236595809459686,"415":1.0817179679870605,"416":1.482282042503357,"417":-0.5242860913276672,"418":0.2944735884666443,"419":-1.9408060312271118,"420":0.4457319378852844,"421":1.3041820526123047,"422":3.377772569656372,"423":1.901896357536316,"424":0.5851529240608215,"425":1.1647039651870728,"426":-0.7837159633636475,"427":0.9939141273498535,"428":0.9061552286148071,"429":1.2807472944259644,"430":-2.5836219787597656,"431":-3.6752548217773438,"432":1.2693092823028564,"433":1.6375154256820679,"434":1.073252558708191,"435":2.3527393341064453,"436":-0.4602782726287842,"437":-1.9000465869903564,"438":1.991395115852356,"439":-1.9663058519363403,"440":-1.4358752965927124,"441":1.4430668354034424,"442":0.0035230035427957773,"443":2.155886173248291,"444":-2.9868667125701904,"445":-3.472975969314575,"446":-1.6422781944274902,"447":-0.7958146333694458,"448":0.18268151581287384,"449":1.3159544467926025,"450":1.019303560256958,"451":0.8784035444259644,"452":0.5041762590408325,"453":-0.45547303557395935,"454":-1.1566559076309204,"455":-0.06387219578027725,"456":0.4878201484680176,"457":-1.4616153240203857,"458":-1.3681013584136963,"459":2.670712471008301,"460":0.9475443363189697,"461":-2.288936138153076,"462":-0.1695404350757599,"463":-0.5707575678825378,"464":-4.010197639465332,"465":-1.3575329780578613,"466":-0.1834978461265564,"467":0.8993955254554749,"468":1.0711196660995483,"469":-0.23326076567173004,"470":0.2053900510072708,"471":-3.581691265106201,"472":1.6729484796524048,"473":-0.026173440739512444,"474":-2.9842426776885986,"475":-2.874204397201538,"476":-0.5430082082748413,"477":-1.3943533897399902,"478":0.9460208415985107,"479":1.1078002452850342,"480":2.198244333267212,"481":0.6303389072418213,"482":0.3755198121070862,"483":-1.6628787517547607,"484":0.04175781458616257,"485":-1.115242838859558,"486":-1.2148237228393555,"487":1.1522566080093384,"488":3.077385663986206,"489":0.8493437767028809,"490":1.459780216217041,"491":-1.8991808891296387,"492":0.6529157757759094,"493":1.0138128995895386,"494":0.8236992359161377,"495":0.7497543096542358,"496":2.0385453701019287,"497":-1.886303424835205,"498":-1.3635127544403076,"499":0.8712301254272461,"500":1.2911498546600342,"501":-1.667869210243225,"502":-0.31529322266578674,"503":0.41375306248664856,"504":0.035447247326374054,"505":-2.2472100257873535,"506":2.5639188289642334,"507":1.5144917964935303,"508":-3.7097573280334473,"509":-0.5035067796707153,"510":-0.5459426045417786,"511":-4.449070453643799,"512":-0.047939546406269073,"513":0.6649731397628784,"514":3.9721603393554688,"515":-2.077277183532715,"516":0.8793072700500488,"517":-3.821652412414551,"518":-0.2581973671913147,"519":3.5840671062469482,"520":1.532618761062622,"521":-3.0793097019195557,"522":2.0687415599823,"523":-2.5379257202148438,"524":2.4399516582489014,"525":-1.1727025508880615,"526":-0.7111113667488098,"527":-0.26962995529174805,"528":2.2503650188446045,"529":-2.1727912425994873,"530":1.143083095550537,"531":4.090620517730713,"532":2.2193057537078857,"533":0.05697984620928764,"534":0.030228087678551674,"535":-4.857938766479492,"536":2.240792989730835,"537":1.3131052255630493,"538":-3.271498918533325,"539":0.476146936416626,"540":-0.23692364990711212,"541":0.6632534265518188,"542":-4.068251609802246,"543":-0.7055392861366272,"544":-1.5890439748764038,"545":1.0751961469650269,"546":0.15983082354068756,"547":-1.6638031005859375,"548":0.3624016344547272,"549":-2.0335805416107178,"550":1.7120972871780396,"551":0.7739353179931641,"552":0.3627301752567291,"553":-1.5502171516418457,"554":-3.304351568222046,"555":0.33355021476745605,"556":-0.5147196054458618,"557":2.3286821842193604,"558":0.8446460366249084,"559":-0.5390759706497192,"560":-5.025524616241455,"561":-3.540955066680908,"562":-0.6954067349433899,"563":0.5563771724700928,"564":-0.09432412683963776,"565":0.5328460931777954,"566":-0.74257493019104,"567":-0.563552737236023,"568":3.344414234161377,"569":-2.5401289463043213,"570":-0.17478051781654358,"571":-1.684165358543396,"572":0.3578271269798279,"573":0.723548173904419,"574":0.9631150960922241,"575":1.0792948007583618,"576":-2.638876438140869,"577":-0.08827325701713562,"578":-1.9974168539047241,"579":-0.946895182132721,"580":-0.9141241908073425,"581":1.1506415605545044,"582":0.36216849088668823,"583":2.4664204120635986,"584":1.091578483581543,"585":-5.488908767700195,"586":-1.3192417621612549,"587":-0.8272919058799744,"588":1.096661925315857,"589":0.12759418785572052,"590":-3.31398606300354,"591":-1.7777451276779175,"592":-1.0236622095108032,"593":-0.8731020092964172,"594":-5.705066204071045,"595":3.052898645401001,"596":-3.2121613025665283,"597":-0.555098295211792,"598":1.6617614030838013,"599":3.1938486099243164,"600":-0.1989683359861374,"601":-1.2177776098251343,"602":-2.8216214179992676,"603":-0.921915590763092,"604":0.24838268756866455,"605":2.8255844116210938,"606":-2.556520700454712,"607":3.836982250213623,"608":0.2481386512517929,"609":2.0621511936187744,"610":1.6578929424285889,"611":-0.7733706831932068,"612":2.346907138824463,"613":1.1772552728652954,"614":-3.2639238834381104,"615":2.326293706893921,"616":-1.2427610158920288,"617":-0.6376173496246338,"618":0.4719063341617584,"619":0.8715886473655701,"620":-0.11028502881526947,"621":-1.557168960571289,"622":0.16040028631687164,"623":3.6150083541870117,"624":2.6522796154022217,"625":-5.990945339202881,"626":0.362314373254776,"627":-2.9171371459960938,"628":-2.6169235706329346,"629":-0.509418785572052,"630":-3.0775134563446045,"631":1.988176703453064,"632":1.7118592262268066,"633":-0.7258924245834351,"634":0.6624229550361633,"635":-3.445538282394409,"636":0.3084787130355835,"637":-0.04679172858595848,"638":1.7152689695358276,"639":0.7804359793663025,"640":-1.5606367588043213,"641":2.8397233486175537,"642":2.022493839263916,"643":1.9663598537445068,"644":4.820522308349609,"645":3.366481304168701,"646":-2.9312222003936768,"647":-3.248896837234497,"648":-0.946491003036499,"649":1.4270445108413696,"650":-2.724219560623169,"651":0.46782001852989197,"652":0.5042048692703247,"653":2.7034332752227783,"654":-0.05815863236784935,"655":0.8311607241630554,"656":0.5744851231575012,"657":1.8407680988311768,"658":-0.8990569114685059,"659":6.2913289070129395,"660":-2.183309316635132,"661":-1.1847634315490723,"662":0.7646644115447998,"663":-0.02409040927886963,"664":-3.2622480392456055,"665":1.0304476022720337,"666":-1.9433588981628418,"667":-4.256662368774414,"668":1.8981608152389526,"669":3.900674343109131,"670":1.7648080587387085,"671":-4.200888156890869,"672":-0.09852293133735657,"673":2.2898011207580566,"674":-0.6696298122406006,"675":-4.354254722595215,"676":0.751710057258606,"677":-2.2800960540771484,"678":-1.4132369756698608,"679":0.25340408086776733,"680":-1.9081294536590576,"681":-3.060271739959717,"682":0.364533394575119,"683":1.5801984071731567,"684":-2.5978128910064697,"685":-1.9311363697052002,"686":1.473165512084961,"687":1.4891947507858276,"688":-0.5487620234489441,"689":-2.1288890838623047,"690":-2.9047093391418457,"691":1.129944086074829,"692":0.21120351552963257,"693":1.8610515594482422,"694":2.635782241821289,"695":-0.516575276851654,"696":0.2801242768764496,"697":2.254115581512451,"698":2.2336957454681396,"699":0.03654874116182327,"700":0.38448476791381836,"701":0.572794497013092,"702":-2.7921206951141357,"703":-0.16973349452018738,"704":-2.7280516624450684,"705":-2.204620838165283,"706":-2.3886773586273193,"707":1.1019362211227417,"708":1.3523705005645752,"709":-1.9392123222351074,"710":2.7842612266540527,"711":0.19645972549915314,"712":-4.544124603271484,"713":-2.3892526626586914,"714":1.8629202842712402,"715":3.146571636199951,"716":3.283252716064453,"717":4.26399040222168,"718":-0.694584846496582,"719":-0.24471446871757507,"720":4.641643047332764,"721":-1.408218264579773,"722":0.7050929665565491,"723":3.5984926223754883,"724":-2.392115354537964,"725":-1.7896628379821777,"726":2.518561840057373,"727":0.8716896176338196,"728":3.4709649085998535,"729":0.9634367823600769,"730":2.484454870223999,"731":-2.261284589767456,"732":-2.601323127746582,"733":-0.706396222114563,"734":1.3243389129638672,"735":-0.6713171005249023,"736":1.4558159112930298,"737":0.4430755376815796,"738":2.443223237991333,"739":-0.15479709208011627,"740":2.325559616088867,"741":-0.32649776339530945,"742":1.975393533706665,"743":-3.5024514198303223,"744":0.776033878326416,"745":-2.8480639457702637,"746":-1.6635979413986206,"747":-0.835669994354248,"748":-1.2957366704940796,"749":-1.9693275690078735,"750":1.0244394540786743,"751":2.642289161682129,"752":-0.8587881326675415,"753":2.1437652111053467,"754":-0.5595447421073914,"755":-1.229336142539978,"756":-8.32104206085205,"757":0.22325190901756287,"758":-1.6939871311187744,"759":2.0029916763305664,"760":-0.8436168432235718,"761":-4.736673355102539,"762":2.436445474624634,"763":1.3022574186325073,"764":1.029721736907959,"765":-1.7456927299499512,"766":-0.22732611000537872,"767":0.13691939413547516,"768":-1.4893163442611694,"769":-1.5755542516708374,"770":2.686774253845215,"771":-4.470351696014404,"772":0.3737708628177643,"773":-0.07680512964725494,"774":-1.8567849397659302,"775":-1.5816060304641724,"776":-1.294179916381836,"777":0.39988845586776733,"778":-4.523255825042725,"779":-3.553471565246582,"780":2.726156234741211,"781":-0.1495332568883896,"782":0.3281403183937073,"783":-1.5932866334915161,"784":1.2100757360458374,"785":2.917095184326172,"786":-2.1114590167999268,"787":-3.1948068141937256,"788":4.306878566741943,"789":-1.460078239440918,"790":-1.9957911968231201,"791":0.20361362397670746,"792":-0.8553981781005859,"793":0.3518019914627075,"794":-1.1102591753005981,"795":1.4535491466522217,"796":1.0163880586624146,"797":0.1915673166513443,"798":0.0635877326130867,"799":0.22158487141132355,"800":4.0772929191589355,"801":0.8746591210365295,"802":-1.6675623655319214,"803":-2.191295862197876,"804":-1.560551643371582,"805":3.4240708351135254,"806":-3.7522010803222656,"807":1.1535292863845825,"808":-4.151634216308594,"809":-0.422446072101593,"810":-0.6852551698684692,"811":3.3197903633117676,"812":1.31448495388031,"813":5.03967809677124,"814":0.0031433729454874992,"815":0.20017771422863007,"816":1.019932508468628,"817":0.48846110701560974,"818":-0.873626172542572,"819":0.966649055480957,"820":1.8751857280731201,"821":-3.7202274799346924,"822":0.09697627276182175,"823":-3.8775582313537598,"824":0.09960416704416275,"825":1.46096932888031,"826":4.249207973480225,"827":1.3135887384414673,"828":-1.6497001647949219,"829":0.6662746071815491,"830":-2.1354868412017822,"831":-0.6847997307777405,"832":-2.533452033996582,"833":2.7213306427001953,"834":-1.3847967386245728,"835":1.1715906858444214,"836":2.083786964416504,"837":-0.19302624464035034,"838":0.8081986308097839,"839":-0.4014512598514557,"840":1.1694566011428833,"841":-1.9272181987762451,"842":3.1929311752319336,"843":2.500072956085205,"844":-3.4528629779815674,"845":2.043243885040283,"846":2.7662534713745117,"847":-1.2626539468765259,"848":4.838929176330566,"849":0.16843171417713165,"850":-1.7511847019195557,"851":-0.8123458027839661,"852":0.5312692523002625,"853":-4.065241813659668,"854":3.1186091899871826,"855":3.153784990310669,"856":0.6084238886833191,"857":-1.875803828239441,"858":-0.3326575756072998,"859":-3.320476770401001,"860":2.466993808746338,"861":1.158745288848877,"862":0.8126237392425537,"863":-0.590401828289032,"864":-0.6809616684913635,"865":-1.2129122018814087,"866":-0.8795329928398132,"867":1.4931777715682983,"868":0.8070881366729736,"869":-3.5714895725250244,"870":1.6402862071990967,"871":-5.743941783905029,"872":2.7572309970855713,"873":2.3154542446136475,"874":1.8616834878921509,"875":0.927119791507721,"876":3.2840566635131836,"877":-0.9696977734565735,"878":-0.5038200616836548,"879":1.2142906188964844,"880":0.006815576925873756,"881":0.6286032795906067,"882":-1.7246695756912231,"883":0.14889921247959137,"884":7.458898067474365,"885":-1.0939600467681885,"886":-2.2288715839385986,"887":-0.8317958116531372,"888":-0.8832167387008667,"889":0.7325927019119263,"890":-2.854152202606201,"891":2.185305118560791,"892":-1.745018720626831,"893":1.122557282447815,"894":-1.709883451461792,"895":-0.5971086621284485,"896":0.7768428325653076,"897":4.020606517791748,"898":0.201470747590065,"899":0.3847030997276306,"900":-0.5247628092765808,"901":0.007315244060009718,"902":-0.10385012626647949,"903":-1.839249849319458,"904":1.7615936994552612,"905":-3.2557289600372314,"906":2.5869805812835693,"907":-2.7631356716156006,"908":0.15544064342975616,"909":0.37906476855278015,"910":5.317631721496582,"911":2.0773937702178955,"912":-2.014697790145874,"913":0.19826702773571014,"914":0.7920406460762024,"915":-2.2632339000701904,"916":-4.774162769317627,"917":2.920189619064331,"918":0.5581949949264526,"919":1.3658082485198975,"920":2.0822229385375977,"921":0.9580774307250977,"922":-0.375209778547287,"923":1.1394587755203247,"924":-1.9422006607055664,"925":3.2760415077209473,"926":-2.370836019515991,"927":3.7696659564971924,"928":1.104729175567627,"929":1.3767235279083252,"930":-1.6615303754806519,"931":-0.5755380392074585,"932":-0.7262577414512634,"933":-2.1735098361968994,"934":-2.814173460006714,"935":2.457615852355957,"936":-1.5089190006256104,"937":-0.862328827381134,"938":-0.011236189864575863,"939":2.780200481414795,"940":-1.1877937316894531,"941":-2.651533603668213,"942":-3.3549506664276123,"943":1.4176900386810303,"944":-3.107365131378174,"945":4.007487773895264,"946":-0.5959203839302063,"947":0.14883625507354736,"948":1.3498557806015015,"949":-0.6821873188018799,"950":0.11548060178756714,"951":-2.7390270233154297,"952":-1.7050811052322388,"953":0.8304930925369263,"954":-3.957143783569336,"955":2.3861093521118164,"956":-1.0458271503448486,"957":2.267174482345581,"958":-3.0332236289978027,"959":0.6744906306266785,"960":4.33837366104126,"961":-3.8188955783843994,"962":-1.9947260618209839,"963":-1.5103895664215088,"964":-0.19311468303203583,"965":-3.0724761486053467,"966":-1.5396114587783813,"967":1.8298578262329102,"968":0.5240020155906677,"969":-0.8401964902877808,"970":0.5278135538101196,"971":-1.4690173864364624,"972":-0.5715737342834473,"973":3.025703191757202,"974":-2.187297821044922,"975":0.23641043901443481,"976":-1.627074956893921,"977":0.4937613904476166,"978":-2.653557777404785,"979":-0.5548062920570374,"980":1.3869431018829346,"981":2.9741339683532715,"982":1.641198754310608,"983":1.4475371837615967,"984":-0.7536764740943909,"985":0.7646169662475586,"986":-1.1004525423049927,"987":-2.5311055183410645,"988":0.8297688961029053,"989":-0.801232099533081,"990":0.259020060300827,"991":1.0689079761505127,"992":1.001049518585205,"993":-0.5504209995269775,"994":1.975648283958435,"995":1.88001549243927,"996":0.5472123622894287,"997":0.5449967384338379,"998":-1.2251490354537964,"999":-0.7802392244338989,"1000":-5.292994499206543,"1001":1.6575835943222046,"1002":-0.6497558355331421,"1003":-0.7713856101036072,"1004":0.44595324993133545,"1005":-1.1205971240997314,"1006":0.604749321937561,"1007":2.3646233081817627,"1008":0.870345413684845,"1009":-1.8070451021194458,"1010":-1.9719960689544678,"1011":0.5813056826591492,"1012":-1.9546252489089966,"1013":3.035198450088501,"1014":-0.6232238411903381,"1015":-0.3141230642795563,"1016":-4.440611362457275,"1017":0.2608184814453125,"1018":0.09377209097146988,"1019":0.29299691319465637,"1020":-2.4419631958007812,"1021":1.2098736763000488,"1022":-0.5298369526863098,"1023":-1.2994260787963867,"1024":1.1756079196929932,"1025":0.6071261763572693,"1026":-1.5420624017715454,"1027":-3.7011349201202393,"1028":0.4666709005832672,"1029":-0.5818310976028442,"1030":-1.2819668054580688,"1031":-0.23408493399620056,"1032":1.0879955291748047,"1033":2.693056344985962,"1034":1.2458161115646362,"1035":3.193594217300415,"1036":-0.8379223346710205,"1037":0.3151775002479553,"1038":-0.7685379981994629,"1039":-5.037170886993408,"1040":-2.075894832611084,"1041":0.6955214142799377,"1042":-0.8066859245300293,"1043":-2.127336025238037,"1044":-0.11843736469745636,"1045":-2.6952826976776123,"1046":0.865726113319397,"1047":-0.4723148047924042,"1048":-1.020049810409546,"1049":2.058030605316162,"1050":1.780828833580017,"1051":-1.4669357538223267,"1052":4.119339466094971,"1053":1.7761986255645752,"1054":-2.36716628074646,"1055":2.3376688957214355,"1056":0.731154203414917,"1057":-3.8191685676574707,"1058":-0.23377370834350586,"1059":2.6015727519989014,"1060":1.6679587364196777,"1061":-0.054162245243787766,"1062":0.5103146433830261,"1063":0.7907822728157043,"1064":-0.26831039786338806,"1065":-2.1040804386138916,"1066":0.46440601348876953,"1067":-0.35926175117492676,"1068":3.8097565174102783,"1069":1.0439205169677734,"1070":0.6941452622413635,"1071":0.3737346827983856,"1072":-0.9016870856285095,"1073":1.1606357097625732,"1074":-0.30706140398979187,"1075":-0.39917200803756714,"1076":0.5807363986968994,"1077":4.118750095367432,"1078":3.3638362884521484,"1079":-1.432178258895874,"1080":0.7667319774627686,"1081":-1.8596550226211548,"1082":-1.0548418760299683,"1083":-0.3206649720668793,"1084":-0.9009463787078857,"1085":0.6064652800559998,"1086":-0.13393224775791168,"1087":-0.5587101578712463,"1088":-2.334296226501465,"1089":0.1600751429796219,"1090":-1.8455898761749268,"1091":0.6228365302085876,"1092":-1.1988182067871094,"1093":-2.3793256282806396,"1094":-1.3722859621047974,"1095":1.3045941591262817,"1096":0.00675647659227252,"1097":-0.2190040498971939,"1098":-0.48773592710494995,"1099":1.5330456495285034,"1100":2.4540178775787354,"1101":0.3423747420310974,"1102":-0.4215446412563324,"1103":-0.38907161355018616,"1104":1.2251821756362915,"1105":-2.3450419902801514,"1106":-1.660954236984253,"1107":-2.897709369659424,"1108":0.31534716486930847,"1109":0.9175519943237305,"1110":2.5190787315368652,"1111":0.03080407716333866,"1112":4.946444511413574,"1113":-4.004444599151611,"1114":0.02995140664279461,"1115":-3.0385594367980957,"1116":-6.670119285583496,"1117":-0.8398501873016357,"1118":0.5192574262619019,"1119":2.980276584625244,"1120":-0.8566330075263977,"1121":-2.5120773315429688,"1122":-1.200813889503479,"1123":-2.302147388458252,"1124":-0.402851402759552,"1125":-0.0867096409201622,"1126":2.830864667892456,"1127":-4.066958427429199,"1128":-1.513588547706604,"1129":0.6619232296943665,"1130":-1.9318616390228271,"1131":2.2792680263519287,"1132":-4.252488613128662,"1133":0.7869907021522522,"1134":-1.0325827598571777,"1135":-2.810964822769165,"1136":-0.5757936835289001,"1137":-0.9950237274169922,"1138":-0.36791419982910156,"1139":-4.179293632507324,"1140":-0.5286029577255249,"1141":2.7430052757263184,"1142":0.018847443163394928,"1143":-0.42591607570648193,"1144":-0.9115365743637085,"1145":-1.429572582244873,"1146":0.670031726360321,"1147":1.6577622890472412,"1148":0.7638632655143738,"1149":-1.3024609088897705,"1150":-0.4582667350769043,"1151":-0.057701002806425095,"1152":0.7364442348480225,"1153":0.9707220792770386,"1154":4.543977737426758,"1155":-1.7199313640594482,"1156":-2.2489242553710938,"1157":1.9451321363449097,"1158":2.506882905960083,"1159":5.257660388946533,"1160":-0.10695981234312057,"1161":0.9828815460205078,"1162":1.818892240524292,"1163":-0.08550404757261276,"1164":-1.7203410863876343,"1165":-2.9313600063323975,"1166":2.463085651397705,"1167":2.6805856227874756,"1168":0.6033794283866882,"1169":-2.5402016639709473,"1170":-1.0594327449798584,"1171":3.8825435638427734,"1172":-0.5673259496688843,"1173":1.6956713199615479,"1174":0.14200949668884277,"1175":-0.5169706344604492,"1176":0.08024461567401886,"1177":-2.1117734909057617,"1178":-1.179624080657959,"1179":7.777936935424805,"1180":0.4304600954055786,"1181":-1.1061599254608154,"1182":3.5674097537994385,"1183":3.954136371612549,"1184":2.2544703483581543,"1185":1.137864589691162,"1186":2.5041847229003906,"1187":-1.9806852340698242,"1188":0.41209396719932556,"1189":-1.7045061588287354,"1190":0.9847989678382874,"1191":-2.052302598953247,"1192":-0.06019457057118416,"1193":-1.4927517175674438,"1194":2.040545701980591,"1195":1.186577320098877,"1196":-0.8150672912597656,"1197":0.9959744215011597,"1198":-1.5463334321975708,"1199":3.454710006713867,"1200":-0.0651889517903328,"1201":-0.0005853131879121065,"1202":-5.72894811630249,"1203":-2.528240442276001,"1204":-2.582935094833374,"1205":-3.873427629470825,"1206":-1.2560566663742065,"1207":1.5801200866699219,"1208":1.479402780532837,"1209":4.741222381591797,"1210":1.2917728424072266,"1211":0.7972203493118286,"1212":2.3485023975372314,"1213":-0.47068747878074646,"1214":-0.9223166704177856,"1215":1.5723493099212646,"1216":-0.7373622059822083,"1217":-1.8328042030334473,"1218":-2.425945997238159,"1219":-1.2194486856460571,"1220":0.7909038066864014,"1221":-1.5273776054382324,"1222":-0.5472010374069214,"1223":0.6093248128890991,"1224":-4.707195281982422,"1225":1.96409010887146,"1226":-5.881960391998291,"1227":5.194498062133789,"1228":-1.0028252601623535,"1229":5.159412384033203,"1230":0.6228769421577454,"1231":0.8137217164039612,"1232":-4.59347677230835,"1233":2.687623977661133,"1234":2.0157065391540527,"1235":0.17512135207653046,"1236":-1.2378946542739868,"1237":4.64148473739624,"1238":-0.007789138704538345,"1239":1.1433366537094116,"1240":-1.2494136095046997,"1241":0.20707370340824127,"1242":0.1303233653306961,"1243":-0.1306612193584442,"1244":0.08505935221910477,"1245":-0.3771628141403198,"1246":-1.5165332555770874,"1247":5.651062488555908,"1248":0.07836257666349411,"1249":-0.8125939965248108,"1250":-3.742342472076416,"1251":-2.897076368331909,"1252":-6.44534969329834,"1253":-1.7745087146759033,"1254":-2.25297212600708,"1255":-1.328223466873169,"1256":2.1422202587127686,"1257":0.06990519911050797,"1258":-0.6246460676193237,"1259":1.2950888872146606,"1260":2.1472249031066895,"1261":-2.4678003787994385,"1262":-0.3110714256763458,"1263":4.845414638519287,"1264":-2.1626312732696533,"1265":-0.16714130342006683,"1266":1.5969234704971313,"1267":-0.056924693286418915,"1268":-2.0298333168029785,"1269":2.3775928020477295,"1270":-1.593207836151123,"1271":-3.1468920707702637,"1272":-0.41602620482444763,"1273":1.0127907991409302,"1274":-1.8950068950653076,"1275":-0.1841297149658203,"1276":2.5899550914764404,"1277":2.8068642616271973,"1278":2.0167551040649414,"1279":1.8152697086334229,"1280":-1.7773715257644653,"1281":0.34869709610939026,"1282":0.35300955176353455,"1283":3.176536798477173,"1284":1.7438942193984985,"1285":-1.7061562538146973,"1286":0.3442946970462799,"1287":-0.46207699179649353,"1288":4.060117244720459,"1289":-0.5395357608795166,"1290":1.2677366733551025,"1291":-3.967090129852295,"1292":-0.2736912667751312,"1293":2.94392728805542,"1294":0.43040546774864197,"1295":-2.0777292251586914,"1296":-0.7363026142120361,"1297":-1.0858848094940186,"1298":-1.3173588514328003,"1299":-3.0088019371032715,"1300":1.4326677322387695,"1301":-2.447810411453247,"1302":-4.295553684234619,"1303":-1.852716326713562,"1304":-0.599469006061554,"1305":5.282871246337891,"1306":-8.42081356048584,"1307":0.19565244019031525,"1308":10.132475852966309,"1309":-11.758332252502441,"1310":17.045928955078125,"1311":1.5524543523788452,"1312":-5.27726936340332,"1313":-4.841996192932129,"1314":-2.1123156547546387,"1315":-7.17821741104126,"1316":2.307495355606079,"1317":-2.127349615097046,"1318":6.401815414428711,"1319":-8.356764793395996,"1320":-13.260475158691406,"1321":4.940706729888916,"1322":1.3235058784484863,"1323":3.3531265258789062,"1324":-8.066834449768066,"1325":-0.07215557992458344,"1326":8.641983985900879,"1327":-2.1509451866149902,"1328":-5.990657806396484,"1329":-3.5584630966186523,"1330":1.4539217948913574,"1331":-12.178407669067383,"1332":-5.93347692489624,"1333":-2.40100359916687,"1334":5.424963474273682,"1335":-2.3419013023376465,"1336":-2.9330997467041016,"1337":-9.19056224822998,"1338":-1.0048844814300537,"1339":0.16539104282855988,"1340":4.6398725509643555,"1341":-10.110367774963379,"1342":-0.03954024240374565,"1343":3.82432222366333,"1344":3.410922050476074,"1345":1.1196467876434326,"1346":0.1526888906955719,"1347":1.7306054830551147,"1348":-6.852959156036377,"1349":-4.388803958892822,"1350":0.004739315249025822,"1351":-0.3861768841743469,"1352":-3.324016571044922,"1353":4.292290210723877,"1354":2.1083462238311768,"1355":3.177144765853882,"1356":-1.2952673435211182,"1357":-2.6275346279144287,"1358":-1.5054128170013428,"1359":-1.6219598054885864,"1360":2.092319965362549,"1361":7.860307693481445,"1362":-1.7830628156661987,"1363":-0.9769065380096436,"1364":-0.10518638789653778,"1365":4.256137371063232,"1366":-3.563485622406006,"1367":0.21383555233478546,"1368":2.1452324390411377,"1369":1.4437953233718872,"1370":-2.7664172649383545,"1371":1.4805103540420532,"1372":-0.6049526929855347,"1373":4.196830749511719,"1374":3.351545572280884,"1375":-1.8460379838943481,"1376":1.5785197019577026,"1377":2.666477918624878,"1378":-2.5523605346679688,"1379":-0.05699937045574188,"1380":-1.6256847381591797,"1381":0.3342861235141754,"1382":-0.5255007147789001,"1383":-3.538130521774292,"1384":1.491776704788208,"1385":-1.0217909812927246,"1386":3.5224478244781494,"1387":11.894493103027344,"1388":-0.2858463227748871,"1389":10.519645690917969,"1390":8.504136085510254,"1391":9.44528579711914,"1392":-9.344752311706543,"1393":2.671051263809204,"1394":12.949472427368164,"1395":-0.6073330044746399,"1396":-6.904723644256592,"1397":2.382544755935669,"1398":-12.21313190460205,"1399":4.984407424926758,"1400":-11.804610252380371,"1401":4.047173976898193,"1402":14.920797348022461,"1403":-2.0866177082061768,"1404":6.150914669036865,"1405":-4.960551738739014,"1406":7.9826788902282715,"1407":-9.100610733032227,"1408":0.4782625734806061,"1409":4.480334281921387,"1410":-6.980182647705078,"1411":4.1940107345581055,"1412":15.052604675292969,"1413":-6.353482246398926,"1414":-4.877229690551758,"1415":-25.475889205932617,"1416":4.542453289031982,"1417":-3.538949489593506,"1418":-2.4410316944122314,"1419":0.5998954772949219,"1420":20.594661712646484,"1421":-1.5081605911254883,"1422":-6.44713830947876,"1423":6.142768383026123,"1424":-4.491170883178711,"1425":6.157141208648682,"1426":-1.3095738887786865,"1427":13.274336814880371,"1428":1.7683569192886353,"1429":-2.1494133472442627,"1430":-8.963434219360352,"1431":3.5650529861450195,"1432":1.836766004562378,"1433":-6.639045238494873,"1434":-5.480118274688721,"1435":11.833916664123535,"1436":-5.651481628417969,"1437":19.37912940979004,"1438":-7.605299472808838,"1439":0.6187708973884583,"1440":6.630690097808838,"1441":3.7501728534698486,"1442":-9.802258491516113,"1443":6.682263374328613,"1444":-3.740830421447754,"1445":-3.25570011138916,"1446":7.51851224899292,"1447":-10.677363395690918,"1448":-6.4114813804626465,"1449":12.283485412597656,"1450":2.8237781524658203,"1451":13.781736373901367,"1452":-16.742111206054688,"1453":1.726948857307434,"1454":-12.659340858459473,"1455":-1.065971851348877,"1456":-1.705340027809143,"1457":-0.02122405357658863,"1458":1.3309166431427002,"1459":9.039617538452148,"1460":-1.843296766281128,"1461":23.585729598999023,"1462":10.475839614868164,"1463":-5.195175647735596,"1464":2.4388015270233154,"1465":1.631141185760498,"1466":4.093547821044922,"1467":1.0417734384536743,"1468":-5.4524312019348145,"1469":-4.813414096832275,"1470":0.8376448750495911,"1471":-8.364777565002441,"1472":-5.201356887817383,"1473":4.290590286254883,"1474":-2.1747634410858154,"1475":-0.09380476921796799,"1476":2.717479944229126,"1477":15.169818878173828,"1478":-22.74323844909668,"1479":2.4454219341278076,"1480":8.912874221801758,"1481":-1.5349371433258057,"1482":10.502020835876465,"1483":-6.599689483642578,"1484":-1.9056848287582397,"1485":-4.13980770111084,"1486":5.184542179107666,"1487":21.32383155822754,"1488":-6.843789577484131,"1489":0.9468872547149658,"1490":4.674296855926514,"1491":-6.4278411865234375,"1492":14.226555824279785,"1493":0.603149950504303,"1494":9.787636756896973,"1495":-4.532876014709473,"1496":6.81678581237793,"1497":-6.320108413696289,"1498":6.114645481109619,"1499":-5.182224750518799,"1500":-4.738037586212158,"1501":-9.64952278137207,"1502":10.22230052947998,"1503":-8.231485366821289,"1504":6.448583602905273,"1505":9.978208541870117,"1506":-0.8105090856552124,"1507":7.285309314727783,"1508":-0.45803987979888916,"1509":-5.250495433807373,"1510":-9.272344589233398,"1511":0.8907866477966309,"1512":19.344383239746094,"1513":-1.5681664943695068,"1514":12.698251724243164,"1515":8.329687118530273,"1516":9.889585494995117,"1517":11.928899765014648,"1518":-13.15057373046875,"1519":-7.255840301513672,"1520":-0.06963753700256348,"1521":-16.91156005859375,"1522":20.533126831054688,"1523":0.21041537821292877,"1524":-12.330497741699219,"1525":6.362161159515381,"1526":-4.837201118469238,"1527":10.475948333740234,"1528":19.14657211303711,"1529":7.26262903213501,"1530":4.8904805183410645,"1531":29.8157901763916,"1532":-0.415624737739563,"1533":0.5114355087280273,"1534":-11.997936248779297,"1535":15.191391944885254,"1536":6.413470268249512,"1537":0.8868581056594849,"1538":-11.045684814453125,"1539":1.612769365310669,"1540":-11.117621421813965,"1541":10.269834518432617,"1542":-2.211313247680664,"1543":9.852583885192871,"1544":-15.807406425476074,"1545":-16.943193435668945,"1546":-6.325310707092285,"1547":1.5357640981674194,"1548":-4.586781024932861,"1549":-3.6272575855255127,"1550":-0.7494454979896545,"1551":2.5536017417907715,"1552":-5.44368314743042,"1553":1.3543187379837036,"1554":-1.4545589685440063,"1555":-13.324407577514648,"1556":-6.272185325622559,"1557":1.9883674383163452,"1558":-1.3857359886169434,"1559":-15.01311206817627,"1560":-7.208069324493408,"1561":4.291648864746094,"1562":-3.0485758781433105,"1563":15.417412757873535,"1564":7.622028350830078,"1565":-4.806405067443848,"1566":-6.819651126861572,"1567":9.669493675231934,"1568":1.6977602243423462,"1569":2.085522174835205,"1570":3.545603036880493,"1571":7.63640832901001,"1572":11.836912155151367,"1573":2.264272928237915,"1574":0.9647037982940674,"1575":-14.311295509338379,"1576":-2.7909557819366455,"1577":5.905331134796143,"1578":-13.495044708251953,"1579":-14.998027801513672,"1580":1.4488751888275146,"1581":2.838913917541504,"1582":3.2334108352661133,"1583":-2.930751085281372,"1584":-7.7896318435668945,"1585":-16.685640335083008,"1586":7.460153579711914,"1587":1.8083144426345825,"1588":0.49732184410095215,"1589":-2.869098663330078,"1590":-6.214729309082031,"1591":14.449068069458008,"1592":-2.8803060054779053,"1593":-0.5545085668563843,"1594":6.912143707275391,"1595":-3.9785194396972656,"1596":-9.065217971801758,"1597":-24.06351661682129,"1598":6.694444179534912,"1599":-7.8539814949035645,"1600":-2.025574207305908,"1601":3.514528512954712,"1602":-6.231291770935059,"1603":-8.362632751464844,"1604":2.8822033405303955,"1605":0.9490379691123962,"1606":7.269218444824219,"1607":10.184393882751465,"1608":2.8485634326934814,"1609":10.976694107055664,"1610":1.5644358396530151,"1611":-21.84879493713379,"1612":-7.530115604400635,"1613":9.224702835083008,"1614":2.5345370769500732,"1615":-2.472400188446045,"1616":-6.4411211013793945,"1617":-8.346067428588867,"1618":-3.0819666385650635,"1619":-17.51384735107422,"1620":13.612735748291016,"1621":-0.8901273012161255,"1622":2.790487289428711,"1623":21.614500045776367,"1624":-3.3662095069885254,"1625":20.260408401489258,"1626":-16.273962020874023,"1627":-11.564230918884277,"1628":12.783514022827148,"1629":-3.3942716121673584,"1630":1.938374638557434,"1631":9.26603889465332,"1632":-15.215095520019531,"1633":-3.305422782897949,"1634":6.528954029083252,"1635":-3.2861220836639404,"1636":2.736335039138794,"1637":-3.0659492015838623,"1638":-2.5628974437713623,"1639":20.133380889892578,"1640":2.196732521057129,"1641":-11.949698448181152,"1642":-2.7872273921966553,"1643":9.551729202270508,"1644":17.056241989135742,"1645":-12.1295166015625,"1646":10.91193962097168,"1647":-8.387961387634277,"1648":1.8256579637527466,"1649":-14.409468650817871,"1650":-7.35294771194458,"1651":-2.3039627075195312,"1652":-9.608675003051758,"1653":-9.334015846252441,"1654":-12.061814308166504,"1655":-13.007676124572754,"1656":-10.309293746948242,"1657":-12.518635749816895,"1658":10.055130958557129,"1659":8.821431159973145,"1660":-5.587184906005859,"1661":1.1961091756820679,"1662":7.669548988342285,"1663":6.872710227966309,"1664":15.551508903503418,"1665":-1.9751815795898438,"1666":-1.151533603668213,"1667":0.7418196201324463,"1668":-0.4531679153442383,"1669":11.519436836242676,"1670":-10.4845609664917,"1671":-8.191934585571289,"1672":0.30478912591934204,"1673":-0.3627839982509613,"1674":16.20985984802246,"1675":-5.27679967880249,"1676":-8.322102546691895,"1677":-14.162919044494629,"1678":4.921116352081299,"1679":7.212283611297607,"1680":0.009267251007258892,"1681":0.9282006621360779,"1682":-0.4081288278102875,"1683":0.5492189526557922,"1684":0.16255764663219452,"1685":0.45610862970352173,"1686":0.4898041784763336,"1687":-0.5161274075508118,"1688":0.0217689648270607,"1689":0.08292533457279205,"1690":1.4781363010406494,"1691":-0.8743640780448914,"1692":-0.7132800221443176,"1693":0.3484318256378174,"1694":0.025786329060792923,"1695":-0.21102869510650635,"1696":0.4257814586162567,"1697":-0.16512341797351837,"1698":-0.1433883011341095,"1699":-0.0834910050034523,"1700":-0.007897231727838516,"1701":-0.005242299288511276,"1702":-0.5807710886001587,"1703":0.7251349687576294,"1704":0.3198446035385132,"1705":-0.15693987905979156,"1706":0.05833969637751579,"1707":-0.4045292139053345,"1708":-0.366950660943985,"1709":0.21626995503902435,"1710":-0.22268393635749817,"1711":0.2755691707134247,"1712":0.5484864711761475,"1713":-0.24750018119812012,"1714":-0.2473982572555542,"1715":-1.024121642112732,"1716":-0.2904032766819,"1717":-0.41790109872817993,"1718":-0.0426580049097538,"1719":-0.3403026759624481,"1720":0.02433750219643116,"1721":0.9664673209190369,"1722":-0.270707905292511,"1723":0.47695961594581604,"1724":-0.7467848658561707,"1725":0.6749643683433533,"1726":-0.32382839918136597,"1727":0.5418397784233093,"1728":0.44871044158935547,"1729":-0.2824222445487976,"1730":-1.0599011182785034,"1731":-0.32342612743377686,"1732":0.3943081200122833,"1733":-1.5287517309188843,"1734":0.3266214430332184,"1735":-1.4757477045059204,"1736":0.9796016812324524,"1737":-0.48441973328590393,"1738":0.8536239266395569,"1739":0.7880243062973022,"1740":1.0291285514831543,"1741":0.08811488747596741,"1742":-0.051388099789619446,"1743":2.6159913539886475,"1744":-1.2993311882019043,"1745":0.5548748970031738,"1746":0.7834604978561401,"1747":-0.3892403244972229,"1748":-0.5720075964927673,"1749":1.1676071882247925,"1750":1.5601211786270142,"1751":-0.05759506672620773,"1752":-0.5089802145957947,"1753":1.2312045097351074,"1754":0.30245745182037354,"1755":1.7352535724639893,"1756":0.6952340006828308,"1757":-0.27592238783836365,"1758":-0.13239938020706177,"1759":-0.03647047281265259,"1760":1.0262010097503662,"1761":-0.23653466999530792,"1762":0.8516800999641418,"1763":-0.9513381719589233,"1764":0.000854034093208611,"1765":-0.0031594112515449524,"1766":-0.009858204983174801,"1767":-0.009559420868754387,"1768":0.0022190576419234276,"1769":0.0034207713324576616,"1770":0.005948697682470083,"1771":0.006909528747200966,"1772":0.00791045743972063,"1773":-0.007325978018343449,"1774":0.006387705914676189,"1775":0.005422068294137716,"1776":-0.010399393737316132,"1777":-0.010332240723073483,"1778":-0.007710503879934549,"1779":0.0076750051230192184,"1780":0.00606529088690877,"1781":-0.0012250726576894522,"1782":-0.005632972344756126,"1783":-0.0005295432056300342,"1784":0.008044145070016384,"1785":0.008894991129636765,"1786":-0.0016617713263258338,"1787":-0.0013877508463338017,"1788":-0.003637546207755804,"1789":-0.0033459970727562904,"1790":-0.005776476580649614,"1791":-0.005734679754823446,"1792":-0.005266642663627863,"1793":0.0034407819621264935,"1794":-0.003923254553228617,"1795":0.00827509630471468,"1796":-0.005070140119642019,"1797":-0.007837295532226562,"1798":0.0073048872873187065,"1799":-0.008847995661199093,"1800":-0.009346150793135166,"1801":0.0065722158178687096,"1802":-0.007871175184845924,"1803":-0.006761375814676285,"1804":0.0045160409063100815,"1805":0.0011116261593997478}},"hiddenLayers":[{"inputMatrix":{"rows":20,"columns":42,"weights":{"0":-1.804211139678955,"1":-2.0937349796295166,"2":-0.9952558875083923,"3":-0.811329185962677,"4":0.7124302983283997,"5":-1.6434128284454346,"6":-2.262634515762329,"7":0.4587879776954651,"8":0.3806035816669464,"9":-1.246642827987671,"10":-1.4347230195999146,"11":0.5569667816162109,"12":1.1249364614486694,"13":-1.358130931854248,"14":0.05446453392505646,"15":-1.1253836154937744,"16":0.15845561027526855,"17":0.4160093367099762,"18":-0.04278161749243736,"19":0.33377623558044434,"20":-1.568393349647522,"21":0.431356817483902,"22":2.054774284362793,"23":0.742028534412384,"24":-0.2373935729265213,"25":2.2412397861480713,"26":0.330863356590271,"27":0.923419177532196,"28":2.465857744216919,"29":0.7361178398132324,"30":-0.13566967844963074,"31":-1.6888808012008667,"32":0.6616601347923279,"33":0.7993517518043518,"34":1.0215799808502197,"35":1.1391587257385254,"36":0.9486507177352905,"37":1.156440258026123,"38":1.9682486057281494,"39":0.6755783557891846,"40":0.34183770418167114,"41":-2.253652334213257,"42":-0.8909860253334045,"43":0.11794071644544601,"44":0.007117810659110546,"45":1.7672911882400513,"46":0.6392452716827393,"47":0.6115882396697998,"48":2.215805768966675,"49":0.031766925007104874,"50":-0.6320688724517822,"51":-1.2379895448684692,"52":3.1219723224639893,"53":-2.9704151153564453,"54":-0.35508647561073303,"55":-0.8728664517402649,"56":0.9663695693016052,"57":0.8690274357795715,"58":0.1007651761174202,"59":-0.18175116181373596,"60":0.8323695063591003,"61":-1.8153188228607178,"62":1.039435863494873,"63":-1.9891499280929565,"64":-2.580432891845703,"65":-0.20004062354564667,"66":-1.1073373556137085,"67":-0.24427758157253265,"68":0.7408775091171265,"69":-1.6608730554580688,"70":-0.36652663350105286,"71":-1.6725831031799316,"72":-1.576730728149414,"73":0.045165568590164185,"74":-0.10894162207841873,"75":-1.3396469354629517,"76":1.9968421459197998,"77":-1.3636378049850464,"78":1.2029199600219727,"79":0.9614749550819397,"80":0.3479312062263489,"81":1.6714175939559937,"82":-1.2942007780075073,"83":2.0007269382476807,"84":-0.09284799546003342,"85":-0.0006945097702555358,"86":-0.3624184727668762,"87":-1.0902220010757446,"88":-0.04919421300292015,"89":0.3588973581790924,"90":-1.297317385673523,"91":-0.6829748153686523,"92":-1.1792707443237305,"93":-0.16082242131233215,"94":2.019319534301758,"95":0.31280946731567383,"96":0.05635589361190796,"97":-1.0616745948791504,"98":-1.1317521333694458,"99":0.15658698976039886,"100":0.40458983182907104,"101":-0.15012139081954956,"102":-0.7877228856086731,"103":-0.5811626315116882,"104":0.17892199754714966,"105":-0.0004599160165525973,"106":0.2517392039299011,"107":-0.048238206654787064,"108":0.5276049971580505,"109":-1.1665130853652954,"110":0.12625180184841156,"111":0.8548262715339661,"112":-0.13269086182117462,"113":0.6571578979492188,"114":0.176468625664711,"115":0.438808411359787,"116":1.5844937562942505,"117":0.0880042240023613,"118":-0.7110863924026489,"119":-0.16323547065258026,"120":0.38747087121009827,"121":0.45830321311950684,"122":0.15540601313114166,"123":-1.67127525806427,"124":1.0688159465789795,"125":-0.7108743786811829,"126":1.0548627376556396,"127":-1.3427743911743164,"128":1.9567211866378784,"129":-0.06911251693964005,"130":0.561039924621582,"131":-1.1114133596420288,"132":-0.8715901374816895,"133":0.6142345070838928,"134":0.8479045033454895,"135":-0.5032020807266235,"136":0.3570896089076996,"137":2.637087106704712,"138":1.5410423278808594,"139":-0.20750638842582703,"140":0.6113499402999878,"141":1.176517367362976,"142":-0.5349553823471069,"143":-0.6604406237602234,"144":-1.6850860118865967,"145":0.8355691432952881,"146":-0.14265017211437225,"147":1.300419569015503,"148":1.6241205930709839,"149":0.03814087063074112,"150":0.2641790509223938,"151":-1.2103232145309448,"152":-0.6618831157684326,"153":1.136325716972351,"154":0.7750137448310852,"155":-0.030326105654239655,"156":-0.01181062962859869,"157":0.2166820913553238,"158":-1.382508635520935,"159":-1.5483075380325317,"160":-2.6001691818237305,"161":0.9904041886329651,"162":-1.2817250490188599,"163":-0.936439037322998,"164":1.1036921739578247,"165":0.6428803205490112,"166":0.036497071385383606,"167":-0.7196130156517029,"168":-0.6446694135665894,"169":-0.7360856533050537,"170":-0.546831488609314,"171":0.39335328340530396,"172":-0.7039502263069153,"173":0.9535724520683289,"174":-0.5067406296730042,"175":-0.4949852526187897,"176":0.9167906641960144,"177":1.5567858219146729,"178":0.8360894918441772,"179":0.365707665681839,"180":-0.45766863226890564,"181":0.8128283619880676,"182":0.9987435340881348,"183":0.1311081498861313,"184":0.256414532661438,"185":-0.20223276317119598,"186":-0.6457332968711853,"187":-0.9152877926826477,"188":-1.6553879976272583,"189":1.5133978128433228,"190":-2.432180166244507,"191":-0.04741708189249039,"192":-1.026984453201294,"193":-1.1082576513290405,"194":-1.700506329536438,"195":0.6933859586715698,"196":-2.2160520553588867,"197":0.29487308859825134,"198":0.17781896889209747,"199":-1.990234613418579,"200":1.775930404663086,"201":-0.3189792037010193,"202":-1.0638015270233154,"203":0.20959503948688507,"204":0.6631914973258972,"205":-1.3770811557769775,"206":-0.5201960802078247,"207":0.8170311450958252,"208":-0.8807439804077148,"209":1.3410353660583496,"210":0.33075419068336487,"211":-1.523449182510376,"212":0.3116322159767151,"213":1.7120271921157837,"214":0.09279118478298187,"215":-0.19192376732826233,"216":0.6406666040420532,"217":-0.022666648030281067,"218":0.05035640671849251,"219":-0.8930181264877319,"220":-1.086107611656189,"221":-0.5456156730651855,"222":-0.39149442315101624,"223":-0.9448767304420471,"224":0.2814897298812866,"225":-0.6688159108161926,"226":1.0971133708953857,"227":-0.14662936329841614,"228":0.24925997853279114,"229":-0.02391730807721615,"230":-0.23387940227985382,"231":-1.494504690170288,"232":0.7786481976509094,"233":-0.49105459451675415,"234":-0.5132796764373779,"235":0.5072833299636841,"236":1.2116084098815918,"237":1.8650418519973755,"238":0.5486003756523132,"239":-0.41529297828674316,"240":-0.017859062179923058,"241":-0.8856818675994873,"242":1.1211066246032715,"243":0.24833407998085022,"244":-0.02649245783686638,"245":0.29033195972442627,"246":-1.2034659385681152,"247":1.4336440563201904,"248":-0.37385180592536926,"249":-0.1381634622812271,"250":0.6864582896232605,"251":0.5595852136611938,"252":-0.7226167321205139,"253":2.28106689453125,"254":1.2093570232391357,"255":0.4916797876358032,"256":-0.26450619101524353,"257":2.9856677055358887,"258":0.7101643681526184,"259":-2.7935562133789062,"260":-0.458140105009079,"261":-0.3188959062099457,"262":0.740641713142395,"263":0.609085738658905,"264":-0.1794593185186386,"265":-0.12382178753614426,"266":1.5642163753509521,"267":-0.5616875290870667,"268":0.8852975964546204,"269":0.36627331376075745,"270":-0.8767791390419006,"271":-0.7789732217788696,"272":0.5132883787155151,"273":0.7668483853340149,"274":-2.1899774074554443,"275":-0.901029109954834,"276":1.3640259504318237,"277":-2.4704930782318115,"278":-0.09507821500301361,"279":2.0646350383758545,"280":-1.1648000478744507,"281":2.1167218685150146,"282":-2.6204538345336914,"283":-0.60033118724823,"284":0.3761880099773407,"285":-1.3760470151901245,"286":-0.6169117093086243,"287":0.7187340259552002,"288":1.227662205696106,"289":0.7131585478782654,"290":0.5931586027145386,"291":0.9627074599266052,"292":-0.27690237760543823,"293":0.8062759041786194,"294":0.9383434653282166,"295":-0.09461818635463715,"296":1.760093092918396,"297":1.6378477811813354,"298":0.26291555166244507,"299":0.7289146184921265,"300":-0.8806961178779602,"301":1.2540067434310913,"302":-0.6860374808311462,"303":1.1587923765182495,"304":0.2081039547920227,"305":-2.7665579319000244,"306":-2.4521381855010986,"307":2.1442062854766846,"308":-1.6784683465957642,"309":1.1369558572769165,"310":1.7892646789550781,"311":1.2498124837875366,"312":1.805881381034851,"313":-0.45038866996765137,"314":0.6730793118476868,"315":-3.403895139694214,"316":1.7022607326507568,"317":0.8265507221221924,"318":-1.0410114526748657,"319":0.917081892490387,"320":1.8614544868469238,"321":-2.0403504371643066,"322":-0.8497356176376343,"323":0.6715583801269531,"324":0.43013447523117065,"325":-0.35174238681793213,"326":0.015089109539985657,"327":0.7946985960006714,"328":-0.9150898456573486,"329":-3.1254658699035645,"330":-1.2774438858032227,"331":1.6310995817184448,"332":-0.3563588261604309,"333":-0.1902615875005722,"334":0.11242616176605225,"335":2.2141377925872803,"336":-0.34239834547042847,"337":0.5218511819839478,"338":0.3347008228302002,"339":1.16414475440979,"340":-1.2739216089248657,"341":-1.1811048984527588,"342":0.5255135893821716,"343":0.30848753452301025,"344":0.17514458298683167,"345":0.3552892506122589,"346":-0.777754545211792,"347":-0.8546779155731201,"348":-0.3481951355934143,"349":-1.156349778175354,"350":-0.31425169110298157,"351":-0.9254888296127319,"352":2.5959999561309814,"353":-0.6909921765327454,"354":-0.017311450093984604,"355":-0.9215187430381775,"356":2.9504237174987793,"357":-1.468680739402771,"358":-0.24457423388957977,"359":1.8899515867233276,"360":0.24134209752082825,"361":1.5504796504974365,"362":4.399133205413818,"363":0.6606915593147278,"364":-0.19290046393871307,"365":0.43869277834892273,"366":0.5451247692108154,"367":-1.1628180742263794,"368":0.27764561772346497,"369":-0.6493327617645264,"370":-1.4746952056884766,"371":-1.8457921743392944,"372":-1.901904582977295,"373":0.7706599831581116,"374":-0.16857635974884033,"375":0.3886156976222992,"376":-1.092958927154541,"377":1.2448703050613403,"378":-0.635879635810852,"379":0.25510281324386597,"380":0.3336181640625,"381":1.3062695264816284,"382":-0.5529212951660156,"383":1.7718474864959717,"384":0.9799448251724243,"385":0.1575849950313568,"386":-0.8887760043144226,"387":0.5923824310302734,"388":0.8218690752983093,"389":-1.2337779998779297,"390":-1.7903481721878052,"391":1.1175918579101562,"392":-1.2367831468582153,"393":-1.8419541120529175,"394":1.9494587182998657,"395":-0.3069359064102173,"396":1.5717501640319824,"397":0.14943939447402954,"398":-1.0850496292114258,"399":1.2767081260681152,"400":-0.22330926358699799,"401":0.8715164065361023,"402":-0.5692528486251831,"403":-1.4493316411972046,"404":-0.7408419847488403,"405":-1.0144182443618774,"406":-0.245432049036026,"407":1.8018064498901367,"408":-0.3701073229312897,"409":2.5082180500030518,"410":-0.15392865240573883,"411":0.3011254370212555,"412":-2.352532386779785,"413":-0.03976528346538544,"414":0.7159799337387085,"415":0.912135899066925,"416":-0.9971969127655029,"417":0.448519766330719,"418":0.9808756709098816,"419":0.17168809473514557,"420":0.5035686492919922,"421":-2.150700330734253,"422":0.5549213290214539,"423":-1.4748560190200806,"424":-0.13521283864974976,"425":1.4176095724105835,"426":-2.1602818965911865,"427":0.4450218379497528,"428":0.7110629081726074,"429":0.15470971167087555,"430":-3.0901527404785156,"431":2.285588026046753,"432":1.1205569505691528,"433":-0.16532982885837555,"434":-0.1998983919620514,"435":-1.2381303310394287,"436":1.748334288597107,"437":-0.2981896996498108,"438":-0.600228488445282,"439":-1.7163524627685547,"440":0.6927177906036377,"441":0.5478553771972656,"442":1.8947616815567017,"443":0.05963018536567688,"444":-0.5451915264129639,"445":1.6402884721755981,"446":-0.9006944894790649,"447":2.365105628967285,"448":-0.372342973947525,"449":-0.38764190673828125,"450":1.810998797416687,"451":-0.8004624843597412,"452":1.226762056350708,"453":0.47138962149620056,"454":0.6985477805137634,"455":-0.46206825971603394,"456":-0.7442882061004639,"457":0.5928584337234497,"458":-0.25646111369132996,"459":-0.8703486323356628,"460":-0.10548126697540283,"461":0.2417847067117691,"462":-0.8641021251678467,"463":1.7586106061935425,"464":1.0993038415908813,"465":1.3655576705932617,"466":-1.1743955612182617,"467":1.502381443977356,"468":0.09071909636259079,"469":-0.41112661361694336,"470":1.090948224067688,"471":0.21635350584983826,"472":0.2030680924654007,"473":-1.2257215976715088,"474":0.5475841760635376,"475":-0.769649088382721,"476":1.0065544843673706,"477":0.922095537185669,"478":0.9506071209907532,"479":-0.7126973867416382,"480":0.554194450378418,"481":0.3294008672237396,"482":-1.9058353900909424,"483":0.7269377708435059,"484":-2.092974901199341,"485":0.3211325705051422,"486":0.6459152102470398,"487":0.31853899359703064,"488":-0.5423532128334045,"489":0.953726589679718,"490":-1.1143261194229126,"491":0.9448029398918152,"492":0.15545804798603058,"493":1.0239157676696777,"494":1.4893900156021118,"495":0.4207615554332733,"496":-0.25919073820114136,"497":0.7276276350021362,"498":1.5077617168426514,"499":-0.0601731576025486,"500":-1.1496224403381348,"501":0.888308584690094,"502":0.5829536318778992,"503":-0.16670121252536774,"504":0.15220198035240173,"505":0.5099361538887024,"506":-0.5083280205726624,"507":1.8019671440124512,"508":-0.0069240061566233635,"509":0.696357250213623,"510":-0.5673688650131226,"511":-1.8225921392440796,"512":1.3313286304473877,"513":0.6163811683654785,"514":-1.5915926694869995,"515":-1.018176555633545,"516":0.07181812077760696,"517":0.042030684649944305,"518":-1.0262287855148315,"519":0.18667934834957123,"520":-1.544971227645874,"521":-0.24317477643489838,"522":0.703432023525238,"523":0.3953588008880615,"524":-0.6838257908821106,"525":1.497196078300476,"526":0.7121522426605225,"527":-0.5100359320640564,"528":-0.5672047138214111,"529":0.2188938707113266,"530":0.15638303756713867,"531":-1.3969084024429321,"532":0.1418013721704483,"533":-1.084457516670227,"534":1.2155561447143555,"535":1.1354666948318481,"536":-0.4645196199417114,"537":1.2443336248397827,"538":1.7892136573791504,"539":0.38631293177604675,"540":1.2383874654769897,"541":0.20895926654338837,"542":-0.3500816822052002,"543":-0.5277437567710876,"544":1.0735087394714355,"545":-1.2186771631240845,"546":1.5602308511734009,"547":-3.534334421157837,"548":1.0113224983215332,"549":-0.06635667383670807,"550":0.5660404562950134,"551":-0.7729870080947876,"552":-0.17539367079734802,"553":0.6637389659881592,"554":0.48697927594184875,"555":0.6926096081733704,"556":-0.41776999831199646,"557":0.6802383065223694,"558":1.0510278940200806,"559":1.1749950647354126,"560":-2.746504068374634,"561":-2.064396858215332,"562":0.9464318156242371,"563":0.5370098352432251,"564":-0.4439607262611389,"565":2.166929006576538,"566":0.49661099910736084,"567":-0.06971430778503418,"568":-0.285020649433136,"569":-1.0639395713806152,"570":-0.03611103817820549,"571":2.789876699447632,"572":-1.7818574905395508,"573":0.017607741057872772,"574":-0.3214717507362366,"575":-0.13880038261413574,"576":0.536790668964386,"577":-1.1297720670700073,"578":0.07396233826875687,"579":1.4515529870986938,"580":0.8314779996871948,"581":-0.11761367321014404,"582":-1.480292797088623,"583":1.1374067068099976,"584":0.4165845215320587,"585":0.6374058127403259,"586":-0.3937515318393707,"587":-0.7370699048042297,"588":1.202276349067688,"589":-1.0045592784881592,"590":-0.33881324529647827,"591":2.549577474594116,"592":-1.1808336973190308,"593":0.44385209679603577,"594":0.21034644544124603,"595":-1.1126331090927124,"596":0.7423050999641418,"597":1.4103635549545288,"598":0.8438674211502075,"599":-0.736213743686676,"600":0.482829213142395,"601":-0.4585961401462555,"602":0.256058931350708,"603":-0.5602679252624512,"604":0.7007016539573669,"605":0.3272090256214142,"606":1.7819205522537231,"607":0.04470819607377052,"608":0.5616847276687622,"609":-0.21720702946186066,"610":-0.4946318566799164,"611":2.3276233673095703,"612":0.85826575756073,"613":0.9490866661071777,"614":-0.30504393577575684,"615":0.8393822908401489,"616":0.43966683745384216,"617":-0.9720379114151001,"618":-0.2075161635875702,"619":-0.7911832332611084,"620":1.146257758140564,"621":1.911984920501709,"622":0.616466760635376,"623":-1.2563471794128418,"624":-0.7867299914360046,"625":-0.285554438829422,"626":1.096783995628357,"627":-1.014603614807129,"628":-0.37791430950164795,"629":0.04959169775247574,"630":0.28761398792266846,"631":-0.4494531452655792,"632":-2.1258795261383057,"633":0.4672650694847107,"634":-0.9251644611358643,"635":-0.5523313879966736,"636":-1.6051063537597656,"637":0.6572163105010986,"638":2.194415807723999,"639":1.091722011566162,"640":0.6880539059638977,"641":0.42146196961402893,"642":-1.0683947801589966,"643":-1.0902817249298096,"644":0.548956573009491,"645":0.6836493015289307,"646":-0.9565167427062988,"647":-0.09498856961727142,"648":1.8122421503067017,"649":0.3789953887462616,"650":-0.14948000013828278,"651":-0.23842772841453552,"652":0.10156337916851044,"653":0.7263027429580688,"654":-1.5634725093841553,"655":1.1589902639389038,"656":-2.0644419193267822,"657":1.2809582948684692,"658":0.025987153872847557,"659":-0.19375130534172058,"660":-0.5068973302841187,"661":-0.5300050377845764,"662":0.1544279307126999,"663":1.9110571146011353,"664":1.0390758514404297,"665":-1.1361415386199951,"666":1.3126561641693115,"667":-0.4483523666858673,"668":1.7422385215759277,"669":1.2338135242462158,"670":-3.5115137100219727,"671":-0.5137287974357605,"672":0.5116162896156311,"673":-0.13617119193077087,"674":0.45380544662475586,"675":0.6211993098258972,"676":-0.45506346225738525,"677":0.8233035802841187,"678":-0.12885813415050507,"679":1.6005640029907227,"680":0.43399715423583984,"681":-2.0348079204559326,"682":0.44736915826797485,"683":-0.18729597330093384,"684":-1.1210310459136963,"685":-2.349045515060425,"686":0.887601912021637,"687":2.974562406539917,"688":1.02198326587677,"689":2.051316738128662,"690":0.8497540950775146,"691":0.17589105665683746,"692":0.223206028342247,"693":-0.7781992554664612,"694":-0.29851001501083374,"695":0.07255718111991882,"696":-0.7004975080490112,"697":-2.2858877182006836,"698":-1.658870816230774,"699":1.8446308374404907,"700":2.158979654312134,"701":0.4968303442001343,"702":1.4475054740905762,"703":1.7707394361495972,"704":0.6318963766098022,"705":2.717745780944824,"706":1.4529852867126465,"707":2.37563157081604,"708":0.543668270111084,"709":-0.5361525416374207,"710":-0.17013084888458252,"711":-0.7600063681602478,"712":1.6894384622573853,"713":-0.17316834628582,"714":-0.5950992703437805,"715":2.8543572425842285,"716":-1.0050901174545288,"717":0.2074527144432068,"718":-0.10985852032899857,"719":2.136338710784912,"720":-0.01465828437358141,"721":-0.1758859008550644,"722":-0.1517792046070099,"723":-0.6975505948066711,"724":0.1995200663805008,"725":0.30285248160362244,"726":-1.2890712022781372,"727":-0.5140030980110168,"728":-1.325555682182312,"729":-0.3654981255531311,"730":-1.0728634595870972,"731":-2.1171653270721436,"732":-1.0414409637451172,"733":0.7168801426887512,"734":0.8508936762809753,"735":0.9071866869926453,"736":0.5193935036659241,"737":0.10674842447042465,"738":0.8982027173042297,"739":-0.4701758325099945,"740":1.5231938362121582,"741":-0.48295295238494873,"742":-1.0082650184631348,"743":-1.5303115844726562,"744":0.6473710536956787,"745":0.830629825592041,"746":-0.43361127376556396,"747":-1.7759426832199097,"748":0.9691139459609985,"749":-3.439866542816162,"750":0.733599841594696,"751":-1.6552183628082275,"752":1.7882394790649414,"753":-0.8918002843856812,"754":-1.4165586233139038,"755":0.9519302845001221,"756":0.11212940514087677,"757":-1.3990176916122437,"758":-0.965422511100769,"759":-0.02414652891457081,"760":-0.23446772992610931,"761":-0.09906113147735596,"762":-0.6760746836662292,"763":0.2071409523487091,"764":-0.6964597702026367,"765":0.1663154810667038,"766":-1.154563546180725,"767":-0.0017485269345343113,"768":-0.6215506792068481,"769":-0.663457453250885,"770":-0.6395201683044434,"771":-0.590408205986023,"772":0.7736606597900391,"773":0.7515556812286377,"774":0.995193600654602,"775":-0.42476147413253784,"776":0.0839463546872139,"777":0.13378186523914337,"778":1.4103989601135254,"779":-0.31515124440193176,"780":0.08649473637342453,"781":0.8426645398139954,"782":-0.44030895829200745,"783":0.1192595362663269,"784":1.3761649131774902,"785":1.2962466478347778,"786":-0.08459291607141495,"787":-0.019533850252628326,"788":-1.4412102699279785,"789":0.4619045555591583,"790":0.04122036695480347,"791":-0.28331154584884644,"792":-0.7916750907897949,"793":0.3692791759967804,"794":1.5798218250274658,"795":-0.9272258877754211,"796":0.5858713984489441,"797":0.22570466995239258,"798":-1.559882640838623,"799":1.4410151243209839,"800":-0.2814914882183075,"801":0.6963889002799988,"802":0.7111219763755798,"803":1.0936094522476196,"804":-0.538114070892334,"805":-0.6986308097839355,"806":-0.354760080575943,"807":-0.2259318083524704,"808":0.6987819671630859,"809":-0.5594395399093628,"810":-0.6078498959541321,"811":-2.4728496074676514,"812":1.2306580543518066,"813":-0.04777926951646805,"814":0.41550496220588684,"815":-1.8187512159347534,"816":-0.9820564985275269,"817":0.4647551476955414,"818":0.011179406195878983,"819":0.6040183305740356,"820":-1.4992139339447021,"821":0.11298041045665741,"822":2.862549304962158,"823":-0.8778374791145325,"824":-0.45486220717430115,"825":0.5732935070991516,"826":-1.4042189121246338,"827":0.6355884075164795,"828":-1.714191198348999,"829":0.6596341729164124,"830":2.191545248031616,"831":0.5489383935928345,"832":-0.8530569672584534,"833":0.2892990708351135,"834":2.442880392074585,"835":-0.4485880136489868,"836":1.3914190530776978,"837":-0.9905098676681519,"838":-0.628328800201416,"839":0.1445014476776123}},"inputHidden":{"rows":20,"columns":20,"weights":{"0":1.6974009275436401,"1":-3.126124858856201,"2":2.8829288482666016,"3":-1.6990652084350586,"4":-0.5048990845680237,"5":-0.5867601037025452,"6":0.01808055117726326,"7":3.92594051361084,"8":1.9007164239883423,"9":3.3160994052886963,"10":2.2861428260803223,"11":0.9191151261329651,"12":-0.7234776616096497,"13":-0.20958195626735687,"14":-0.6533826589584351,"15":-0.14092624187469482,"16":1.8399955034255981,"17":-0.8527830243110657,"18":1.7275229692459106,"19":0.686235785484314,"20":-0.3967117965221405,"21":1.4008841514587402,"22":1.3853005170822144,"23":0.7435320019721985,"24":-1.7490931749343872,"25":-1.4979914426803589,"26":-2.592911720275879,"27":-2.097443103790283,"28":0.9676921367645264,"29":-0.7963002920150757,"30":0.8555196523666382,"31":-0.4472813308238983,"32":-0.8380511403083801,"33":1.1154850721359253,"34":-1.4531811475753784,"35":-0.38193508982658386,"36":-4.218707084655762,"37":-1.3144363164901733,"38":-1.156811237335205,"39":-0.02342999540269375,"40":-3.6061573028564453,"41":-3.34462308883667,"42":-3.010167121887207,"43":1.5219571590423584,"44":-1.6652981042861938,"45":2.38448166847229,"46":0.6829794645309448,"47":0.35496824979782104,"48":-3.5245730876922607,"49":0.6776261925697327,"50":-5.14363956451416,"51":-3.1954410076141357,"52":-3.0144121646881104,"53":1.084476351737976,"54":-4.2809882164001465,"55":-1.8326873779296875,"56":-5.644204139709473,"57":-3.9271607398986816,"58":-0.7942600846290588,"59":-3.099783420562744,"60":0.281464546918869,"61":-1.4510478973388672,"62":0.5357771515846252,"63":1.386173129081726,"64":3.346853494644165,"65":4.3665971755981445,"66":0.9015176296234131,"67":-0.019149545580148697,"68":2.2751898765563965,"69":1.1268504858016968,"70":-3.468520402908325,"71":0.5521172881126404,"72":-0.19808249175548553,"73":-0.5149847269058228,"74":2.0843937397003174,"75":4.580814838409424,"76":0.01382280420511961,"77":1.6533154249191284,"78":-0.9847336411476135,"79":-0.30043938755989075,"80":-0.4783976674079895,"81":2.575359582901001,"82":-2.2225341796875,"83":3.080429792404175,"84":-1.09434974193573,"85":2.240799903869629,"86":2.8189597129821777,"87":2.193195343017578,"88":-1.12559175491333,"89":1.9306786060333252,"90":-4.725918292999268,"91":-0.6247625350952148,"92":-2.1583969593048096,"93":-0.043545953929424286,"94":-0.3660215735435486,"95":2.0289828777313232,"96":-1.5969291925430298,"97":-1.4679718017578125,"98":-3.0128581523895264,"99":-1.390020489692688,"100":1.5231788158416748,"101":1.8922207355499268,"102":1.6430304050445557,"103":0.22503042221069336,"104":-3.1569876670837402,"105":1.212090015411377,"106":1.286355972290039,"107":-2.6015987396240234,"108":1.7878834009170532,"109":-0.6336370706558228,"110":-5.477863311767578,"111":-0.08270152658224106,"112":-0.42991524934768677,"113":3.537440538406372,"114":1.8870292901992798,"115":-0.4007521867752075,"116":0.7205730676651001,"117":-2.825040102005005,"118":-2.677504539489746,"119":2.3379786014556885,"120":2.2659871578216553,"121":-0.7428748607635498,"122":0.289684921503067,"123":1.1480332612991333,"124":-0.5990424752235413,"125":-1.016785979270935,"126":1.8869560956954956,"127":0.34181612730026245,"128":0.49257972836494446,"129":0.17755849659442902,"130":0.8619200587272644,"131":1.071932315826416,"132":-1.656186580657959,"133":0.21567736566066742,"134":2.92861008644104,"135":0.2991863489151001,"136":1.929155945777893,"137":-1.1868619918823242,"138":0.7949347496032715,"139":-1.3774006366729736,"140":-0.6096343994140625,"141":-0.5347514748573303,"142":0.9492242336273193,"143":0.45202237367630005,"144":-0.4230038821697235,"145":-1.6309925317764282,"146":-1.9640884399414062,"147":-1.9502092599868774,"148":-2.0052037239074707,"149":-2.1702396869659424,"150":-0.1245204359292984,"151":1.6481060981750488,"152":2.1483964920043945,"153":3.107834577560425,"154":0.505348265171051,"155":-0.6587235331535339,"156":1.3763028383255005,"157":0.756173849105835,"158":-0.24981877207756042,"159":1.4773297309875488,"160":2.732387065887451,"161":-0.20282675325870514,"162":-0.7637124061584473,"163":-1.4038197994232178,"164":-0.16798843443393707,"165":1.2678383588790894,"166":2.4160075187683105,"167":-1.689201831817627,"168":2.7231454849243164,"169":2.1388256549835205,"170":-1.136525273323059,"171":1.7533915042877197,"172":-0.13183660805225372,"173":1.4222679138183594,"174":0.022364305332303047,"175":-0.53609299659729,"176":0.7326922416687012,"177":3.290874481201172,"178":1.275643229484558,"179":1.7206435203552246,"180":-2.660810708999634,"181":0.5144134759902954,"182":-2.421647787094116,"183":4.150145530700684,"184":1.7230236530303955,"185":0.919830858707428,"186":-0.8335862755775452,"187":-0.879728376865387,"188":-2.3867785930633545,"189":1.861361026763916,"190":2.728437900543213,"191":2.7535512447357178,"192":3.3528494834899902,"193":3.902024507522583,"194":2.563246726989746,"195":-0.5850181579589844,"196":0.11338707059621811,"197":-0.6579830050468445,"198":0.4821604788303375,"199":1.2226667404174805,"200":0.9552929401397705,"201":-0.9949634075164795,"202":0.1398438662290573,"203":-1.829138159751892,"204":1.3444342613220215,"205":-0.9716356992721558,"206":1.163873553276062,"207":3.503648281097412,"208":2.898517370223999,"209":2.554901123046875,"210":-0.9324386715888977,"211":-2.520402193069458,"212":2.0261342525482178,"213":0.27693110704421997,"214":-0.38865241408348083,"215":-0.6381926536560059,"216":1.9128072261810303,"217":0.9431344270706177,"218":5.277512073516846,"219":-1.5849173069000244,"220":-1.230925440788269,"221":-3.6095802783966064,"222":-0.7222754955291748,"223":-3.601271629333496,"224":-0.85094153881073,"225":0.8468157052993774,"226":-1.1542912721633911,"227":-1.3453329801559448,"228":1.7211451530456543,"229":-1.6074405908584595,"230":-2.764315366744995,"231":-2.048968553543091,"232":-0.18054696917533875,"233":-2.585233688354492,"234":-1.7499405145645142,"235":-0.5855644345283508,"236":-0.08149830251932144,"237":-2.0184643268585205,"238":0.6263318061828613,"239":0.861680269241333,"240":-0.3612995147705078,"241":2.1653356552124023,"242":2.7619616985321045,"243":0.4406540095806122,"244":-1.3761415481567383,"245":-1.2233045101165771,"246":-1.3415157794952393,"247":-0.10721034556627274,"248":1.4151268005371094,"249":-2.0848886966705322,"250":-1.5429446697235107,"251":-0.9463027715682983,"252":0.09713125228881836,"253":1.8246877193450928,"254":3.193443536758423,"255":2.961479663848877,"256":-0.5388578176498413,"257":0.034490011632442474,"258":-1.731879711151123,"259":0.32801392674446106,"260":1.20205557346344,"261":2.7280690670013428,"262":0.8195713758468628,"263":1.3870331048965454,"264":0.105465367436409,"265":0.8213329315185547,"266":4.021780967712402,"267":-1.7385233640670776,"268":-1.6241285800933838,"269":0.7652351260185242,"270":-1.7958295345306396,"271":-1.4555103778839111,"272":-1.5472887754440308,"273":-2.2683255672454834,"274":1.1540788412094116,"275":-1.398884654045105,"276":0.7237110137939453,"277":0.9674306511878967,"278":-0.3906773030757904,"279":-0.5980216860771179,"280":2.3539814949035645,"281":1.7941255569458008,"282":-0.7157188057899475,"283":0.18881309032440186,"284":2.1231377124786377,"285":2.157470941543579,"286":-1.1675723791122437,"287":-0.0476658008992672,"288":-0.2111903727054596,"289":-0.026236027479171753,"290":-3.955059289932251,"291":1.987184762954712,"292":0.9182720184326172,"293":2.963905096054077,"294":0.29605382680892944,"295":-2.413299322128296,"296":-2.971149206161499,"297":1.9722634553909302,"298":-0.0060122935101389885,"299":-0.49748295545578003,"300":-0.34842750430107117,"301":0.0729994997382164,"302":-0.6504252552986145,"303":0.3741787374019623,"304":1.8551781177520752,"305":0.8466120958328247,"306":0.04892457276582718,"307":0.027451300993561745,"308":-0.12430860102176666,"309":0.08977916091680527,"310":0.28867238759994507,"311":0.9929862022399902,"312":-1.0707433223724365,"313":-0.7504769563674927,"314":-2.3748981952667236,"315":-0.5254616141319275,"316":0.16847644746303558,"317":-1.9657697677612305,"318":3.462859630584717,"319":-1.3343757390975952,"320":-2.6794562339782715,"321":0.7944700717926025,"322":-1.9231964349746704,"323":-3.789978504180908,"324":-1.608079433441162,"325":2.6731231212615967,"326":-1.837627649307251,"327":-0.17021360993385315,"328":-0.9824462532997131,"329":-0.5283461213111877,"330":-0.8857897520065308,"331":1.5443928241729736,"332":-0.614621102809906,"333":-2.7012815475463867,"334":-4.1627888679504395,"335":3.635486364364624,"336":-2.3860461711883545,"337":1.4155369997024536,"338":-2.7569451332092285,"339":-0.27855148911476135,"340":3.5399417877197266,"341":0.5894160866737366,"342":0.05765506625175476,"343":-0.29080870747566223,"344":0.6463308334350586,"345":2.3243002891540527,"346":1.1205899715423584,"347":1.4672037363052368,"348":0.06301547586917877,"349":-1.4284217357635498,"350":-0.07368779182434082,"351":-2.8100075721740723,"352":-1.3865686655044556,"353":-1.5949574708938599,"354":2.1133809089660645,"355":-0.9874302744865417,"356":-1.2711336612701416,"357":2.400266170501709,"358":-0.35491418838500977,"359":1.3060539960861206,"360":-3.85115122795105,"361":1.1913310289382935,"362":-4.201095104217529,"363":0.22008264064788818,"364":3.1525328159332275,"365":-2.2083773612976074,"366":-0.6538705229759216,"367":0.821861743927002,"368":-3.89150333404541,"369":-4.0774030685424805,"370":-1.7691094875335693,"371":-1.1015385389328003,"372":-2.8687896728515625,"373":0.04346201941370964,"374":-5.122237205505371,"375":-2.1496331691741943,"376":-2.2768149375915527,"377":-4.9987874031066895,"378":-4.655174732208252,"379":0.7921174764633179,"380":-1.8395575284957886,"381":-1.5881786346435547,"382":1.5581648349761963,"383":2.697559356689453,"384":-2.1751110553741455,"385":0.8750109076499939,"386":0.07247687876224518,"387":0.0021756249479949474,"388":2.771108865737915,"389":-0.3147272765636444,"390":1.562729001045227,"391":4.915088176727295,"392":0.4830615222454071,"393":0.46795251965522766,"394":1.4175529479980469,"395":0.7113946080207825,"396":2.3718039989471436,"397":2.0086188316345215,"398":-5.254926681518555,"399":1.0016213655471802}},"inputBias":{"rows":20,"columns":1,"weights":{"0":-0.48613741993904114,"1":-0.7036579847335815,"2":0.8074847459793091,"3":1.0379737615585327,"4":0.8376617431640625,"5":-0.8234543204307556,"6":-0.17532068490982056,"7":-0.5795314311981201,"8":0.17564111948013306,"9":-0.7346483469009399,"10":-0.9776818752288818,"11":-0.771531343460083,"12":-0.6700043678283691,"13":-0.3058217167854309,"14":-0.24106311798095703,"15":-0.12934021651744843,"16":-0.8739851117134094,"17":-0.42618054151535034,"18":-0.6207111477851868,"19":-0.6259516477584839}},"forgetMatrix":{"rows":20,"columns":42,"weights":{"0":-0.005139661952853203,"1":0.31041762232780457,"2":2.9553229808807373,"3":0.7466328740119934,"4":-0.6091119647026062,"5":0.920983612537384,"6":-0.6882035136222839,"7":-0.8047362565994263,"8":1.0146831274032593,"9":1.3432292938232422,"10":0.32286015152931213,"11":-1.3969857692718506,"12":-0.39983683824539185,"13":0.6726874113082886,"14":-0.34650707244873047,"15":0.3405013680458069,"16":0.572875440120697,"17":-1.2472871541976929,"18":0.7062933444976807,"19":-1.7140041589736938,"20":-0.4495650827884674,"21":0.5839719176292419,"22":-0.10980967432260513,"23":-1.7094634771347046,"24":-1.3948826789855957,"25":-1.3760557174682617,"26":-1.0011179447174072,"27":-0.4401513934135437,"28":-0.9578943252563477,"29":0.46536940336227417,"30":1.2727785110473633,"31":-0.25692805647850037,"32":0.4148488938808441,"33":-0.34033676981925964,"34":0.6754475831985474,"35":0.32913070917129517,"36":1.0380680561065674,"37":0.6443004012107849,"38":0.3234649896621704,"39":1.0395081043243408,"40":0.5264286398887634,"41":1.6634418964385986,"42":0.7046301364898682,"43":0.17333722114562988,"44":-0.17324677109718323,"45":-2.527252435684204,"46":0.5875546336174011,"47":0.8822351098060608,"48":-0.3245457112789154,"49":-1.0781828165054321,"50":0.8443926572799683,"51":-1.3246994018554688,"52":0.10120256245136261,"53":-0.29579848051071167,"54":0.844671368598938,"55":-1.7497245073318481,"56":-0.556537926197052,"57":1.4159680604934692,"58":-0.9477468729019165,"59":-1.7514322996139526,"60":-1.395328164100647,"61":-0.5921679735183716,"62":-0.2950120270252228,"63":-0.22190646827220917,"64":-0.5937674641609192,"65":-2.6670594215393066,"66":-1.0737665891647339,"67":-1.2616599798202515,"68":-0.4259263575077057,"69":0.2668229639530182,"70":-1.333052396774292,"71":-1.137687087059021,"72":-0.04380689188838005,"73":-0.8242133855819702,"74":-0.24595598876476288,"75":-0.2604057490825653,"76":1.1621043682098389,"77":0.21061313152313232,"78":0.9669777154922485,"79":-0.06526674330234528,"80":0.1468033641576767,"81":0.8811503648757935,"82":-2.005272626876831,"83":2.5518009662628174,"84":0.4348083734512329,"85":-1.1279306411743164,"86":-0.752869188785553,"87":-0.49334627389907837,"88":-0.09643244743347168,"89":-0.496008038520813,"90":0.4064914882183075,"91":-0.9906867146492004,"92":1.1123359203338623,"93":0.14005827903747559,"94":0.11144062876701355,"95":0.6518880724906921,"96":-0.48666179180145264,"97":-0.33561426401138306,"98":-2.18064546585083,"99":-1.5948108434677124,"100":-0.48208683729171753,"101":0.28223681449890137,"102":-1.3908429145812988,"103":0.03897583857178688,"104":-0.016366010531783104,"105":1.6029281616210938,"106":0.40285491943359375,"107":-2.06079363822937,"108":1.3127366304397583,"109":-0.08910328894853592,"110":-0.7972601056098938,"111":-1.9695125818252563,"112":0.05561090260744095,"113":0.7690710425376892,"114":-2.174644947052002,"115":-0.26553672552108765,"116":0.5712147951126099,"117":-1.0295369625091553,"118":0.05235860124230385,"119":-1.1458162069320679,"120":-0.3396233022212982,"121":0.8230219483375549,"122":1.0903528928756714,"123":-0.4706874191761017,"124":-0.6302900910377502,"125":0.42906010150909424,"126":0.5105400681495667,"127":1.0631592273712158,"128":3.4109621047973633,"129":-1.9853712320327759,"130":-0.8775506019592285,"131":2.343104600906372,"132":-0.06539740413427353,"133":-1.3821700811386108,"134":-0.3226538896560669,"135":0.7111744284629822,"136":-0.31608885526657104,"137":-0.569259762763977,"138":-1.2562400102615356,"139":1.4484394788742065,"140":-0.41668644547462463,"141":0.7950984835624695,"142":0.5970827341079712,"143":-1.1372179985046387,"144":-0.3355289399623871,"145":-0.06851300597190857,"146":0.751704216003418,"147":0.41392573714256287,"148":0.08793479949235916,"149":-0.2736063301563263,"150":-0.8201974630355835,"151":0.5294625163078308,"152":0.45319664478302,"153":-0.4041095972061157,"154":-0.8076454997062683,"155":0.4745923578739166,"156":-0.17800544202327728,"157":-0.21932554244995117,"158":-1.4940930604934692,"159":-1.761189341545105,"160":-1.7821146249771118,"161":-0.7886713147163391,"162":-0.9471051692962646,"163":-0.11268790811300278,"164":-0.5979781746864319,"165":-0.3285754919052124,"166":-0.055633775889873505,"167":0.7305262684822083,"168":-1.0423684120178223,"169":0.1414892077445984,"170":0.5919762849807739,"171":-0.05581535026431084,"172":1.6160647869110107,"173":0.5580765604972839,"174":-1.3553506135940552,"175":1.0117311477661133,"176":-0.7793568968772888,"177":-0.8405922651290894,"178":-0.87925124168396,"179":1.3052202463150024,"180":1.2214441299438477,"181":1.090038537979126,"182":1.8221944570541382,"183":0.6919443607330322,"184":-2.013631820678711,"185":-0.23313812911510468,"186":0.6042043566703796,"187":-1.4959748983383179,"188":0.8343005776405334,"189":-0.48732852935791016,"190":0.7008488178253174,"191":2.102614402770996,"192":-0.40149804949760437,"193":0.25442007184028625,"194":2.0418708324432373,"195":-0.36680370569229126,"196":-1.1370385885238647,"197":1.2543580532073975,"198":-0.2483358085155487,"199":2.5657498836517334,"200":-1.3089277744293213,"201":-0.9699527025222778,"202":-0.6150282621383667,"203":0.5067265629768372,"204":-0.012899770401418209,"205":-0.25462064146995544,"206":2.737116813659668,"207":-0.685602605342865,"208":-1.2886056900024414,"209":1.175315260887146,"210":1.7978421449661255,"211":-1.4388353824615479,"212":1.9403523206710815,"213":1.3674845695495605,"214":0.8022524118423462,"215":-2.051309823989868,"216":-1.5877865552902222,"217":-0.011063812300562859,"218":0.5295554399490356,"219":0.711840033531189,"220":-0.09981563687324524,"221":-0.18502949178218842,"222":0.6191127896308899,"223":0.007010851055383682,"224":-0.9069566130638123,"225":1.513388991355896,"226":-1.9244410991668701,"227":-1.7244107723236084,"228":1.1033250093460083,"229":0.3828356862068176,"230":1.6962428092956543,"231":-0.6197808980941772,"232":1.2594207525253296,"233":-2.00168776512146,"234":-1.7465500831604004,"235":0.1841837614774704,"236":0.2914268970489502,"237":-1.1586719751358032,"238":1.9490996599197388,"239":-0.17876088619232178,"240":0.3922789394855499,"241":-0.8388213515281677,"242":-1.873567819595337,"243":0.8856807351112366,"244":-0.05829063057899475,"245":0.3154173791408539,"246":0.1264994889497757,"247":0.6363036632537842,"248":-0.8293137550354004,"249":1.9414066076278687,"250":0.38732802867889404,"251":-0.3392764627933502,"252":1.4425649642944336,"253":0.07617145031690598,"254":1.4585920572280884,"255":-1.7095613479614258,"256":1.7976257801055908,"257":1.398092269897461,"258":0.9931599497795105,"259":-1.5304081439971924,"260":0.006439466495066881,"261":-0.6542335152626038,"262":1.2278772592544556,"263":-0.21919578313827515,"264":-2.758502960205078,"265":2.9106650352478027,"266":-2.3483774662017822,"267":-0.45007482171058655,"268":-0.4818978011608124,"269":1.1709016561508179,"270":1.722811222076416,"271":0.8411589860916138,"272":-0.6294460296630859,"273":-1.838343858718872,"274":-0.9795610308647156,"275":1.3561718463897705,"276":-0.8080406785011292,"277":0.9864284992218018,"278":0.6227042078971863,"279":-1.6290055513381958,"280":-0.2803531289100647,"281":0.38013461232185364,"282":1.7793785333633423,"283":-0.9690937399864197,"284":-1.133145809173584,"285":-0.17786887288093567,"286":0.9429550766944885,"287":-0.37244871258735657,"288":-0.6340833902359009,"289":-0.19901646673679352,"290":-0.6157434582710266,"291":-1.217716932296753,"292":0.629582941532135,"293":1.257708191871643,"294":0.6784291863441467,"295":0.8359043002128601,"296":-0.02527165412902832,"297":-0.04804616421461105,"298":0.03349124640226364,"299":0.3630554676055908,"300":1.2012664079666138,"301":-0.4782238304615021,"302":0.12717843055725098,"303":-0.83353590965271,"304":3.149570941925049,"305":0.06256920844316483,"306":-0.26567766070365906,"307":-0.8172853589057922,"308":1.0453529357910156,"309":0.7771629691123962,"310":0.5313202738761902,"311":0.9654369354248047,"312":0.7513461112976074,"313":0.5505720973014832,"314":-0.7104167342185974,"315":-0.3492022752761841,"316":-2.0392987728118896,"317":-0.22522224485874176,"318":-0.9293384552001953,"319":-1.0624430179595947,"320":-0.3379310667514801,"321":1.0357518196105957,"322":0.03530624508857727,"323":-0.012198098935186863,"324":-0.5569971799850464,"325":1.6052812337875366,"326":0.05882251262664795,"327":-0.009692252613604069,"328":0.37524837255477905,"329":1.021461009979248,"330":1.132712721824646,"331":0.8009057641029358,"332":-0.2091543823480606,"333":0.23897911608219147,"334":-0.09310009330511093,"335":1.1008708477020264,"336":1.1781141757965088,"337":-0.8916807174682617,"338":2.0173933506011963,"339":0.6720675230026245,"340":-1.4209035634994507,"341":-0.09262005239725113,"342":-1.6499812602996826,"343":0.40572741627693176,"344":0.04230393096804619,"345":0.26790672540664673,"346":-0.9815548658370972,"347":0.6603518128395081,"348":1.2637430429458618,"349":1.1579381227493286,"350":0.6192255020141602,"351":2.433281660079956,"352":0.39216935634613037,"353":-0.8581099510192871,"354":0.1448657065629959,"355":-0.5880802273750305,"356":-0.1646416187286377,"357":0.048417720943689346,"358":-0.9509403705596924,"359":1.078584909439087,"360":0.8426665663719177,"361":0.30184629559516907,"362":-0.4709773063659668,"363":-1.0705859661102295,"364":-0.799735963344574,"365":0.34453704953193665,"366":1.2402243614196777,"367":-0.985345721244812,"368":-0.09753397852182388,"369":1.2351031303405762,"370":-0.20104971528053284,"371":-0.544240415096283,"372":1.9848796129226685,"373":0.4427369236946106,"374":-0.41953375935554504,"375":0.8639927506446838,"376":-0.6693398952484131,"377":0.9027376174926758,"378":0.5712971687316895,"379":-0.501911461353302,"380":0.9077993631362915,"381":0.5099880695343018,"382":-0.5106843113899231,"383":0.618537425994873,"384":1.435166597366333,"385":0.7284072637557983,"386":-0.2732260823249817,"387":-0.34320610761642456,"388":-0.014585362747311592,"389":-0.9659380316734314,"390":0.5145661234855652,"391":-1.809517741203308,"392":1.3438482284545898,"393":-1.797004222869873,"394":1.4289497137069702,"395":-0.701623260974884,"396":0.12320423871278763,"397":-0.9198575615882874,"398":-0.46422597765922546,"399":0.1928916573524475,"400":-0.5897305607795715,"401":-1.004955530166626,"402":-1.3656322956085205,"403":-1.12979257106781,"404":0.5846009850502014,"405":1.116090178489685,"406":0.24097147583961487,"407":-0.7634812593460083,"408":-0.9162808060646057,"409":1.7597568035125732,"410":1.4373377561569214,"411":-2.832982301712036,"412":-1.7575831413269043,"413":0.08483806997537613,"414":0.07136312872171402,"415":1.2303513288497925,"416":-0.13225826621055603,"417":1.1565638780593872,"418":-0.18782007694244385,"419":1.1049787998199463,"420":1.6088758707046509,"421":0.4329223930835724,"422":0.6470633745193481,"423":-1.9634848833084106,"424":0.6901607513427734,"425":0.20324572920799255,"426":1.313589096069336,"427":0.27518364787101746,"428":1.4785475730895996,"429":-0.5814920663833618,"430":-0.292028546333313,"431":-1.989774227142334,"432":0.8894749283790588,"433":0.5804023742675781,"434":-0.4563051760196686,"435":-0.21648170053958893,"436":-1.0172808170318604,"437":1.0105719566345215,"438":0.7131497263908386,"439":0.49708977341651917,"440":0.33314675092697144,"441":-0.4763062298297882,"442":0.43932828307151794,"443":-0.7155474424362183,"444":-0.8626314997673035,"445":-2.354198932647705,"446":0.3462528586387634,"447":-1.9639508724212646,"448":1.0247646570205688,"449":-0.7721148133277893,"450":1.987199306488037,"451":0.9892001748085022,"452":0.398792564868927,"453":1.608777642250061,"454":2.5201058387756348,"455":0.6868314743041992,"456":1.5629690885543823,"457":-0.12789490818977356,"458":-1.220508337020874,"459":0.934227466583252,"460":-0.38890400528907776,"461":1.6559953689575195,"462":-0.31723806262016296,"463":-0.12667158246040344,"464":-0.464721143245697,"465":-2.265916109085083,"466":0.26264289021492004,"467":-0.4294193685054779,"468":-0.9416859745979309,"469":0.299440860748291,"470":2.066150665283203,"471":-0.9377817511558533,"472":-1.7560129165649414,"473":0.8772643804550171,"474":2.5110464096069336,"475":-0.5073696374893188,"476":0.2819025218486786,"477":-0.7867236733436584,"478":-2.5567386150360107,"479":0.08571964502334595,"480":-2.337810516357422,"481":0.6332973837852478,"482":-0.16536159813404083,"483":0.45669180154800415,"484":0.28952085971832275,"485":-2.5580804347991943,"486":-0.23612190783023834,"487":1.1578104496002197,"488":-1.3872525691986084,"489":0.7795506119728088,"490":0.09715670347213745,"491":-0.420072466135025,"492":0.9743072986602783,"493":-1.9476457834243774,"494":1.412575602531433,"495":-1.4433776140213013,"496":0.5386398434638977,"497":1.0449217557907104,"498":-0.9169686436653137,"499":0.8871806859970093,"500":1.06985604763031,"501":1.1301242113113403,"502":-0.35547539591789246,"503":-0.905201256275177,"504":-1.6819053888320923,"505":-0.16897092759609222,"506":-1.2075341939926147,"507":-0.25925084948539734,"508":0.21903574466705322,"509":-0.02884257398545742,"510":-1.4043116569519043,"511":0.44594085216522217,"512":-0.13302865624427795,"513":0.5727704167366028,"514":-1.9807817935943604,"515":0.32734566926956177,"516":-0.7959043979644775,"517":1.134240984916687,"518":-0.41379955410957336,"519":-1.083211064338684,"520":-0.47845587134361267,"521":0.02488522231578827,"522":0.5718343257904053,"523":-1.067141056060791,"524":-0.5941058993339539,"525":-0.11410420387983322,"526":1.0233479738235474,"527":0.029056891798973083,"528":-0.5907102227210999,"529":-0.2206600457429886,"530":1.7362338304519653,"531":-0.29799604415893555,"532":1.5747573375701904,"533":0.6408650875091553,"534":-0.8691868782043457,"535":0.18701419234275818,"536":0.5494219660758972,"537":-0.22446779906749725,"538":-0.9312372803688049,"539":-0.8649277687072754,"540":-0.8523749113082886,"541":1.1808052062988281,"542":-0.8403517007827759,"543":0.36974766850471497,"544":1.9159482717514038,"545":-1.3024911880493164,"546":2.344149589538574,"547":-0.9649311900138855,"548":0.05765357241034508,"549":-0.7001506686210632,"550":-1.5387998819351196,"551":0.41311582922935486,"552":0.8738318681716919,"553":-1.168150544166565,"554":0.5192661285400391,"555":-0.841051459312439,"556":1.2171574831008911,"557":0.7763029932975769,"558":0.5752252340316772,"559":-0.608106255531311,"560":-1.7149871587753296,"561":-0.17228984832763672,"562":-0.598350465297699,"563":1.0501009225845337,"564":-0.662933886051178,"565":0.6890639066696167,"566":1.3286280632019043,"567":0.6453898549079895,"568":0.18219150602817535,"569":-0.4237258732318878,"570":0.5180947184562683,"571":-0.5285109877586365,"572":-0.6229850649833679,"573":-0.4385659694671631,"574":0.31141597032546997,"575":0.22063378989696503,"576":1.367311716079712,"577":-1.5588390827178955,"578":-0.8606341481208801,"579":0.5152498483657837,"580":0.05570510774850845,"581":-0.2757902443408966,"582":-0.16854159533977509,"583":-1.0924108028411865,"584":-0.1755909025669098,"585":-1.2470136880874634,"586":-0.07632610946893692,"587":0.035567332059144974,"588":-0.38201603293418884,"589":0.9462464451789856,"590":2.4372191429138184,"591":0.4436614215373993,"592":-1.7425397634506226,"593":-1.8498058319091797,"594":-0.24903728067874908,"595":0.8911734819412231,"596":-0.6168022751808167,"597":1.3381801843643188,"598":-2.1781423091888428,"599":0.3359176218509674,"600":1.6088175773620605,"601":1.1704046726226807,"602":1.4719725847244263,"603":-0.7989534735679626,"604":-0.31468769907951355,"605":0.9333828091621399,"606":0.9452115297317505,"607":-0.47552624344825745,"608":0.44920438528060913,"609":0.36788874864578247,"610":-0.15483585000038147,"611":-1.6942180395126343,"612":0.38261866569519043,"613":1.7219016551971436,"614":-1.2788840532302856,"615":-0.7281601428985596,"616":-0.006355530582368374,"617":1.105023980140686,"618":0.9300305843353271,"619":1.2058824300765991,"620":-0.7676591873168945,"621":0.6572487354278564,"622":-1.6482175588607788,"623":0.987105131149292,"624":-0.38763758540153503,"625":3.0851831436157227,"626":0.3222511112689972,"627":0.34813639521598816,"628":0.7064809203147888,"629":-0.4658423662185669,"630":1.809672474861145,"631":-1.1912240982055664,"632":-1.1008939743041992,"633":-0.4707932472229004,"634":0.38768669962882996,"635":-1.4142277240753174,"636":-1.8296016454696655,"637":0.4247468411922455,"638":1.2985714673995972,"639":0.30901598930358887,"640":0.8437104821205139,"641":-1.5731381177902222,"642":-0.17199721932411194,"643":0.5901731848716736,"644":-1.6423829793930054,"645":0.2270321249961853,"646":-0.0737638846039772,