{"type":"LSTM","options":{"inputSize":42,"inputRange":42,"hiddenLayers":[20,20],"outputSize":42,"decayRate":0.999,"smoothEps":1e-8,"regc":0.000001,"clipval":5,"maxPredictionLength":100,"dataFormatter":{"indexTable":{"b":0,"o":1,"l":2,"e":3,"a":4,"n":5,"B":6,"P":7,"r":8,"m":9,"i":10,"s":11,"<":12,">":13,"C":14,"|":15,"u":16,"d":17,"f":18,"[":19,"]":20,"L":21,"t":22,"M":23,"p":24,"g":25,",":26,"S":27,"I":28,"F":29,"y":30,"A":31,"v":32,"U":33,"G":34,"E":35,"T":36,"O":37,"D":38,"stop-input":39,"start-output":40,"unrecognized":41},"characterTable":{"0":"b","1":"o","2":"l","3":"e","4":"a","5":"n","6":"B","7":"P","8":"r","9":"m","10":"i","11":"s","12":"<","13":">","14":"C","15":"|","16":"u","17":"d","18":"f","19":"[","20":"]","21":"L","22":"t","23":"M","24":"p","25":"g","26":",","27":"S","28":"I","29":"F","30":"y","31":"A","32":"v","33":"U","34":"G","35":"E","36":"T","37":"O","38":"D","39":null,"40":null,"41":null},"values":["boolean","Boolean","Promise<boolean>","Call<Boolean>","boolean|undefined","Promise<boolean|undefined>","boolean[]","List<Boolean>","Promise<boolean[]>","Call<List<Boolean>>","boolean[]|undefined","Promise<boolean[]|undefined>","Map<string,boolean>","Map<String,Boolean>","Promise<Map<string,boolean>>","Call<Map<String,Boolean>>","Map<string,boolean>|undefined","Promise<Map<string,boolean>|undefined>","Map<string,boolean>[]","List<Map<String,Boolean>>","Promise<Map<string,boolean>[]>","Call<List<Map<String,Boolean>>>","Map<string,boolean>[]|undefined","Promise<Map<string,boolean>[]|undefined>","Map<number,boolean>","Map<Int,Boolean>","Promise<Map<number,boolean>>","Call<Map<Int,Boolean>>","Map<number,boolean>|undefined","Promise<Map<number,boolean>|undefined>","Map<number,boolean>[]","List<Map<Int,Boolean>>","Promise<Map<number,boolean>[]>","Call<List<Map<Int,Boolean>>>","Map<number,boolean>[]|undefined","Promise<Map<number,boolean>[]|undefined>","number","Float","Promise<number>","Call<Float>","number|undefined","Promise<number|undefined>","number[]","List<Float>","Promise<number[]>","Call<List<Float>>","number[]|undefined","Promise<number[]|undefined>","Map<string,number>","Map<String,Float>","Promise<Map<string,number>>","Call<Map<String,Float>>","Map<string,number>|undefined","Promise<Map<string,number>|undefined>","Map<string,number>[]","List<Map<String,Float>>","Promise<Map<string,number>[]>","Call<List<Map<String,Float>>>","Map<string,number>[]|undefined","Promise<Map<string,number>[]|undefined>","Map<number,number>","Map<Int,Float>","Promise<Map<number,number>>","Call<Map<Int,Float>>","Map<number,number>|undefined","Promise<Map<number,number>|undefined>","Map<number,number>[]","List<Map<Int,Float>>","Promise<Map<number,number>[]>","Call<List<Map<Int,Float>>>","Map<number,number>[]|undefined","Promise<Map<number,number>[]|undefined>","string","String","Promise<string>","Call<String>","string|undefined","Promise<string|undefined>","string[]","List<String>","Promise<string[]>","Call<List<String>>","string[]|undefined","Promise<string[]|undefined>","Map<string,string>","Map<String,String>","Promise<Map<string,string>>","Call<Map<String,String>>","Map<string,string>|undefined","Promise<Map<string,string>|undefined>","Map<string,string>[]","List<Map<String,String>>","Promise<Map<string,string>[]>","Call<List<Map<String,String>>>","Map<string,string>[]|undefined","Promise<Map<string,string>[]|undefined>","Map<number,string>","Map<Int,String>","Promise<Map<number,string>>","Call<Map<Int,String>>","Map<number,string>|undefined","Promise<Map<number,string>|undefined>","Map<number,string>[]","List<Map<Int,String>>","Promise<Map<number,string>[]>","Call<List<Map<Int,String>>>","Map<number,string>[]|undefined","Promise<Map<number,string>[]|undefined>","any","Any","Promise<any>","Call<Any>","any|undefined","Promise<any|undefined>","any[]","List<Any>","Promise<any[]>","Call<List<Any>>","any[]|undefined","Promise<any[]|undefined>","Map<string,any>","Map<String,Any>","Promise<Map<string,any>>","Call<Map<String,Any>>","Map<string,any>|undefined","Promise<Map<string,any>|undefined>","Map<string,any>[]","List<Map<String,Any>>","Promise<Map<string,any>[]>","Call<List<Map<String,Any>>>","Map<string,any>[]|undefined","Promise<Map<string,any>[]|undefined>","Map<number,any>","Map<Int,Any>","Promise<Map<number,any>>","Call<Map<Int,Any>>","Map<number,any>|undefined","Promise<Map<number,any>|undefined>","Map<number,any>[]","List<Map<Int,Any>>","Promise<Map<number,any>[]>","Call<List<Map<Int,Any>>>","Map<number,any>[]|undefined","Promise<Map<number,any>[]|undefined>","Call<void>","Call<Unit>","Get","GET","Post","POST","Put","PUT","Delete","DELETE","Body"],"characters":["b","o","l","e","a","n","B","P","r","m","i","s","<",">","C","|","u","d","f","[","]","L","t","M","p","g",",","S","I","F","y","A","v","U","G","E","T","O","D","stop-input","start-output","unrecognized"],"specialIndexes":[39,40,41]}},"input":{"rows":43,"columns":42,"weights":{"0":0.7484171986579895,"1":-1.9566519260406494,"2":-0.29085320234298706,"3":-1.9192606210708618,"4":1.642871618270874,"5":-3.7833762168884277,"6":-1.9857933521270752,"7":-1.5274535417556763,"8":-0.6472737193107605,"9":2.0158169269561768,"10":-0.9709621667861938,"11":-1.8718996047973633,"12":1.7322479486465454,"13":-1.6902629137039185,"14":-0.35745108127593994,"15":-0.9539326429367065,"16":-1.752748727798462,"17":-2.299485683441162,"18":-1.0737553834915161,"19":-0.21584610641002655,"20":-0.4203318953514099,"21":-1.8519513607025146,"22":0.6456632614135742,"23":-0.07710888981819153,"24":-0.24231384694576263,"25":-0.3387470841407776,"26":0.1085100769996643,"27":1.1513605117797852,"28":2.6097257137298584,"29":-0.4625811278820038,"30":1.2020564079284668,"31":-3.8222317695617676,"32":-1.3851814270019531,"33":-0.844293475151062,"34":0.3882092237472534,"35":-1.2218468189239502,"36":-3.280228853225708,"37":1.0373215675354004,"38":1.2399632930755615,"39":0.7572024464607239,"40":1.4032076597213745,"41":1.0024522542953491,"42":0.6506887078285217,"43":0.9042729735374451,"44":-1.9484695196151733,"45":1.39301598072052,"46":0.1294996589422226,"47":-0.7369747757911682,"48":1.6827685832977295,"49":-1.716173529624939,"50":2.761863946914673,"51":-0.1256612092256546,"52":-0.9474518299102783,"53":-0.7396549582481384,"54":-1.7042591571807861,"55":0.11291936784982681,"56":-0.23655587434768677,"57":3.8753974437713623,"58":1.2028228044509888,"59":0.21574963629245758,"60":0.944232165813446,"61":-0.31096750497817993,"62":1.7833510637283325,"63":1.6639821529388428,"64":-0.06346175074577332,"65":3.1717467308044434,"66":0.29671040177345276,"67":3.1270997524261475,"68":0.10278493165969849,"69":0.7024094462394714,"70":0.4702879786491394,"71":-0.753046989440918,"72":-1.5248479843139648,"73":2.007427453994751,"74":-2.524390935897827,"75":0.4646490514278412,"76":3.471384286880493,"77":-0.014872433617711067,"78":-0.3058864176273346,"79":1.4711742401123047,"80":0.34941282868385315,"81":0.931649923324585,"82":0.5261933207511902,"83":-0.9239436984062195,"84":1.7828742265701294,"85":-0.9203456044197083,"86":0.39673441648483276,"87":0.7317535877227783,"88":-1.4229044914245605,"89":0.7502362132072449,"90":-3.50893497467041,"91":-0.7735479474067688,"92":-0.04885229095816612,"93":1.271448016166687,"94":1.1532738208770752,"95":-2.1004505157470703,"96":1.9423787593841553,"97":0.73390132188797,"98":-0.7118499279022217,"99":-1.8119384050369263,"100":0.35052692890167236,"101":0.1084594652056694,"102":-0.7591015100479126,"103":0.8132416605949402,"104":-1.9696773290634155,"105":-1.092544436454773,"106":1.1090669631958008,"107":0.6422531604766846,"108":0.5483611226081848,"109":-0.7980206608772278,"110":-1.8386820554733276,"111":0.39425644278526306,"112":1.422589659690857,"113":2.0304012298583984,"114":2.3813068866729736,"115":1.0508941411972046,"116":3.3118438720703125,"117":-0.44380512833595276,"118":1.0606698989868164,"119":-1.3179755210876465,"120":-3.7398574352264404,"121":-0.8219092488288879,"122":2.120088577270508,"123":-0.6459761261940002,"124":1.5385254621505737,"125":3.7649471759796143,"126":1.213783860206604,"127":0.03330480679869652,"128":-2.488391876220703,"129":0.8710973262786865,"130":2.605991840362549,"131":-0.1249990239739418,"132":-1.0599404573440552,"133":-1.3259432315826416,"134":0.24242189526557922,"135":0.1539975106716156,"136":0.8753291368484497,"137":-0.49744561314582825,"138":-0.5032328367233276,"139":0.05871557071805,"140":1.6493288278579712,"141":1.059510350227356,"142":3.102623701095581,"143":0.2177242785692215,"144":-1.18415367603302,"145":1.2682335376739502,"146":1.6242069005966187,"147":-2.2653326988220215,"148":-0.4933415949344635,"149":3.2889935970306396,"150":-1.8869338035583496,"151":-1.434532642364502,"152":0.27926719188690186,"153":2.046938419342041,"154":0.6440924406051636,"155":-1.03951096534729,"156":2.9797580242156982,"157":-3.32228422164917,"158":1.0585533380508423,"159":-0.47839003801345825,"160":-0.87969571352005,"161":1.6603906154632568,"162":0.8853008151054382,"163":1.1098352670669556,"164":0.09872888028621674,"165":1.5039966106414795,"166":-0.5487693548202515,"167":1.1291260719299316,"168":0.5310834050178528,"169":0.7312917709350586,"170":0.5295168161392212,"171":-0.21895599365234375,"172":-0.21858742833137512,"173":-1.3771625757217407,"174":0.5588393211364746,"175":0.6621175408363342,"176":0.026783067733049393,"177":-0.8761507272720337,"178":1.7749232053756714,"179":1.6675230264663696,"180":0.1081538274884224,"181":-0.30983173847198486,"182":-0.1926882416009903,"183":0.5709447860717773,"184":-0.1601099967956543,"185":0.07723698765039444,"186":-0.3028113842010498,"187":0.8467332124710083,"188":-0.5336593985557556,"189":-2.85076904296875,"190":0.18344779312610626,"191":-1.9605261087417603,"192":-0.14003904163837433,"193":-3.9715726375579834,"194":2.1025211811065674,"195":-0.7130588293075562,"196":-1.0588244199752808,"197":0.28860458731651306,"198":-1.0031696557998657,"199":1.744455337524414,"200":-1.208066701889038,"201":1.0882675647735596,"202":-0.4077264070510864,"203":0.19681814312934875,"204":1.959641933441162,"205":0.0014699124731123447,"206":0.27842995524406433,"207":-0.13885681331157684,"208":-1.414247751235962,"209":-2.4289329051971436,"210":-1.796141505241394,"211":0.9175497889518738,"212":0.18927516043186188,"213":-0.4478782117366791,"214":1.368172526359558,"215":-1.2501163482666016,"216":-0.4510327875614166,"217":1.459327220916748,"218":2.226036787033081,"219":1.111410140991211,"220":-1.2782119512557983,"221":-2.990480661392212,"222":-1.5643160343170166,"223":-2.3838002681732178,"224":-2.0410444736480713,"225":-0.3526853024959564,"226":-1.4618459939956665,"227":-0.5815913677215576,"228":-2.305521249771118,"229":-1.877673864364624,"230":0.6042871475219727,"231":-0.05368105694651604,"232":1.076503038406372,"233":-0.49489519000053406,"234":0.6739669442176819,"235":0.7822157740592957,"236":-1.0845246315002441,"237":-0.8827831149101257,"238":0.4196133315563202,"239":1.8019309043884277,"240":1.4149326086044312,"241":-3.338479518890381,"242":-0.5734477639198303,"243":-0.4991282522678375,"244":0.7521538734436035,"245":-3.7358217239379883,"246":-0.05843617767095566,"247":1.668041706085205,"248":0.8857133388519287,"249":1.8018187284469604,"250":0.5916401743888855,"251":1.4657517671585083,"252":1.9267076253890991,"253":0.8758770823478699,"254":-0.7700886130332947,"255":-1.4783180952072144,"256":-0.3806665241718292,"257":-0.9453715682029724,"258":-0.3838968276977539,"259":1.0492618083953857,"260":1.6169610023498535,"261":0.10477758198976517,"262":0.951758086681366,"263":-0.1259908229112625,"264":0.08832130581140518,"265":2.6205475330352783,"266":0.9275844693183899,"267":1.2352075576782227,"268":1.2964330911636353,"269":1.3314388990402222,"270":1.9708586931228638,"271":0.2818698287010193,"272":0.9422483444213867,"273":-5.396185398101807,"274":-0.4933508634567261,"275":2.1856346130371094,"276":1.1861172914505005,"277":0.4460171163082123,"278":-1.0968252420425415,"279":-2.3570265769958496,"280":1.6413201093673706,"281":-3.26503849029541,"282":0.8477563261985779,"283":2.87078595161438,"284":-0.7211386561393738,"285":-0.4966699779033661,"286":-0.67287278175354,"287":-0.9725959897041321,"288":2.9968340396881104,"289":-0.9575159549713135,"290":-0.09739751368761063,"291":-1.8774662017822266,"292":-0.6653509736061096,"293":1.2658579349517822,"294":-1.7403367757797241,"295":-1.9343912601470947,"296":-1.686392903327942,"297":-1.005226969718933,"298":2.1494293212890625,"299":3.4064459800720215,"300":-0.34128302335739136,"301":0.2312009185552597,"302":-0.9988675713539124,"303":-2.8313515186309814,"304":-0.5414915084838867,"305":0.7654076218605042,"306":-3.5588440895080566,"307":-0.4861238896846771,"308":1.3359626531600952,"309":0.8363286256790161,"310":0.0780743807554245,"311":-0.7709589004516602,"312":-0.22094307839870453,"313":-3.103243589401245,"314":1.7269542217254639,"315":7.849883556365967,"316":-0.47342923283576965,"317":1.889399528503418,"318":2.5544302463531494,"319":0.2950117886066437,"320":-3.126312494277954,"321":-1.8338518142700195,"322":0.3234880566596985,"323":-1.5171924829483032,"324":-0.21311070024967194,"325":1.9100388288497925,"326":1.8013404607772827,"327":-0.7332780957221985,"328":4.262751579284668,"329":-7.166961193084717,"330":-0.5109802484512329,"331":-3.969912052154541,"332":-3.687821388244629,"333":1.1096314191818237,"334":-0.6494883894920349,"335":-0.9908216595649719,"336":0.30487456917762756,"337":-0.2504655420780182,"338":0.04519498348236084,"339":-3.892666816711426,"340":-0.8138602375984192,"341":-4.897129535675049,"342":-5.2137627601623535,"343":2.1495895385742188,"344":-1.2304191589355469,"345":3.257289409637451,"346":-1.5245394706726074,"347":-1.6324963569641113,"348":2.072216749191284,"349":-0.9772145748138428,"350":-1.1780211925506592,"351":-1.0409456491470337,"352":1.080519437789917,"353":-2.499845027923584,"354":-1.4598267078399658,"355":0.7834587097167969,"356":-0.4631606936454773,"357":1.2569252252578735,"358":0.9289039373397827,"359":1.4936482906341553,"360":-3.474881649017334,"361":-0.8032006025314331,"362":1.69661545753479,"363":-1.3869985342025757,"364":1.5270229578018188,"365":0.30559757351875305,"366":-0.03567798435688019,"367":0.1645335853099823,"368":2.119708776473999,"369":-1.15561842918396,"370":-3.450129985809326,"371":-1.2252707481384277,"372":2.4156901836395264,"373":1.7402199506759644,"374":-0.5112888216972351,"375":3.5491740703582764,"376":2.510655164718628,"377":2.5454261302948,"378":-0.5425431132316589,"379":0.6163886785507202,"380":0.2620152533054352,"381":1.6645009517669678,"382":-0.3638378977775574,"383":0.6565486788749695,"384":-0.8047022819519043,"385":0.5390427708625793,"386":-0.06842460483312607,"387":0.5228622555732727,"388":-3.024568796157837,"389":-0.4167056083679199,"390":-0.05358055606484413,"391":-1.0727083683013916,"392":-1.9363987445831299,"393":-0.1128060445189476,"394":-0.7907194495201111,"395":0.40871453285217285,"396":-0.9103438258171082,"397":0.03155098855495453,"398":0.1644866168498993,"399":-0.18203270435333252,"400":-1.785404920578003,"401":0.07311026751995087,"402":0.19202537834644318,"403":-0.8465154767036438,"404":-0.33758413791656494,"405":0.8763191103935242,"406":-0.1637282818555832,"407":3.4097964763641357,"408":-0.9202640652656555,"409":2.295511245727539,"410":0.7309530973434448,"411":0.3131617307662964,"412":1.5875974893569946,"413":0.006134770344942808,"414":-0.45893678069114685,"415":1.2083275318145752,"416":-0.8136863112449646,"417":-1.9076879024505615,"418":-2.009366512298584,"419":-1.4609172344207764,"420":-0.9986743330955505,"421":0.9279565215110779,"422":4.457337856292725,"423":0.28868257999420166,"424":0.8087610602378845,"425":-0.7267011404037476,"426":-0.3169174790382385,"427":0.1433054506778717,"428":-1.2398797273635864,"429":-1.6542763710021973,"430":-2.542436122894287,"431":0.31573379039764404,"432":3.998727560043335,"433":-0.23575714230537415,"434":-2.787790060043335,"435":1.0114552974700928,"436":-2.692742347717285,"437":1.5464801788330078,"438":1.0953603982925415,"439":-0.37758195400238037,"440":0.2368854135274887,"441":2.861149549484253,"442":-0.7438296675682068,"443":0.2132958173751831,"444":-2.959529399871826,"445":-2.3301799297332764,"446":3.364901542663574,"447":-4.051579475402832,"448":1.0068262815475464,"449":-1.6979973316192627,"450":1.2068477869033813,"451":2.5847890377044678,"452":-1.9601411819458008,"453":-2.0807793140411377,"454":-0.46448037028312683,"455":-0.7272833585739136,"456":1.7349342107772827,"457":-1.4782615900039673,"458":-0.5720098614692688,"459":-0.9513503909111023,"460":1.2821805477142334,"461":0.5855438113212585,"462":0.4612160325050354,"463":-0.5224574208259583,"464":1.4515200853347778,"465":-0.14751160144805908,"466":-3.0671005249023438,"467":0.7604716420173645,"468":-0.28155675530433655,"469":-1.1507138013839722,"470":-0.5906636714935303,"471":-1.369652271270752,"472":-1.1154489517211914,"473":1.594428300857544,"474":0.7858972549438477,"475":2.8812291622161865,"476":2.031987190246582,"477":1.8101824522018433,"478":-1.3840453624725342,"479":-2.49635910987854,"480":-4.375097274780273,"481":-1.326694130897522,"482":0.5589256286621094,"483":-1.1305692195892334,"484":0.9611427187919617,"485":-0.5422157645225525,"486":1.0914992094039917,"487":-0.5415766835212708,"488":0.6007300019264221,"489":0.640282392501831,"490":-1.1856005191802979,"491":0.15238910913467407,"492":-1.571423888206482,"493":-1.2319931983947754,"494":-2.955148458480835,"495":-2.209557056427002,"496":1.1462734937667847,"497":0.3426959812641144,"498":1.60468327999115,"499":-0.6496930122375488,"500":0.771268367767334,"501":1.9581527709960938,"502":0.4889619052410126,"503":3.444542646408081,"504":1.4386382102966309,"505":0.868120014667511,"506":0.5325816869735718,"507":-0.34665989875793457,"508":0.7692692279815674,"509":-2.514068126678467,"510":1.6975117921829224,"511":1.7816956043243408,"512":3.198314905166626,"513":-0.16000930964946747,"514":0.925131618976593,"515":0.5012685060501099,"516":-1.525634765625,"517":-3.738204002380371,"518":2.6918771266937256,"519":-1.9193525314331055,"520":2.4333555698394775,"521":-0.07513453811407089,"522":-0.31216445565223694,"523":-2.9400620460510254,"524":0.6397523880004883,"525":2.3062167167663574,"526":-0.9450871348381042,"527":0.6182923316955566,"528":2.2380013465881348,"529":1.4624272584915161,"530":-2.5706424713134766,"531":-0.8552842140197754,"532":-0.5193010568618774,"533":2.1249465942382812,"534":-1.0044623613357544,"535":-1.4082763195037842,"536":0.5245243310928345,"537":1.100419044494629,"538":-2.1368625164031982,"539":-1.5155242681503296,"540":0.6438897252082825,"541":-0.6017253994941711,"542":-1.5430634021759033,"543":-0.0813741683959961,"544":1.0848897695541382,"545":-1.7077029943466187,"546":-0.5502152442932129,"547":0.22482961416244507,"548":1.4606140851974487,"549":0.05098031088709831,"550":1.014205813407898,"551":-2.0801520347595215,"552":-2.623361587524414,"553":-0.47174888849258423,"554":3.6821985244750977,"555":0.3941822350025177,"556":0.3574780523777008,"557":0.5593946576118469,"558":1.8140101432800293,"559":-0.7423100471496582,"560":-1.0518598556518555,"561":-0.7920233607292175,"562":1.0871293544769287,"563":0.38365718722343445,"564":-1.0001579523086548,"565":0.051086004823446274,"566":-1.2727937698364258,"567":-3.099921941757202,"568":0.5157223343849182,"569":1.3677539825439453,"570":-2.8170745372772217,"571":3.0731043815612793,"572":-0.46267449855804443,"573":3.0620250701904297,"574":-0.6656719446182251,"575":1.6864622831344604,"576":4.337018966674805,"577":-2.5784053802490234,"578":-3.442103862762451,"579":-1.2416616678237915,"580":0.5683998465538025,"581":-2.9252967834472656,"582":-3.1792409420013428,"583":-0.7247229218482971,"584":-1.1660521030426025,"585":1.1541873216629028,"586":0.42280060052871704,"587":-1.3048779964447021,"588":0.8293359279632568,"589":0.5626609325408936,"590":-1.8675949573516846,"591":2.5808660984039307,"592":1.5720475912094116,"593":0.2558433711528778,"594":2.319134473800659,"595":2.071328639984131,"596":-0.04631403088569641,"597":0.5220752954483032,"598":-2.0342180728912354,"599":-1.1349461078643799,"600":-0.40648531913757324,"601":0.6884629130363464,"602":1.0241121053695679,"603":-3.244048833847046,"604":-2.765834331512451,"605":-0.5902800559997559,"606":3.516784191131592,"607":-0.23789142072200775,"608":1.7119295597076416,"609":1.4867478609085083,"610":0.4357563853263855,"611":-2.3408069610595703,"612":-0.5480203032493591,"613":3.6804680824279785,"614":-0.6913633346557617,"615":0.8107263445854187,"616":-0.6077499985694885,"617":-0.020978715270757675,"618":1.167790412902832,"619":1.8626034259796143,"620":-0.47937771677970886,"621":-0.47958090901374817,"622":1.1144874095916748,"623":-1.0369625091552734,"624":-2.3861546516418457,"625":0.10991410166025162,"626":0.7149670124053955,"627":1.9951542615890503,"628":-1.1225440502166748,"629":-1.0221291780471802,"630":-1.4855390787124634,"631":2.6013309955596924,"632":2.275636672973633,"633":-3.319748878479004,"634":2.8016726970672607,"635":-0.1449940800666809,"636":-0.5853596329689026,"637":-2.234529972076416,"638":-2.037015438079834,"639":2.5787899494171143,"640":0.18531528115272522,"641":1.2458646297454834,"642":-1.9425045251846313,"643":0.897007942199707,"644":0.05035911127924919,"645":-0.3816961944103241,"646":1.6448596715927124,"647":-0.6377662420272827,"648":1.388611078262329,"649":1.1405894756317139,"650":1.2330905199050903,"651":-2.1265532970428467,"652":0.7299081087112427,"653":2.8693912029266357,"654":-4.252728462219238,"655":0.9572694897651672,"656":1.1803736686706543,"657":0.22012867033481598,"658":1.9800364971160889,"659":-0.5124573707580566,"660":2.0633270740509033,"661":3.341064691543579,"662":-1.4559422731399536,"663":-1.1533328294754028,"664":-1.1567305326461792,"665":-2.5677404403686523,"666":1.362126350402832,"667":-0.7171424627304077,"668":3.3540875911712646,"669":-1.048878788948059,"670":-1.6169689893722534,"671":0.2379651963710785,"672":1.8126145601272583,"673":0.8588124513626099,"674":0.2357042133808136,"675":-2.111402750015259,"676":-3.965736150741577,"677":-1.7090562582015991,"678":-0.5414340496063232,"679":1.7888914346694946,"680":-2.9165444374084473,"681":-0.7234524488449097,"682":0.008576203137636185,"683":2.299574851989746,"684":-0.2814725339412689,"685":0.8115963339805603,"686":3.2130494117736816,"687":1.9440171718597412,"688":-1.410365104675293,"689":-3.363687038421631,"690":-0.3495769798755646,"691":-0.010823369957506657,"692":-2.7873635292053223,"693":-2.841942310333252,"694":1.8616557121276855,"695":2.6150500774383545,"696":-1.081182599067688,"697":-0.8006905317306519,"698":1.6729035377502441,"699":0.16703538596630096,"700":0.10004833340644836,"701":-4.396008491516113,"702":2.5685861110687256,"703":-0.347129762172699,"704":-0.693341851234436,"705":-0.06545497477054596,"706":-0.7571201920509338,"707":0.5711871385574341,"708":-0.08760903775691986,"709":-0.5537938475608826,"710":-0.42615458369255066,"711":0.3145347833633423,"712":-0.6708390712738037,"713":0.04024231806397438,"714":1.2140594720840454,"715":0.04062226787209511,"716":2.6612002849578857,"717":2.4267473220825195,"718":-0.8181867599487305,"719":-0.06551730632781982,"720":0.03821523115038872,"721":-1.9200425148010254,"722":-0.9948890209197998,"723":0.04444568604230881,"724":-0.0224735327064991,"725":-1.3574875593185425,"726":-0.38476184010505676,"727":-0.2723577618598938,"728":1.8479256629943848,"729":-0.18395060300827026,"730":1.3392305374145508,"731":2.3992719650268555,"732":0.45135706663131714,"733":-1.5582102537155151,"734":-1.1854957342147827,"735":-0.6660508513450623,"736":0.5357460379600525,"737":2.5746781826019287,"738":0.32067108154296875,"739":3.5161306858062744,"740":1.1086279153823853,"741":1.3204970359802246,"742":-1.0130631923675537,"743":0.5387447476387024,"744":0.2402326613664627,"745":-1.3864892721176147,"746":2.7010035514831543,"747":1.9619555473327637,"748":-0.4870019257068634,"749":2.0991668701171875,"750":-1.0454021692276,"751":0.3377862870693207,"752":2.6282958984375,"753":-0.5596182942390442,"754":-0.526675283908844,"755":3.238908052444458,"756":-0.10630710422992706,"757":-0.17290599644184113,"758":0.007838866673409939,"759":-1.4564530849456787,"760":0.7719275951385498,"761":1.7516248226165771,"762":0.8481682538986206,"763":0.07087413966655731,"764":-0.8202455639839172,"765":0.7003363370895386,"766":1.6389611959457397,"767":-3.736543893814087,"768":2.0343122482299805,"769":-2.981091022491455,"770":-4.334282398223877,"771":2.7261698246002197,"772":1.7820346355438232,"773":0.9454547762870789,"774":2.9192166328430176,"775":-1.129902720451355,"776":1.4114502668380737,"777":-0.5288507342338562,"778":-4.894699573516846,"779":0.9768036603927612,"780":-0.37265077233314514,"781":1.693033218383789,"782":0.06752973794937134,"783":-1.8872493505477905,"784":3.1487503051757812,"785":0.16380755603313446,"786":-0.06224561482667923,"787":0.6713980436325073,"788":-0.6265184879302979,"789":2.5159850120544434,"790":4.876240253448486,"791":-0.11369220167398453,"792":2.441638231277466,"793":-2.46514892578125,"794":-0.9148250818252563,"795":-0.4100489616394043,"796":1.169706106185913,"797":1.4309114217758179,"798":1.1670862436294556,"799":1.36432945728302,"800":-1.4953073263168335,"801":0.5374898910522461,"802":1.1851603984832764,"803":-0.382559597492218,"804":-0.5651096105575562,"805":1.5804930925369263,"806":-0.2526609003543854,"807":-1.6601085662841797,"808":0.977747917175293,"809":0.30360686779022217,"810":-1.0413100719451904,"811":-0.19449634850025177,"812":0.2189486175775528,"813":2.5912928581237793,"814":-0.6107670068740845,"815":-0.4944424629211426,"816":0.029826218262314796,"817":1.5174341201782227,"818":0.5200607180595398,"819":-2.013558864593506,"820":-1.181708812713623,"821":-0.5796882510185242,"822":0.1713150292634964,"823":-0.6923217177391052,"824":0.6752120852470398,"825":-1.405093789100647,"826":2.0597984790802,"827":-4.18847131729126,"828":0.6859083771705627,"829":-1.3546069860458374,"830":-1.97376549243927,"831":3.2489044666290283,"832":0.4628455638885498,"833":1.4281327724456787,"834":3.0835680961608887,"835":4.325165748596191,"836":-0.8178112506866455,"837":4.152758598327637,"838":-4.251927375793457,"839":-0.23296111822128296,"840":2.394831418991089,"841":3.1576290130615234,"842":-1.1515928506851196,"843":3.174024820327759,"844":3.061734676361084,"845":0.5364186763763428,"846":-0.004542567301541567,"847":-0.9328764081001282,"848":0.06696844846010208,"849":-0.6757540106773376,"850":-1.1262531280517578,"851":2.2204720973968506,"852":3.349215269088745,"853":0.40043312311172485,"854":1.6234023571014404,"855":-1.0224744081497192,"856":-2.36519455909729,"857":1.1214087009429932,"858":3.9413766860961914,"859":-0.35693222284317017,"860":-0.9892091155052185,"861":0.16324204206466675,"862":-0.611329972743988,"863":-0.9258233904838562,"864":1.4622728824615479,"865":-0.0028311172500252724,"866":1.5896687507629395,"867":3.0893661975860596,"868":1.2407790422439575,"869":-1.071030855178833,"870":1.2876332998275757,"871":1.53036630153656,"872":1.8850748538970947,"873":1.9673092365264893,"874":-1.9758918285369873,"875":-1.5538963079452515,"876":-0.9465391635894775,"877":4.467503070831299,"878":-0.8699609637260437,"879":0.37948572635650635,"880":-4.499356269836426,"881":-2.3386733531951904,"882":1.6946531534194946,"883":-0.5640060901641846,"884":-0.309120774269104,"885":2.100632905960083,"886":-2.46662974357605,"887":-1.2665623426437378,"888":1.4900622367858887,"889":-0.3950720429420471,"890":-0.6025959253311157,"891":-1.439406394958496,"892":0.8851305842399597,"893":-1.9142683744430542,"894":1.7660645246505737,"895":0.05830550938844681,"896":5.305572986602783,"897":4.514156341552734,"898":4.065408229827881,"899":-0.878650426864624,"900":-1.661750078201294,"901":-1.6268881559371948,"902":-0.2930468022823334,"903":0.5473656058311462,"904":4.019805431365967,"905":-0.22850579023361206,"906":2.4696264266967773,"907":-3.510406970977783,"908":-0.2583005428314209,"909":2.380385160446167,"910":0.3496242165565491,"911":-1.897405982017517,"912":-1.2580623626708984,"913":3.4474129676818848,"914":0.681593656539917,"915":2.7672858238220215,"916":-1.2553911209106445,"917":3.270264148712158,"918":-2.0211102962493896,"919":5.054544448852539,"920":1.3696012496948242,"921":-3.5708541870117188,"922":1.8547163009643555,"923":-0.2770047187805176,"924":-0.6643513441085815,"925":-2.7120280265808105,"926":0.045451436191797256,"927":2.069981336593628,"928":-0.40287622809410095,"929":-0.14293551445007324,"930":-3.3587231636047363,"931":-2.2038753032684326,"932":0.4149199426174164,"933":-0.4300011992454529,"934":-3.7876486778259277,"935":-3.0962412357330322,"936":-0.42398545145988464,"937":-2.1548044681549072,"938":-3.0088367462158203,"939":-0.36376819014549255,"940":2.098151683807373,"941":0.07588107883930206,"942":-1.2896608114242554,"943":1.9787099361419678,"944":0.884446382522583,"945":-2.9197893142700195,"946":1.3679531812667847,"947":0.7252341508865356,"948":-0.3492363393306732,"949":-1.8048007488250732,"950":1.9292540550231934,"951":-0.2839527428150177,"952":-0.5406661629676819,"953":0.597876250743866,"954":0.18552254140377045,"955":-2.7334516048431396,"956":2.1207406520843506,"957":-1.0411356687545776,"958":0.18216033279895782,"959":1.5081963539123535,"960":-2.0950942039489746,"961":-1.0781887769699097,"962":-0.07998214662075043,"963":-0.8017653226852417,"964":2.139345407485962,"965":-1.1449965238571167,"966":-2.532597541809082,"967":-1.080143690109253,"968":2.056340456008911,"969":-0.33081668615341187,"970":2.9540233612060547,"971":1.6945337057113647,"972":-1.747484564781189,"973":-0.9769147038459778,"974":-0.40909066796302795,"975":1.3908473253250122,"976":-0.8615065217018127,"977":-0.8581592440605164,"978":-1.524949550628662,"979":-1.2364659309387207,"980":-2.1951663494110107,"981":-1.2523964643478394,"982":1.1300251483917236,"983":-2.173332929611206,"984":0.8257407546043396,"985":0.26831260323524475,"986":-0.5202648043632507,"987":1.7571933269500732,"988":-0.4685415029525757,"989":3.062499523162842,"990":-1.6801937818527222,"991":-0.548850417137146,"992":0.19990183413028717,"993":-1.3425953388214111,"994":0.5438297986984253,"995":1.5566599369049072,"996":-1.6349737644195557,"997":-0.778820276260376,"998":-0.3656467795372009,"999":-0.3588823676109314,"1000":-3.2669923305511475,"1001":-0.511989414691925,"1002":-1.4685719013214111,"1003":-1.3278539180755615,"1004":0.8253380656242371,"1005":-2.089722156524658,"1006":-1.8315620422363281,"1007":0.6038315296173096,"1008":0.04407259821891785,"1009":-0.4556978940963745,"1010":1.4710659980773926,"1011":2.171983003616333,"1012":-0.06772962957620621,"1013":0.09255167841911316,"1014":-0.9126562476158142,"1015":-1.6901339292526245,"1016":0.5866793990135193,"1017":0.20904681086540222,"1018":0.05290770158171654,"1019":-2.7012791633605957,"1020":-0.4033029079437256,"1021":0.6990188956260681,"1022":0.10306733846664429,"1023":-0.6332237720489502,"1024":0.623537540435791,"1025":-0.15811853110790253,"1026":-0.43825453519821167,"1027":-3.5832653045654297,"1028":0.1927652209997177,"1029":-0.5916082262992859,"1030":-0.6257895231246948,"1031":1.0722849369049072,"1032":0.17434550821781158,"1033":0.5435601472854614,"1034":1.2460728883743286,"1035":-1.14484441280365,"1036":-0.9310717582702637,"1037":-1.0748662948608398,"1038":1.5317177772521973,"1039":-4.887794494628906,"1040":1.2616358995437622,"1041":0.3591373860836029,"1042":-3.18743896484375,"1043":-0.8458604216575623,"1044":0.6755168437957764,"1045":-1.0142693519592285,"1046":1.0579771995544434,"1047":-0.2600083649158478,"1048":-0.0474773570895195,"1049":2.4182822704315186,"1050":-2.7440531253814697,"1051":-1.6575998067855835,"1052":-1.4891382455825806,"1053":2.6707303524017334,"1054":-0.008313075639307499,"1055":0.6934117078781128,"1056":0.4170322120189667,"1057":0.9526715278625488,"1058":0.8969268798828125,"1059":-0.24793308973312378,"1060":-4.5272979736328125,"1061":1.07059645652771,"1062":-1.540963053703308,"1063":2.891237735748291,"1064":-0.9444137811660767,"1065":-0.715244710445404,"1066":-4.036898136138916,"1067":0.47963619232177734,"1068":-1.1217403411865234,"1069":1.1839622259140015,"1070":-0.4398120641708374,"1071":1.4035029411315918,"1072":-4.201297283172607,"1073":0.2381759136915207,"1074":-0.003914937376976013,"1075":-1.1526083946228027,"1076":0.0933464840054512,"1077":-1.410584568977356,"1078":-1.104852557182312,"1079":-0.8886180520057678,"1080":-2.1575610637664795,"1081":1.737912654876709,"1082":0.8897820115089417,"1083":0.49577242136001587,"1084":-2.2159457206726074,"1085":1.1721482276916504,"1086":0.09177148342132568,"1087":-0.6404522061347961,"1088":-3.530850410461426,"1089":-1.546447992324829,"1090":1.6620898246765137,"1091":-0.4515456259250641,"1092":-1.3667900562286377,"1093":-2.799464702606201,"1094":0.71064692735672,"1095":-2.832880973815918,"1096":-2.8059287071228027,"1097":0.3909416198730469,"1098":-2.2781624794006348,"1099":-0.8105189800262451,"1100":0.32671844959259033,"1101":-1.2644546031951904,"1102":0.6320986151695251,"1103":0.25533178448677063,"1104":0.6063639521598816,"1105":-1.2222483158111572,"1106":2.6844377517700195,"1107":-0.5334571599960327,"1108":-2.1407203674316406,"1109":1.3265355825424194,"1110":-8.882112503051758,"1111":1.707642912864685,"1112":2.6459758281707764,"1113":-5.162092685699463,"1114":-0.6947615742683411,"1115":-3.2585911750793457,"1116":-0.028246447443962097,"1117":2.6848549842834473,"1118":0.5981341004371643,"1119":-0.8750942945480347,"1120":-0.6897128820419312,"1121":-1.1253149509429932,"1122":-1.3635607957839966,"1123":-0.110509492456913,"1124":1.3653218746185303,"1125":-0.9415286183357239,"1126":0.6975469589233398,"1127":1.970576524734497,"1128":0.20134200155735016,"1129":0.48484548926353455,"1130":-0.04182491824030876,"1131":-0.025367626920342445,"1132":-1.0389341115951538,"1133":2.010559558868408,"1134":3.0497336387634277,"1135":1.1183726787567139,"1136":2.293111562728882,"1137":0.06688428670167923,"1138":-0.7481041550636292,"1139":-0.8881084322929382,"1140":-1.3034191131591797,"1141":-1.1983439922332764,"1142":-1.6168204545974731,"1143":0.9345077276229858,"1144":0.3215354084968567,"1145":2.9899868965148926,"1146":1.3403397798538208,"1147":0.6199171543121338,"1148":0.07076593488454819,"1149":-2.8683600425720215,"1150":-3.813345193862915,"1151":1.332200050354004,"1152":-3.0059914588928223,"1153":-0.5027564167976379,"1154":-1.0269097089767456,"1155":1.9760262966156006,"1156":1.0459671020507812,"1157":-1.405852198600769,"1158":2.8921287059783936,"1159":0.4048146605491638,"1160":-1.9694123268127441,"1161":-0.31945767998695374,"1162":-1.867896556854248,"1163":-0.28696730732917786,"1164":-0.3319302797317505,"1165":-2.5026352405548096,"1166":0.9110005497932434,"1167":0.33500441908836365,"1168":-3.4419760704040527,"1169":3.692389965057373,"1170":-0.39028891921043396,"1171":2.147334575653076,"1172":1.1169763803482056,"1173":0.13325366377830505,"1174":-0.329276978969574,"1175":-0.4886009991168976,"1176":2.1493866443634033,"1177":0.1850670874118805,"1178":1.2766300439834595,"1179":2.769765853881836,"1180":-2.388211250305176,"1181":0.7135024666786194,"1182":-2.43552827835083,"1183":-1.248997449874878,"1184":1.904471516609192,"1185":1.0527749061584473,"1186":-1.6432745456695557,"1187":-1.7358487844467163,"1188":-2.174678087234497,"1189":-0.9093548655509949,"1190":3.7120773792266846,"1191":1.9415100812911987,"1192":1.491652250289917,"1193":-4.051848888397217,"1194":-4.51845645904541,"1195":-6.043762683868408,"1196":-0.931603193283081,"1197":1.0221104621887207,"1198":-1.618738055229187,"1199":1.1691501140594482,"1200":3.9136037826538086,"1201":-3.055915594100952,"1202":-1.6651592254638672,"1203":1.4640989303588867,"1204":-2.6277642250061035,"1205":0.4145045578479767,"1206":2.297516107559204,"1207":-1.4632855653762817,"1208":1.4599330425262451,"1209":0.6745398640632629,"1210":-2.2136635780334473,"1211":1.2299060821533203,"1212":-1.5950448513031006,"1213":-2.62328839302063,"1214":0.7978822588920593,"1215":-2.3810527324676514,"1216":3.046569347381592,"1217":1.1550297737121582,"1218":0.26632869243621826,"1219":0.14342699944972992,"1220":-2.2572782039642334,"1221":2.294325828552246,"1222":-0.41280004382133484,"1223":5.187205791473389,"1224":0.7936825156211853,"1225":-1.8006234169006348,"1226":-0.9460374712944031,"1227":0.9453223347663879,"1228":-1.913171410560608,"1229":1.5938974618911743,"1230":0.19543127715587616,"1231":3.7100958824157715,"1232":1.7197799682617188,"1233":-0.0627748966217041,"1234":-0.021472910419106483,"1235":-2.2759528160095215,"1236":1.5721371173858643,"1237":-2.16810941696167,"1238":-1.5321613550186157,"1239":3.5428686141967773,"1240":0.3824794292449951,"1241":-0.5988113284111023,"1242":1.3605130910873413,"1243":-2.151731252670288,"1244":0.49736666679382324,"1245":8.13466739654541,"1246":0.2826596796512604,"1247":0.868821382522583,"1248":1.9800894260406494,"1249":3.0642526149749756,"1250":-1.7263978719711304,"1251":1.5739120244979858,"1252":1.4425259828567505,"1253":1.2955785989761353,"1254":-6.581346035003662,"1255":3.3935189247131348,"1256":2.1822402477264404,"1257":-2.1837358474731445,"1258":1.3748164176940918,"1259":-0.5131171941757202,"1260":-1.7506093978881836,"1261":-1.1359753608703613,"1262":2.628394603729248,"1263":0.5375484824180603,"1264":2.4782869815826416,"1265":-1.6533819437026978,"1266":-0.3023577332496643,"1267":0.31858569383621216,"1268":-3.173027276992798,"1269":-0.4734875559806824,"1270":1.6799331903457642,"1271":0.017646515741944313,"1272":0.8375458717346191,"1273":2.298471450805664,"1274":-1.68160080909729,"1275":3.0349559783935547,"1276":4.424376010894775,"1277":4.019229888916016,"1278":-1.3053340911865234,"1279":0.057384222745895386,"1280":0.24789370596408844,"1281":-2.4051451683044434,"1282":-2.756774425506592,"1283":3.344316005706787,"1284":-1.2606393098831177,"1285":-2.43412446975708,"1286":-0.9167264103889465,"1287":-4.953694820404053,"1288":0.885553777217865,"1289":2.2879743576049805,"1290":-2.8963637351989746,"1291":2.84285569190979,"1292":5.264150619506836,"1293":-0.3654400408267975,"1294":-1.173843264579773,"1295":1.9646915197372437,"1296":-0.08127571642398834,"1297":-0.620743989944458,"1298":1.101872205734253,"1299":-5.203099727630615,"1300":-2.4179136753082275,"1301":-1.185472846031189,"1302":10.553394317626953,"1303":-2.690140962600708,"1304":-2.8566620349884033,"1305":3.156827449798584,"1306":1.609236717224121,"1307":12.754901885986328,"1308":-11.896651268005371,"1309":3.588151454925537,"1310":5.032361030578613,"1311":-9.699530601501465,"1312":-0.6788313984870911,"1313":-3.045271635055542,"1314":2.1008732318878174,"1315":2.1663153171539307,"1316":8.388298988342285,"1317":8.766401290893555,"1318":1.8011846542358398,"1319":-5.051898002624512,"1320":7.246615886688232,"1321":-7.67680549621582,"1322":5.545091152191162,"1323":-2.066567897796631,"1324":6.095755100250244,"1325":-0.8762480020523071,"1326":0.8651992678642273,"1327":8.453985214233398,"1328":-0.5306226015090942,"1329":-0.6940457224845886,"1330":-2.0746750831604004,"1331":-3.7494418621063232,"1332":5.796154975891113,"1333":-4.094788074493408,"1334":-8.094342231750488,"1335":-14.021735191345215,"1336":2.9699175357818604,"1337":-5.725531578063965,"1338":0.4240500330924988,"1339":4.985836505889893,"1340":-3.2623000144958496,"1341":-2.0286707878112793,"1342":-7.339819431304932,"1343":8.780517578125,"1344":-2.5051217079162598,"1345":-4.305786609649658,"1346":4.564931392669678,"1347":-5.5178680419921875,"1348":5.580211639404297,"1349":1.0550835132598877,"1350":2.404510021209717,"1351":-4.078278064727783,"1352":4.129744529724121,"1353":-3.762246608734131,"1354":1.3021109104156494,"1355":8.148521423339844,"1356":-0.8184235692024231,"1357":-1.8253365755081177,"1358":0.11033889651298523,"1359":-5.720081329345703,"1360":0.829866886138916,"1361":0.22172346711158752,"1362":-3.471022844314575,"1363":1.9102360010147095,"1364":-2.1361286640167236,"1365":-0.20796746015548706,"1366":1.125873327255249,"1367":0.20081546902656555,"1368":-3.086466073989868,"1369":-3.447983741760254,"1370":-1.9640055894851685,"1371":-1.2161669731140137,"1372":-1.2632389068603516,"1373":1.0991792678833008,"1374":0.7173136472702026,"1375":-3.4772963523864746,"1376":2.1220767498016357,"1377":1.2892414331436157,"1378":-5.189549922943115,"1379":1.499618411064148,"1380":0.5333372950553894,"1381":0.02153361216187477,"1382":1.3882713317871094,"1383":-2.1430957317352295,"1384":-0.16053436696529388,"1385":-7.285732269287109,"1386":5.393787860870361,"1387":-2.879150867462158,"1388":6.071082592010498,"1389":9.24963092803955,"1390":1.6275659799575806,"1391":-6.2322893142700195,"1392":-10.633440971374512,"1393":-7.198101997375488,"1394":-4.2783522605896,"1395":-3.5091640949249268,"1396":-3.9021031856536865,"1397":1.2641980648040771,"1398":6.3628034591674805,"1399":0.441102534532547,"1400":0.909274160861969,"1401":2.2667508125305176,"1402":2.644923448562622,"1403":0.5957827568054199,"1404":5.591886520385742,"1405":7.176973342895508,"1406":9.65609359741211,"1407":-4.836692810058594,"1408":-6.7030558586120605,"1409":-9.593782424926758,"1410":-3.8695223331451416,"1411":12.158764839172363,"1412":3.396348237991333,"1413":6.94491720199585,"1414":4.440405368804932,"1415":-13.796738624572754,"1416":-2.6033027172088623,"1417":-2.0318992137908936,"1418":-4.339967727661133,"1419":-1.8748465776443481,"1420":10.583456993103027,"1421":-8.01522445678711,"1422":-0.19623135030269623,"1423":4.1339826583862305,"1424":-5.575084686279297,"1425":2.2511308193206787,"1426":-0.9986141324043274,"1427":1.5566816329956055,"1428":5.798018932342529,"1429":-4.999331474304199,"1430":7.455552101135254,"1431":5.312825679779053,"1432":-5.505453586578369,"1433":-4.135734558105469,"1434":0.6201189756393433,"1435":7.212034702301025,"1436":1.1874217987060547,"1437":-8.258944511413574,"1438":3.881941318511963,"1439":0.45123186707496643,"1440":-2.8638200759887695,"1441":-7.408487319946289,"1442":-2.5611624717712402,"1443":-15.471631050109863,"1444":-10.661592483520508,"1445":10.692699432373047,"1446":5.623313903808594,"1447":1.0874481201171875,"1448":-7.9437971115112305,"1449":3.2325568199157715,"1450":2.8631479740142822,"1451":-10.063261985778809,"1452":1.3340282440185547,"1453":9.700126647949219,"1454":-4.93862247467041,"1455":-6.3899102210998535,"1456":6.797743797302246,"1457":-4.472823619842529,"1458":-3.6096699237823486,"1459":9.419706344604492,"1460":-0.755031943321228,"1461":11.69813060760498,"1462":0.1480180323123932,"1463":0.8616383075714111,"1464":1.5611302852630615,"1465":-1.0355993509292603,"1466":-1.0589807033538818,"1467":-7.176980018615723,"1468":1.8558710813522339,"1469":-10.283571243286133,"1470":9.196569442749023,"1471":5.82347297668457,"1472":10.571575164794922,"1473":0.6588524580001831,"1474":13.329794883728027,"1475":0.6411401629447937,"1476":-7.370754718780518,"1477":-0.08625717461109161,"1478":-23.811504364013672,"1479":11.835861206054688,"1480":21.877948760986328,"1481":0.02456161193549633,"1482":-19.828903198242188,"1483":1.0557911396026611,"1484":2.731001853942871,"1485":-4.581185817718506,"1486":4.010899066925049,"1487":-11.162588119506836,"1488":6.9234232902526855,"1489":-11.232560157775879,"1490":-17.769588470458984,"1491":11.235074043273926,"1492":27.849777221679688,"1493":14.542973518371582,"1494":18.316848754882812,"1495":4.7643938064575195,"1496":18.785221099853516,"1497":-11.46303939819336,"1498":-4.332864284515381,"1499":-6.044858932495117,"1500":4.313302040100098,"1501":-13.190250396728516,"1502":-15.271818161010742,"1503":15.876782417297363,"1504":-1.2070358991622925,"1505":4.8509111404418945,"1506":-1.2555426359176636,"1507":-3.190009593963623,"1508":12.4790620803833,"1509":-2.879471778869629,"1510":-14.751800537109375,"1511":-6.6286234855651855,"1512":1.9139223098754883,"1513":2.1624863147735596,"1514":-5.604679584503174,"1515":-5.943432331085205,"1516":22.947813034057617,"1517":8.716877937316895,"1518":4.580462455749512,"1519":10.779047012329102,"1520":-1.2104556560516357,"1521":5.36909818649292,"1522":15.534260749816895,"1523":-5.172374248504639,"1524":-19.031938552856445,"1525":-9.38039493560791,"1526":0.3154031038284302,"1527":1.3284506797790527,"1528":9.364703178405762,"1529":1.054282784461975,"1530":3.111351728439331,"1531":11.15063762664795,"1532":13.956401824951172,"1533":15.632994651794434,"1534":-2.7694480419158936,"1535":2.880462884902954,"1536":-17.28656768798828,"1537":1.0977308750152588,"1538":-1.6704171895980835,"1539":10.40501880645752,"1540":-5.738078594207764,"1541":-9.308478355407715,"1542":5.1599836349487305,"1543":2.5646097660064697,"1544":-5.142958641052246,"1545":-5.360764503479004,"1546":-7.285872936248779,"1547":7.2128472328186035,"1548":0.7927551865577698,"1549":-4.4965362548828125,"1550":6.818506717681885,"1551":19.55282211303711,"1552":-7.264352798461914,"1553":-1.4740229845046997,"1554":-8.558347702026367,"1555":-1.362042784690857,"1556":1.8007892370224,"1557":-0.2610556483268738,"1558":0.15166662633419037,"1559":4.180890083312988,"1560":-3.5031728744506836,"1561":-1.54742431640625,"1562":-5.102516174316406,"1563":-1.2117927074432373,"1564":5.484100341796875,"1565":-3.0844345092773438,"1566":-13.182029724121094,"1567":-5.6100172996521,"1568":4.215214252471924,"1569":-2.6631176471710205,"1570":15.842452049255371,"1571":-2.633316993713379,"1572":7.785111904144287,"1573":0.06543891131877899,"1574":-3.150447130203247,"1575":-5.13435173034668,"1576":-1.8218631744384766,"1577":1.182187795639038,"1578":-4.60243558883667,"1579":-4.313704967498779,"1580":10.304423332214355,"1581":3.0060243606567383,"1582":-4.320193767547607,"1583":1.5101616382598877,"1584":-16.41297149658203,"1585":8.424513816833496,"1586":-6.438170433044434,"1587":1.4221372604370117,"1588":-0.2668739855289459,"1589":16.342002868652344,"1590":-2.662585735321045,"1591":11.17017650604248,"1592":6.710811614990234,"1593":-6.105980396270752,"1594":2.1484148502349854,"1595":10.78286361694336,"1596":-11.97625732421875,"1597":-0.43219175934791565,"1598":2.0016820430755615,"1599":5.818007469177246,"1600":15.902384757995605,"1601":-3.2968618869781494,"1602":4.49932336807251,"1603":-10.071627616882324,"1604":4.1514363288879395,"1605":-17.820388793945312,"1606":-8.427369117736816,"1607":1.4523171186447144,"1608":-0.11986895650625229,"1609":1.0503424406051636,"1610":-10.99267292022705,"1611":-0.9659738540649414,"1612":6.01563835144043,"1613":6.2332024574279785,"1614":6.605921268463135,"1615":3.7188100814819336,"1616":14.902419090270996,"1617":-14.414823532104492,"1618":1.1672699451446533,"1619":5.194128513336182,"1620":-7.8546905517578125,"1621":3.972198724746704,"1622":1.0641818046569824,"1623":29.236574172973633,"1624":4.652919769287109,"1625":-8.190841674804688,"1626":-1.409193754196167,"1627":-6.175304889678955,"1628":-4.0427446365356445,"1629":15.603792190551758,"1630":13.081348419189453,"1631":-0.5563439726829529,"1632":-5.692904949188232,"1633":-7.7179274559021,"1634":-9.28194808959961,"1635":-13.741774559020996,"1636":-14.224993705749512,"1637":-8.368569374084473,"1638":-7.955009460449219,"1639":2.777742862701416,"1640":-8.103693962097168,"1641":-3.3261377811431885,"1642":10.892987251281738,"1643":6.2091145515441895,"1644":-13.26949691772461,"1645":-3.666246175765991,"1646":-22.850868225097656,"1647":-4.52791166305542,"1648":7.797907829284668,"1649":2.9443023204803467,"1650":-5.348048686981201,"1651":-3.2655463218688965,"1652":-1.5550662279129028,"1653":-17.94318389892578,"1654":-6.834104537963867,"1655":0.588504433631897,"1656":12.430692672729492,"1657":16.49223518371582,"1658":-5.925017356872559,"1659":11.397770881652832,"1660":12.659642219543457,"1661":-3.7625999450683594,"1662":2.3949012756347656,"1663":9.035459518432617,"1664":7.744417190551758,"1665":-0.5407851934432983,"1666":-1.0771031379699707,"1667":-6.230396747589111,"1668":11.714742660522461,"1669":1.1771491765975952,"1670":-7.2442626953125,"1671":-4.117884635925293,"1672":-8.266780853271484,"1673":8.523178100585938,"1674":-14.441064834594727,"1675":4.9910969734191895,"1676":5.740987300872803,"1677":-3.936345100402832,"1678":-19.345077514648438,"1679":0.9900408387184143,"1680":-0.12183713912963867,"1681":-0.28982093930244446,"1682":0.247134268283844,"1683":1.132345199584961,"1684":0.15758313238620758,"1685":-0.29589948058128357,"1686":-1.1257565021514893,"1687":0.7390557527542114,"1688":-0.272307813167572,"1689":-0.36846300959587097,"1690":0.016821490600705147,"1691":-0.5902667045593262,"1692":0.457332044839859,"1693":-0.28172677755355835,"1694":-0.043779097497463226,"1695":-0.5121462345123291,"1696":0.8841496109962463,"1697":-0.44006332755088806,"1698":0.960991382598877,"1699":-0.481319397687912,"1700":-0.09255614876747131,"1701":0.1294298768043518,"1702":-0.982823371887207,"1703":0.4477277398109436,"1704":-0.25024527311325073,"1705":-1.1127417087554932,"1706":-0.23116660118103027,"1707":-0.45746806263923645,"1708":0.2314825803041458,"1709":0.18990418314933777,"1710":-0.6365967988967896,"1711":1.6851036548614502,"1712":0.13357143104076385,"1713":0.07889959216117859,"1714":-0.2667795419692993,"1715":1.115699291229248,"1716":1.9935418367385864,"1717":0.35590654611587524,"1718":-0.018020648509263992,"1719":-0.33113184571266174,"1720":0.3612326383590698,"1721":0.8310476541519165,"1722":1.2797269821166992,"1723":-0.264183908700943,"1724":-0.05835086852312088,"1725":1.646824836730957,"1726":0.3078692555427551,"1727":-0.25620558857917786,"1728":-0.6165128350257874,"1729":1.2587372064590454,"1730":0.025493161752820015,"1731":0.02808322198688984,"1732":-0.9243988990783691,"1733":-1.5892231464385986,"1734":-0.5461865067481995,"1735":-0.20322059094905853,"1736":-2.3781723976135254,"1737":-0.7492865324020386,"1738":-1.1595414876937866,"1739":0.5456485152244568,"1740":0.7741695642471313,"1741":1.0437407493591309,"1742":-0.24202297627925873,"1743":-0.6007124185562134,"1744":-1.505332350730896,"1745":-0.5742610096931458,"1746":-0.19681419432163239,"1747":0.7169233560562134,"1748":0.43006253242492676,"1749":0.9375272393226624,"1750":0.720205545425415,"1751":-0.08021280914545059,"1752":-0.2534691393375397,"1753":0.6345594525337219,"1754":0.09164190292358398,"1755":0.47870224714279175,"1756":0.32262182235717773,"1757":-0.002293884288519621,"1758":-0.8610727787017822,"1759":0.4633767902851105,"1760":-1.417712926864624,"1761":-0.45038312673568726,"1762":-0.034211013466119766,"1763":0.24753844738006592,"1764":0.00011104418081231415,"1765":-0.0004109420988243073,"1766":-0.0012826108140870929,"1767":-0.001242519123479724,"1768":0.00028882193146273494,"1769":0.00044475612230598927,"1770":0.0007733306847512722,"1771":0.000898010388482362,"1772":0.0010299000423401594,"1773":-0.0009523546323180199,"1774":0.0008304946823045611,"1775":0.0007052140426822007,"1776":-0.0013513034209609032,"1777":-0.0013421461917459965,"1778":-0.0010026253294199705,"1779":0.0009978573070839047,"1780":0.0007880665361881256,"1781":-0.00015942596655804664,"1782":-0.000731908658053726,"1783":-0.0000687668434693478,"1784":0.0010467014508321881,"1785":0.001157633145339787,"1786":-0.00021606683731079102,"1787":-0.00018033274682238698,"1788":-0.000472996907774359,"1789":-0.0004351410025265068,"1790":-0.0007513417513109744,"1791":-0.0007456817547790706,"1792":-0.0006847804761491716,"1793":0.0004472573345992714,"1794":-0.0005104536539874971,"1795":0.0010755701223388314,"1796":-0.0006589350523427129,"1797":-0.0010196114890277386,"1798":0.0009497181745246053,"1799":-0.0011517584789544344,"1800":-0.0012140278704464436,"1801":0.0008542402647435665,"1802":-0.0010243759024888277,"1803":-0.0008794913301244378,"1804":0.0005873847403563559,"1805":0.00014467316213995218}},"hiddenLayers":[{"inputMatrix":{"rows":20,"columns":42,"weights":{"0":-1.3327093124389648,"1":-0.38593485951423645,"2":-0.2852725386619568,"3":-0.4033123552799225,"4":-0.5871559381484985,"5":3.7076709270477295,"6":1.5787960290908813,"7":0.10689620673656464,"8":-0.0732608288526535,"9":-0.9588392376899719,"10":0.38122284412384033,"11":-0.39658671617507935,"12":0.7350188493728638,"13":-0.41901907324790955,"14":-0.04604228585958481,"15":1.8977681398391724,"16":-0.5567806959152222,"17":-0.22415485978126526,"18":-0.493925541639328,"19":-1.393505334854126,"20":1.4214081764221191,"21":1.0043500661849976,"22":-0.39957883954048157,"23":-0.577001690864563,"24":1.9551377296447754,"25":-0.692661702632904,"26":1.5395067930221558,"27":-0.6849044561386108,"28":0.09291732311248779,"29":-0.1576055884361267,"30":-0.5342607498168945,"31":-1.76285982131958,"32":-1.5024199485778809,"33":0.5756858587265015,"34":0.8091076612472534,"35":-0.5892831683158875,"36":0.7780542373657227,"37":-0.36462119221687317,"38":0.18371371924877167,"39":1.095387578010559,"40":0.7350980639457703,"41":1.6182106733322144,"42":1.1655528545379639,"43":0.4083087742328644,"44":-1.2915040254592896,"45":1.1368837356567383,"46":0.5449244379997253,"47":0.6611393690109253,"48":2.2268059253692627,"49":-0.3682197332382202,"50":-0.19292975962162018,"51":-0.42125555872917175,"52":1.1184364557266235,"53":0.7766187787055969,"54":-1.7067067623138428,"55":2.3267531394958496,"56":1.3472628593444824,"57":-0.10271191596984863,"58":1.9095510244369507,"59":1.2811899185180664,"60":-0.6311004757881165,"61":0.9040330052375793,"62":-0.655524492263794,"63":0.7071298956871033,"64":0.47385358810424805,"65":0.9076606631278992,"66":1.510931372642517,"67":-0.8098312616348267,"68":-1.017087459564209,"69":0.13189171254634857,"70":-0.6012775897979736,"71":-1.432782769203186,"72":-0.4153840243816376,"73":1.7737846374511719,"74":2.0416271686553955,"75":0.027227409183979034,"76":-0.9061051607131958,"77":1.3324599266052246,"78":-0.9795505404472351,"79":1.1411765813827515,"80":0.4231856167316437,"81":1.9857193231582642,"82":-1.1387690305709839,"83":-1.2287156581878662,"84":-0.8959636688232422,"85":0.09530582278966904,"86":-0.5499957799911499,"87":2.372976064682007,"88":0.7882994413375854,"89":0.7646641135215759,"90":0.12391184270381927,"91":0.7387080192565918,"92":2.4617457389831543,"93":0.07346784323453903,"94":-0.09496792405843735,"95":-1.9539374113082886,"96":-0.9843332767486572,"97":-2.467719316482544,"98":-1.8131176233291626,"99":-0.9067309498786926,"100":0.39127272367477417,"101":1.0375401973724365,"102":2.3350019454956055,"103":-1.9694989919662476,"104":-1.6254037618637085,"105":0.4843977093696594,"106":-0.9989641904830933,"107":1.9698988199234009,"108":0.521658182144165,"109":1.2624975442886353,"110":0.36503222584724426,"111":-0.4101257622241974,"112":-1.5435034036636353,"113":1.3581757545471191,"114":-2.374366283416748,"115":-0.14049473404884338,"116":2.007455348968506,"117":1.1456313133239746,"118":1.0124784708023071,"119":-0.31237488985061646,"120":-0.9284535646438599,"121":0.21969018876552582,"122":-1.5567625761032104,"123":-1.5224827527999878,"124":-0.7243503332138062,"125":0.21296244859695435,"126":0.1982765942811966,"127":1.8040753602981567,"128":-1.938795804977417,"129":1.160151720046997,"130":0.43445175886154175,"131":-0.05083291977643967,"132":-0.4625210762023926,"133":0.25519266724586487,"134":0.35013315081596375,"135":-0.5594216585159302,"136":2.5221991539001465,"137":-0.2253960818052292,"138":-0.4152517020702362,"139":0.6304870247840881,"140":0.3257889151573181,"141":0.5021123886108398,"142":1.3855392932891846,"143":0.05760117247700691,"144":0.7478487491607666,"145":0.48138731718063354,"146":-2.460921049118042,"147":-0.9808502793312073,"148":1.2336348295211792,"149":1.221626877784729,"150":-0.33801382780075073,"151":-1.3376388549804688,"152":1.2071006298065186,"153":0.1449594497680664,"154":0.07945184409618378,"155":-0.6059932112693787,"156":1.2055578231811523,"157":0.024433642625808716,"158":-0.47076666355133057,"159":0.3392275273799896,"160":-0.41947662830352783,"161":-1.5538774728775024,"162":0.3951954245567322,"163":0.9740248918533325,"164":0.4811244010925293,"165":0.993517279624939,"166":0.2909434735774994,"167":-0.12301643937826157,"168":-0.7796359658241272,"169":-0.6752473711967468,"170":-0.705039381980896,"171":-1.7971396446228027,"172":0.6183775067329407,"173":0.31788310408592224,"174":-1.1518880128860474,"175":1.0963176488876343,"176":-1.3362773656845093,"177":-1.6160730123519897,"178":1.9870775938034058,"179":1.1750832796096802,"180":-2.0098154544830322,"181":-0.0831073746085167,"182":-0.721152126789093,"183":-1.0856754779815674,"184":-0.48472458124160767,"185":1.9143097400665283,"186":-1.0468863248825073,"187":0.46275097131729126,"188":-0.662662148475647,"189":0.7498530745506287,"190":-0.23964673280715942,"191":-1.589166283607483,"192":-0.5545652508735657,"193":-0.4098113179206848,"194":-0.22961509227752686,"195":-1.2440930604934692,"196":-1.58560311794281,"197":0.3451530337333679,"198":-2.3612966537475586,"199":0.7728817462921143,"200":0.4218241274356842,"201":0.9059744477272034,"202":-0.03700241446495056,"203":0.7909753322601318,"204":0.21534782648086548,"205":0.9317882061004639,"206":-0.8675577044487,"207":0.657325804233551,"208":-0.25346940755844116,"209":-2.2621307373046875,"210":0.9447975754737854,"211":-3.1606507301330566,"212":-0.03295250982046127,"213":-0.4317490756511688,"214":-0.9519143104553223,"215":0.4168190062046051,"216":0.18822254240512848,"217":0.4210023880004883,"218":0.09546294063329697,"219":-0.19201375544071198,"220":0.42505091428756714,"221":-0.7124278545379639,"222":1.5197445154190063,"223":-0.5631570219993591,"224":-0.7258309721946716,"225":-0.6345407962799072,"226":-1.5744279623031616,"227":-0.399497926235199,"228":0.7366307973861694,"229":-0.06889770925045013,"230":1.961342692375183,"231":-0.07766778767108917,"232":0.608620822429657,"233":-2.190056800842285,"234":0.7084813117980957,"235":0.49160489439964294,"236":-0.9363499283790588,"237":1.1114494800567627,"238":0.7870358824729919,"239":-0.5438316464424133,"240":0.42866259813308716,"241":-0.3066783845424652,"242":1.9359889030456543,"243":0.8074585199356079,"244":1.0111479759216309,"245":-0.7969797253608704,"246":-2.6522703170776367,"247":0.8279439210891724,"248":-1.584162950515747,"249":-0.21866345405578613,"250":-0.2792755663394928,"251":-1.0839595794677734,"252":-1.8769464492797852,"253":0.4825468361377716,"254":-0.6665061712265015,"255":-2.927844524383545,"256":-1.5903568267822266,"257":1.2211637496948242,"258":1.9116004705429077,"259":-0.07551927864551544,"260":-3.3802332878112793,"261":0.27867889404296875,"262":1.0591450929641724,"263":1.8819208145141602,"264":0.3279500901699066,"265":0.4664768576622009,"266":0.3452862799167633,"267":0.47843360900878906,"268":-0.8301690220832825,"269":-0.7271150946617126,"270":0.599285900592804,"271":1.0213123559951782,"272":0.8693510890007019,"273":0.7604963779449463,"274":2.568922519683838,"275":-2.150005340576172,"276":-0.6525461673736572,"277":-0.3016454577445984,"278":2.1333014965057373,"279":0.7436754107475281,"280":-1.3322755098342896,"281":0.04227692633867264,"282":-0.2558368444442749,"283":-0.7632323503494263,"284":-0.960858941078186,"285":0.8743433952331543,"286":0.6257367730140686,"287":-0.3540211617946625,"288":1.019269585609436,"289":-0.42158764600753784,"290":3.53623628616333,"291":2.06844425201416,"292":-0.3052412271499634,"293":-0.7391650676727295,"294":-0.4110943675041199,"295":-1.4471726417541504,"296":0.7586873769760132,"297":-0.9896396994590759,"298":0.3912643790245056,"299":0.5253489017486572,"300":0.5166451334953308,"301":-1.8343188762664795,"302":-0.3956412374973297,"303":0.025705622509121895,"304":0.7496565580368042,"305":1.3153049945831299,"306":-1.118017554283142,"307":1.044154405593872,"308":0.17825400829315186,"309":0.8100325465202332,"310":0.5754588842391968,"311":1.1474940776824951,"312":-0.6433068513870239,"313":0.034604206681251526,"314":0.5589317083358765,"315":-0.06501221656799316,"316":0.5436969995498657,"317":0.6023745536804199,"318":-0.3555636405944824,"319":0.8908740282058716,"320":0.019502295181155205,"321":-0.21569305658340454,"322":-0.6393774747848511,"323":0.12999193370342255,"324":-0.2909467816352844,"325":-0.8157725930213928,"326":0.5593807697296143,"327":0.0513584278523922,"328":1.2353121042251587,"329":-0.5153352618217468,"330":-0.32370418310165405,"331":-1.1600584983825684,"332":0.054788053035736084,"333":1.172451138496399,"334":0.38847601413726807,"335":-0.08182642608880997,"336":1.1644293069839478,"337":-0.6534619331359863,"338":-0.8155507445335388,"339":1.5085104703903198,"340":-0.32212451100349426,"341":-3.046668291091919,"342":-3.005772113800049,"343":0.6744377017021179,"344":-0.4281173050403595,"345":-0.21853861212730408,"346":2.1339640617370605,"347":0.7156186103820801,"348":-0.3134632110595703,"349":-2.9512715339660645,"350":0.7462306022644043,"351":-1.7529329061508179,"352":0.028742076829075813,"353":-0.7536298632621765,"354":1.2918754816055298,"355":-0.6337823271751404,"356":-0.6554072499275208,"357":-0.652113139629364,"358":1.2432292699813843,"359":-1.6740787029266357,"360":-0.1619684398174286,"361":1.3146133422851562,"362":1.9586429595947266,"363":1.586269736289978,"364":-1.1869975328445435,"365":-0.26221880316734314,"366":0.4427218437194824,"367":0.1562601774930954,"368":0.16416329145431519,"369":0.8586795926094055,"370":-2.4537129402160645,"371":0.6000598073005676,"372":-0.3733716607093811,"373":0.9184832572937012,"374":-0.5576638579368591,"375":1.759814739227295,"376":-0.625184178352356,"377":0.7126250267028809,"378":-0.711004912853241,"379":1.1662787199020386,"380":-1.801429271697998,"381":1.5676052570343018,"382":0.46660110354423523,"383":-0.4522230327129364,"384":0.5854446887969971,"385":1.275565266609192,"386":0.6041662693023682,"387":0.28761738538742065,"388":-0.7024436593055725,"389":-0.653648316860199,"390":-1.870508074760437,"391":0.36599358916282654,"392":-0.9538706541061401,"393":-0.3444819748401642,"394":-0.49395716190338135,"395":0.04096156358718872,"396":0.39125877618789673,"397":0.4592936038970947,"398":-0.042234595865011215,"399":-0.48563870787620544,"400":-0.2877800166606903,"401":-1.604469895362854,"402":0.11475230008363724,"403":-0.4925880432128906,"404":0.30046066641807556,"405":0.586220383644104,"406":-0.5600578188896179,"407":-0.6640943288803101,"408":0.6561176180839539,"409":0.9534907937049866,"410":-0.3206321597099304,"411":1.5419851541519165,"412":0.6388669610023499,"413":0.2940065264701843,"414":0.1616366058588028,"415":1.5873563289642334,"416":0.11818723380565643,"417":-0.5409026145935059,"418":-1.077412486076355,"419":-0.6922457218170166,"420":0.031043147668242455,"421":-1.0078433752059937,"422":0.8576561212539673,"423":0.4075266420841217,"424":0.5042048692703247,"425":-0.795220136642456,"426":-0.49239397048950195,"427":0.23042967915534973,"428":-0.08972211182117462,"429":-1.0605229139328003,"430":0.7776555418968201,"431":0.6865118145942688,"432":0.15047700703144073,"433":-1.1976897716522217,"434":-1.4837592840194702,"435":0.30013057589530945,"436":0.8765928745269775,"437":0.6559178233146667,"438":0.14097633957862854,"439":1.298617959022522,"440":-0.7892733812332153,"441":0.3446325659751892,"442":0.29940876364707947,"443":-3.567366600036621,"444":-0.8774640560150146,"445":-0.5888731479644775,"446":1.8304766416549683,"447":-0.18554143607616425,"448":0.7639364004135132,"449":0.07237079739570618,"450":-0.9286476969718933,"451":0.027880514040589333,"452":1.1015779972076416,"453":0.3333865702152252,"454":0.6791544556617737,"455":1.6494730710983276,"456":1.5679728984832764,"457":0.634978175163269,"458":-0.515583336353302,"459":-0.7146162390708923,"460":0.4894602596759796,"461":0.43635094165802,"462":0.5357820391654968,"463":1.4145492315292358,"464":0.8255337476730347,"465":0.3727920651435852,"466":-0.21410994231700897,"467":0.5041340589523315,"468":1.2681959867477417,"469":-1.11798894405365,"470":-0.03118462674319744,"471":0.6994161605834961,"472":1.2744319438934326,"473":-0.13170291483402252,"474":0.5704395771026611,"475":0.42429834604263306,"476":-0.0864197239279747,"477":-2.9091854095458984,"478":0.7305759787559509,"479":0.8221735954284668,"480":3.5439281463623047,"481":-1.1942578554153442,"482":-1.633886694908142,"483":1.053567886352539,"484":0.4037589728832245,"485":0.7787896990776062,"486":0.16373392939567566,"487":0.6238908171653748,"488":-1.6019177436828613,"489":-0.8911486268043518,"490":1.1993181705474854,"491":0.11488284915685654,"492":-0.6732775568962097,"493":1.7488327026367188,"494":-1.2572325468063354,"495":-0.4297593832015991,"496":1.3786457777023315,"497":-0.48397883772850037,"498":-0.1929049789905548,"499":-1.2156193256378174,"500":0.9733683466911316,"501":-0.8155857920646667,"502":0.5416867136955261,"503":1.337652325630188,"504":0.1501912623643875,"505":-0.9366318583488464,"506":-0.019447674974799156,"507":0.5762236714363098,"508":1.3606009483337402,"509":0.15088239312171936,"510":1.5145068168640137,"511":-0.8522124290466309,"512":-1.0433826446533203,"513":-0.41751253604888916,"514":0.7561407685279846,"515":0.8633425235748291,"516":0.522971510887146,"517":0.8298426270484924,"518":0.7603567838668823,"519":1.0478459596633911,"520":0.2113560140132904,"521":-0.5706790685653687,"522":-0.9851605296134949,"523":-1.2818089723587036,"524":0.3921414315700531,"525":1.6351112127304077,"526":-2.328355073928833,"527":2.662642002105713,"528":2.060811758041382,"529":0.21124187111854553,"530":-2.2513787746429443,"531":1.3172355890274048,"532":-3.0654006004333496,"533":-0.9421270489692688,"534":-1.397943377494812,"535":-0.9605161547660828,"536":0.018236543983221054,"537":1.7932441234588623,"538":0.4688335359096527,"539":0.5232818722724915,"540":2.4684860706329346,"541":-0.03705665469169617,"542":0.8126800656318665,"543":0.9095741510391235,"544":3.2700624465942383,"545":-0.41795679926872253,"546":-0.4510304033756256,"547":-0.2828439772129059,"548":-0.7200229167938232,"549":2.1130049228668213,"550":1.9889816045761108,"551":-0.19213594496250153,"552":-1.339794635772705,"553":0.5438313484191895,"554":-0.4674395024776459,"555":1.0328205823898315,"556":0.232342928647995,"557":0.6635746359825134,"558":-0.541194498538971,"559":0.8136520981788635,"560":-1.9333293437957764,"561":-1.8099924325942993,"562":-0.4928687810897827,"563":0.49812400341033936,"564":-0.691851019859314,"565":1.0437092781066895,"566":-0.5573310852050781,"567":0.9468141198158264,"568":1.32480788230896,"569":-2.3051540851593018,"570":0.5231027603149414,"571":0.7542696595191956,"572":-0.3352917730808258,"573":1.088876724243164,"574":1.1838324069976807,"575":-0.49390342831611633,"576":1.4382882118225098,"577":-0.4700045883655548,"578":0.7795354723930359,"579":-0.8755109906196594,"580":-0.32065948843955994,"581":0.3423180878162384,"582":-2.151745319366455,"583":-0.7711374759674072,"584":-2.097193956375122,"585":0.5738958716392517,"586":0.10056830197572708,"587":-0.5736880898475647,"588":-0.6501592397689819,"589":-0.5460459589958191,"590":0.45835354924201965,"591":0.5717689394950867,"592":1.7460073232650757,"593":-0.8066596388816833,"594":-0.8979737758636475,"595":-0.16711968183517456,"596":-0.15171097218990326,"597":-0.3627365529537201,"598":0.12394295632839203,"599":-1.4553831815719604,"600":-0.4934171140193939,"601":-0.5639504790306091,"602":-2.0071117877960205,"603":0.4408872723579407,"604":1.4737523794174194,"605":0.8530106544494629,"606":1.783137321472168,"607":0.2680199444293976,"608":-0.7289726138114929,"609":-0.5632180571556091,"610":0.8951455354690552,"611":0.23491348326206207,"612":-0.8358621001243591,"613":-0.014323489740490913,"614":1.1330636739730835,"615":-1.0684441328048706,"616":1.3794938325881958,"617":-0.6661777496337891,"618":0.661611020565033,"619":-0.7280174493789673,"620":-0.6380898952484131,"621":0.07431870698928833,"622":0.15839305520057678,"623":-0.07951968908309937,"624":0.6789469718933105,"625":-0.015592483803629875,"626":1.9048962593078613,"627":-0.18123748898506165,"628":-0.05985260382294655,"629":2.0587782859802246,"630":-1.164896845817566,"631":0.9528920650482178,"632":0.017853418365120888,"633":2.030900239944458,"634":-1.448250651359558,"635":-0.1311117708683014,"636":0.9047093987464905,"637":0.9816590547561646,"638":0.12214499711990356,"639":0.8516038656234741,"640":0.1002221554517746,"641":0.2884346544742584,"642":-0.4839385449886322,"643":0.059876106679439545,"644":0.9025290608406067,"645":0.3867008090019226,"646":0.11575562506914139,"647":-0.1164160892367363,"648":0.5778155326843262,"649":-0.6268620491027832,"650":-0.3157634139060974,"651":1.104749083518982,"652":0.43467047810554504,"653":-0.013229472562670708,"654":-0.9767162799835205,"655":-1.6459910869598389,"656":1.6225638389587402,"657":0.5026072263717651,"658":0.20626574754714966,"659":-0.29483041167259216,"660":1.8845796585083008,"661":1.963914394378662,"662":-0.48862847685813904,"663":1.3739423751831055,"664":-0.46029332280158997,"665":0.5908424258232117,"666":-0.6159758567810059,"667":0.8453624248504639,"668":-0.8833903670310974,"669":-0.727043867111206,"670":-0.3447667360305786,"671":-1.4926152229309082,"672":-1.3313347101211548,"673":0.5577065944671631,"674":-0.4089725613594055,"675":-2.1604692935943604,"676":0.23466810584068298,"677":-0.9472234845161438,"678":0.2084525227546692,"679":0.8689523339271545,"680":0.9553876519203186,"681":-0.19399294257164001,"682":0.6018387079238892,"683":0.7948563098907471,"684":-1.3830150365829468,"685":0.2370699644088745,"686":0.1260361522436142,"687":-0.5872452259063721,"688":0.32773110270500183,"689":0.14360512793064117,"690":-0.14017662405967712,"691":-0.20554973185062408,"692":0.6362776160240173,"693":0.05805989354848862,"694":1.5217149257659912,"695":0.7006494998931885,"696":-1.2205644845962524,"697":-0.9176009893417358,"698":-0.02913776971399784,"699":-1.703128457069397,"700":-0.004743492696434259,"701":0.5763070583343506,"702":0.6812764406204224,"703":-1.2359075546264648,"704":1.7349872589111328,"705":0.8472844958305359,"706":-0.9865908026695251,"707":2.1075150966644287,"708":1.3116049766540527,"709":0.772304892539978,"710":1.1915500164031982,"711":1.1186176538467407,"712":-1.364819049835205,"713":0.4362945258617401,"714":-0.11003753542900085,"715":0.06857620924711227,"716":-1.542367696762085,"717":0.49208155274391174,"718":-1.3636130094528198,"719":0.3868394196033478,"720":-0.5759479403495789,"721":-1.278390645980835,"722":0.7300405502319336,"723":0.035463958978652954,"724":-1.2844432592391968,"725":-1.8843106031417847,"726":-0.8293733596801758,"727":0.2752440869808197,"728":-0.3236600160598755,"729":1.967476725578308,"730":0.4103553295135498,"731":-1.807534098625183,"732":-1.6774241924285889,"733":0.31478351354599,"734":-0.7021108865737915,"735":-1.0163424015045166,"736":0.5240727663040161,"737":0.12057171761989594,"738":0.08768100291490555,"739":0.10106972604990005,"740":1.1926389932632446,"741":2.53541898727417,"742":-0.6866577863693237,"743":0.44680461287498474,"744":1.2441670894622803,"745":-0.9553836584091187,"746":-0.027825841680169106,"747":-0.8435824513435364,"748":0.8892916440963745,"749":-0.08646675944328308,"750":-0.5712996125221252,"751":1.1574139595031738,"752":-1.7352849245071411,"753":0.5610591769218445,"754":1.7429776191711426,"755":1.0915544033050537,"756":1.7830491065979004,"757":1.1363611221313477,"758":0.823340117931366,"759":-0.18900898098945618,"760":-0.1640443652868271,"761":-0.2337626814842224,"762":-0.09155377000570297,"763":0.4866752326488495,"764":-1.713364839553833,"765":0.06258713454008102,"766":0.2706327736377716,"767":1.077461838722229,"768":1.2114704847335815,"769":-0.1740713268518448,"770":1.4380632638931274,"771":-0.49875447154045105,"772":-0.24052566289901733,"773":-0.43072476983070374,"774":-2.006859064102173,"775":-1.8631194829940796,"776":-0.76346755027771,"777":-0.06729679554700851,"778":1.0867586135864258,"779":-0.3693459928035736,"780":0.225698322057724,"781":0.5163698196411133,"782":0.8891209959983826,"783":0.9268069863319397,"784":1.0785245895385742,"785":1.4855684041976929,"786":0.5256264805793762,"787":-2.250150203704834,"788":0.8051695823669434,"789":0.24770678579807281,"790":0.2729829251766205,"791":-1.0319744348526,"792":0.7189434766769409,"793":1.003788709640503,"794":0.8328186273574829,"795":0.05783863738179207,"796":1.391730785369873,"797":0.9657789468765259,"798":-1.6873981952667236,"799":-0.5195400714874268,"800":-2.1555163860321045,"801":-0.5396488904953003,"802":-0.9977115988731384,"803":1.8763760328292847,"804":1.8000895977020264,"805":0.0840730294585228,"806":-0.48901820182800293,"807":-1.5483230352401733,"808":0.5414102077484131,"809":1.7502528429031372,"810":-1.8077436685562134,"811":0.7437350749969482,"812":2.283317804336548,"813":1.3689165115356445,"814":-0.7115353941917419,"815":-0.8946152925491333,"816":-1.0566158294677734,"817":4.305444717407227,"818":0.37547603249549866,"819":-0.2087196558713913,"820":1.9420064687728882,"821":-0.639683723449707,"822":-0.1809840202331543,"823":0.36156904697418213,"824":0.20498785376548767,"825":-0.3807440996170044,"826":-1.2366981506347656,"827":0.16315673291683197,"828":-2.2419509887695312,"829":-0.28164172172546387,"830":-1.7666984796524048,"831":-0.4682443141937256,"832":0.5867014527320862,"833":0.5636467337608337,"834":1.6275442838668823,"835":-1.5742592811584473,"836":-0.14063923060894012,"837":0.8487926125526428,"838":-1.5798382759094238,"839":-1.3205883502960205}},"inputHidden":{"rows":20,"columns":20,"weights":{"0":-0.1925296187400818,"1":0.552285373210907,"2":-0.7410280704498291,"3":-0.5594746470451355,"4":0.22173568606376648,"5":0.8612133860588074,"6":0.8418504595756531,"7":-0.02954159490764141,"8":0.33529624342918396,"9":4.108534812927246,"10":-1.3648372888565063,"11":0.16166889667510986,"12":1.898922085762024,"13":-0.2085733562707901,"14":-2.7627947330474854,"15":-1.614433765411377,"16":-0.32981401681900024,"17":2.7265892028808594,"18":-1.5849218368530273,"19":-1.540995478630066,"20":1.8210875988006592,"21":1.472533106803894,"22":0.46600812673568726,"23":1.116811752319336,"24":2.3274738788604736,"25":-0.1649831235408783,"26":0.5246548652648926,"27":1.824288010597229,"28":2.4111008644104004,"29":-1.2913439273834229,"30":-1.7870333194732666,"31":-0.771416187286377,"32":1.2840602397918701,"33":0.08596806228160858,"34":0.4598310589790344,"35":-0.6165885329246521,"36":0.147835373878479,"37":-1.045168399810791,"38":-1.1431697607040405,"39":1.3051304817199707,"40":0.9836219549179077,"41":-0.8573682904243469,"42":-1.8625168800354004,"43":-0.5402781963348389,"44":1.6340622901916504,"45":1.1996488571166992,"46":1.9053349494934082,"47":-0.027633972465991974,"48":0.8918722867965698,"49":0.3642748296260834,"50":0.1464940458536148,"51":0.10118834674358368,"52":0.48836687207221985,"53":1.4597065448760986,"54":0.25138619542121887,"55":-0.8453058004379272,"56":0.03961848467588425,"57":0.26190802454948425,"58":-2.3618998527526855,"59":0.9486387968063354,"60":-1.3096579313278198,"61":2.2365827560424805,"62":-1.3534646034240723,"63":0.8601117134094238,"64":0.9412463903427124,"65":2.50382399559021,"66":-0.09004828333854675,"67":-1.6339513063430786,"68":3.456225872039795,"69":0.777060866355896,"70":-1.3030061721801758,"71":-1.8370492458343506,"72":2.998806953430176,"73":-0.744212806224823,"74":-4.059924125671387,"75":0.9441406726837158,"76":0.6966330409049988,"77":2.3319621086120605,"78":-3.945314645767212,"79":-0.8414867520332336,"80":-2.447082042694092,"81":0.8889414072036743,"82":-0.674794614315033,"83":-2.598212718963623,"84":0.10341164469718933,"85":2.63124680519104,"86":0.30773860216140747,"87":1.015957236289978,"88":1.568320870399475,"89":-2.3382740020751953,"90":-0.9566453695297241,"91":-1.5058376789093018,"92":-1.3034353256225586,"93":0.17039740085601807,"94":-1.419809341430664,"95":0.028746405616402626,"96":0.9021003246307373,"97":1.8912845849990845,"98":-3.083559036254883,"99":1.241525650024414,"100":-1.584348440170288,"101":0.24535298347473145,"102":3.0227742195129395,"103":2.4866065979003906,"104":-0.7722976207733154,"105":1.724186897277832,"106":2.452476978302002,"107":-3.9781036376953125,"108":1.4062740802764893,"109":-2.81469988822937,"110":0.376287579536438,"111":1.382535457611084,"112":-2.3394992351531982,"113":0.23559324443340302,"114":-2.4460809230804443,"115":0.6537449359893799,"116":-2.432283639907837,"117":1.7657800912857056,"118":-2.0956506729125977,"119":-4.55165958404541,"120":1.4564764499664307,"121":-1.9562069177627563,"122":-2.2872607707977295,"123":-0.5586546659469604,"124":-1.1790043115615845,"125":-2.222621202468872,"126":0.4224764406681061,"127":-0.1671072095632553,"128":-0.8158716559410095,"129":0.37409651279449463,"130":0.35774052143096924,"131":0.1584431678056717,"132":-0.6456958055496216,"133":1.4024471044540405,"134":-1.0328571796417236,"135":1.1090633869171143,"136":-0.13130579888820648,"137":0.1341947466135025,"138":-2.5976245403289795,"139":0.0019532341975718737,"140":-6.083955764770508,"141":3.8963146209716797,"142":1.7415930032730103,"143":0.6468009948730469,"144":0.9906759262084961,"145":-0.828976035118103,"146":-1.337717890739441,"147":-0.8017142415046692,"148":0.25790098309516907,"149":-0.29320406913757324,"150":3.117736577987671,"151":0.6810362935066223,"152":2.546149730682373,"153":0.42177054286003113,"154":1.972817301750183,"155":-2.114039897918701,"156":0.22551405429840088,"157":3.4028677940368652,"158":-0.1947723925113678,"159":1.131068468093872,"160":-0.1831636279821396,"161":-0.2195277363061905,"162":3.991518974304199,"163":0.13732685148715973,"164":0.727035641670227,"165":0.5710422396659851,"166":0.8676334023475647,"167":-0.24127335846424103,"168":3.1031415462493896,"169":-0.20993229746818542,"170":-0.48393115401268005,"171":-0.47010689973831177,"172":2.239419460296631,"173":0.6130746603012085,"174":-5.458801746368408,"175":2.3358333110809326,"176":-0.9679561257362366,"177":-0.972819983959198,"178":2.6024560928344727,"179":3.208189010620117,"180":-1.345801830291748,"181":-3.1631100177764893,"182":-1.9924677610397339,"183":1.5462751388549805,"184":-3.929041624069214,"185":-0.44980311393737793,"186":1.9693851470947266,"187":-2.8295915126800537,"188":-1.946845293045044,"189":-0.588225781917572,"190":2.939788341522217,"191":-1.5721960067749023,"192":0.08785980939865112,"193":9.179604530334473,"194":-0.6016192436218262,"195":-3.9744977951049805,"196":-2.3669021129608154,"197":0.1306348592042923,"198":-5.857818603515625,"199":-0.4825354218482971,"200":-0.8925137519836426,"201":-1.463948369026184,"202":-1.9164650440216064,"203":-1.5500531196594238,"204":-1.304336667060852,"205":0.1370852291584015,"206":-1.1843953132629395,"207":2.5434536933898926,"208":-2.8317127227783203,"209":2.8998820781707764,"210":1.663928747177124,"211":-2.28729248046875,"212":0.5232164263725281,"213":-3.9253039360046387,"214":3.7770836353302,"215":-1.4740757942199707,"216":-2.1126298904418945,"217":0.8155493140220642,"218":0.1378633677959442,"219":0.32828524708747864,"220":-0.7584691047668457,"221":-0.056380126625299454,"222":3.8326728343963623,"223":2.7704555988311768,"224":-1.1280522346496582,"225":-1.0920817852020264,"226":0.3707039952278137,"227":2.433271884918213,"228":0.2859857976436615,"229":-1.9079896211624146,"230":0.47653624415397644,"231":-0.35850265622138977,"232":-1.2816680669784546,"233":3.4228546619415283,"234":-0.0008060766267590225,"235":0.09771698713302612,"236":-2.2444190979003906,"237":-1.9083682298660278,"238":0.5817177891731262,"239":-1.304741382598877,"240":-0.7231423854827881,"241":-0.9930776357650757,"242":-1.6245529651641846,"243":4.499005317687988,"244":-0.06401214003562927,"245":0.027243370190262794,"246":-0.1003146544098854,"247":-0.5959915518760681,"248":-1.7215194702148438,"249":1.9121732711791992,"250":0.006006577983498573,"251":0.33726850152015686,"252":0.7209164500236511,"253":-0.7851725816726685,"254":1.6153889894485474,"255":-0.8245994448661804,"256":0.49065807461738586,"257":-0.3096138834953308,"258":1.8380848169326782,"259":1.1855921745300293,"260":0.34950873255729675,"261":1.8174737691879272,"262":1.8824782371520996,"263":0.05287453904747963,"264":1.7812429666519165,"265":-0.678906261920929,"266":0.02748100459575653,"267":-1.9578497409820557,"268":-0.48411333560943604,"269":-1.0896633863449097,"270":1.8814879655838013,"271":-1.0546292066574097,"272":0.1707998365163803,"273":1.204006552696228,"274":-0.14743785560131073,"275":0.04064966365695,"276":-0.9890848398208618,"277":0.4474482238292694,"278":-1.7456996440887451,"279":0.8582732677459717,"280":-0.49735966324806213,"281":-1.0209845304489136,"282":-0.7705293893814087,"283":0.7522197961807251,"284":-1.3274627923965454,"285":1.746068000793457,"286":-1.8319693803787231,"287":4.6102094650268555,"288":0.007257660385221243,"289":2.929971694946289,"290":1.8357857465744019,"291":2.340801477432251,"292":-0.32074880599975586,"293":0.5026148557662964,"294":0.27042561769485474,"295":-1.9807579517364502,"296":-2.031240224838257,"297":0.09637767821550369,"298":-2.8242151737213135,"299":-1.2965131998062134,"300":-1.3466798067092896,"301":-0.6903637051582336,"302":-0.44176435470581055,"303":5.0137619972229,"304":-1.3371248245239258,"305":-1.5772926807403564,"306":2.315028667449951,"307":-0.6601284742355347,"308":0.7735457420349121,"309":-0.6528629660606384,"310":-0.31527215242385864,"311":-1.2568774223327637,"312":3.610215663909912,"313":0.45653820037841797,"314":-1.291473627090454,"315":-0.367771178483963,"316":-2.5591514110565186,"317":-4.553289413452148,"318":-3.2454638481140137,"319":-2.1202616691589355,"320":-1.517065167427063,"321":1.3257172107696533,"322":1.657791018486023,"323":0.13067667186260223,"324":-3.642993211746216,"325":1.0771307945251465,"326":1.5063450336456299,"327":1.2427386045455933,"328":1.180306315422058,"329":-2.8547658920288086,"330":0.2782672643661499,"331":3.4741101264953613,"332":-4.066185474395752,"333":-0.9333032965660095,"334":0.2514101564884186,"335":2.1463067531585693,"336":-1.1385849714279175,"337":0.48762500286102295,"338":1.6200064420700073,"339":0.07865507900714874,"340":-1.6195731163024902,"341":-1.046727180480957,"342":3.302927017211914,"343":0.5355585813522339,"344":-0.4227958619594574,"345":-0.22288140654563904,"346":2.118691921234131,"347":-0.8118230104446411,"348":0.02372451312839985,"349":-0.43789005279541016,"350":-1.8102988004684448,"351":-2.4756851196289062,"352":-0.992134690284729,"353":-2.2436938285827637,"354":-1.3184990882873535,"355":1.7953161001205444,"356":-2.7810869216918945,"357":-1.1937400102615356,"358":-0.5125651359558105,"359":-0.8227598667144775,"360":-3.5613064765930176,"361":0.19427630305290222,"362":2.158630132675171,"363":-0.4628935754299164,"364":3.830970525741577,"365":1.6848958730697632,"366":2.075014591217041,"367":-1.631588339805603,"368":1.9888170957565308,"369":-2.4477458000183105,"370":0.6676921844482422,"371":0.7870780229568481,"372":1.4210715293884277,"373":-4.387033939361572,"374":-3.483915328979492,"375":3.158381938934326,"376":0.3033566176891327,"377":0.9766281843185425,"378":1.129329800605774,"379":-1.7955458164215088,"380":-0.2651316821575165,"381":-0.752658486366272,"382":-0.6925298571586609,"383":2.0744872093200684,"384":-2.5575873851776123,"385":-0.20616956055164337,"386":-0.577447772026062,"387":-0.07399649918079376,"388":0.9300156831741333,"389":0.7366530895233154,"390":-1.6111336946487427,"391":-1.5218547582626343,"392":1.2350032329559326,"393":-0.09513410180807114,"394":3.487616777420044,"395":0.9912347793579102,"396":2.3712172508239746,"397":-1.8173848390579224,"398":-3.0868546962738037,"399":-0.8193999528884888}},"inputBias":{"rows":20,"columns":1,"weights":{"0":-0.7245911955833435,"1":-0.12525337934494019,"2":0.5677617788314819,"3":-0.27431347966194153,"4":-1.1468778848648071,"5":-0.15133565664291382,"6":-0.06969495862722397,"7":-0.30464935302734375,"8":-0.0003168335242662579,"9":-0.7466703653335571,"10":-1.509453535079956,"11":-0.0543166920542717,"12":-0.2862864136695862,"13":-0.23159442842006683,"14":0.2984843850135803,"15":-0.4783339500427246,"16":0.5004948973655701,"17":-0.07677186280488968,"18":-0.13399755954742432,"19":-0.6869823932647705}},"forgetMatrix":{"rows":20,"columns":42,"weights":{"0":-1.5903559923171997,"1":-0.7080428004264832,"2":-0.157797172665596,"3":0.1941729187965393,"4":-0.1399519145488739,"5":1.559472680091858,"6":-0.30097535252571106,"7":-1.0582005977630615,"8":-0.358769953250885,"9":-0.6753379106521606,"10":0.5576521158218384,"11":1.4370321035385132,"12":-0.3842310309410095,"13":1.3131805658340454,"14":0.8983346223831177,"15":1.4222371578216553,"16":1.3369704484939575,"17":-0.5876098871231079,"18":-1.3845075368881226,"19":-0.5970126390457153,"20":-0.376872718334198,"21":0.7044112682342529,"22":-1.8436084985733032,"23":-0.28969112038612366,"24":0.41665536165237427,"25":-1.1661410331726074,"26":-0.6911972761154175,"27":-1.61620032787323,"28":-0.7725462317466736,"29":1.2655694484710693,"30":-1.774277925491333,"31":-0.9194908142089844,"32":-0.21509675681591034,"33":0.10377135872840881,"34":-0.03399614244699478,"35":0.5873721837997437,"36":-0.3020988404750824,"37":0.1819087266921997,"38":-0.1960027813911438,"39":-1.0741075277328491,"40":-0.31911221146583557,"41":-0.1092265248298645,"42":-0.2996516227722168,"43":1.3831456899642944,"44":0.9784098267555237,"45":1.044317603111267,"46":0.1325957477092743,"47":-0.0822238028049469,"48":1.207045555114746,"49":1.0533595085144043,"50":-0.7277708649635315,"51":0.083772674202919,"52":-0.30435821413993835,"53":-1.103108286857605,"54":-0.08244697004556656,"55":0.5662703514099121,"56":-0.4360063076019287,"57":0.903794527053833,"58":-0.35542064905166626,"59":0.07747668772935867,"60":-1.1864562034606934,"61":-0.9307052493095398,"62":-1.155938744544983,"63":0.1950131058692932,"64":0.4476984441280365,"65":0.685513973236084,"66":0.060353655368089676,"67":-0.40971478819847107,"68":1.228410005569458,"69":-1.4938195943832397,"70":-0.8307676911354065,"71":0.05279339849948883,"72":-0.9737758636474609,"73":0.11742512136697769,"74":-1.55330491065979,"75":0.8842772841453552,"76":0.6525313258171082,"77":-0.5122742652893066,"78":1.8471522331237793,"79":0.16083870828151703,"80":0.41947460174560547,"81":-0.4929550588130951,"82":1.4091007709503174,"83":0.8475200533866882,"84":0.1267867386341095,"85":0.05133364349603653,"86":-1.1942919492721558,"87":-0.273958683013916,"88":-0.7465656995773315,"89":1.1585968732833862,"90":1.3034446239471436,"91":-0.9083304405212402,"92":-0.1881769299507141,"93":-0.18577606976032257,"94":-1.0169404745101929,"95":-0.22845910489559174,"96":-0.0766543298959732,"97":0.6491615176200867,"98":0.24441376328468323,"99":0.966306209564209,"100":-1.286791205406189,"101":-0.32711657881736755,"102":-0.7077069878578186,"103":0.14245235919952393,"104":-0.5520372986793518,"105":1.252861738204956,"106":0.6860904693603516,"107":0.47894421219825745,"108":0.7464227080345154,"109":-0.41052111983299255,"110":-0.42985162138938904,"111":1.2552094459533691,"112":-0.3034058213233948,"113":-1.699639916419983,"114":0.18300960958003998,"115":0.18471896648406982,"116":0.18912895023822784,"117":0.9320916533470154,"118":1.585544466972351,"119":0.519066333770752,"120":-2.270566940307617,"121":-1.7575279474258423,"122":-0.7146862149238586,"123":0.25198420882225037,"124":-0.2533264458179474,"125":-0.5123302340507507,"126":-2.343571186065674,"127":-0.16104550659656525,"128":-0.5760160088539124,"129":1.5610791444778442,"130":-1.63498854637146,"131":2.528329849243164,"132":1.8550429344177246,"133":-0.14145807921886444,"134":1.4225196838378906,"135":1.487709403038025,"136":-3.1825380325317383,"137":-1.0477732419967651,"138":-0.08148233592510223,"139":0.5915817618370056,"140":0.6980209350585938,"141":-1.5095233917236328,"142":-0.9266942739486694,"143":-0.8485418558120728,"144":-0.7212713360786438,"145":-0.5086068511009216,"146":1.2873164415359497,"147":1.0437850952148438,"148":0.029572857543826103,"149":-0.8312546014785767,"150":-2.766772508621216,"151":0.4642459452152252,"152":1.4538884162902832,"153":0.5644303560256958,"154":-1.1001027822494507,"155":0.21009880304336548,"156":-0.9386155605316162,"157":-0.27534541487693787,"158":0.24710260331630707,"159":-0.1350322961807251,"160":-0.5448211431503296,"161":-1.987064003944397,"162":-0.16799190640449524,"163":-0.20572064816951752,"164":1.012658715248108,"165":2.157358407974243,"166":-0.3088865280151367,"167":0.5823239684104919,"168":0.5164412260055542,"169":1.040595293045044,"170":0.07063688337802887,"171":-0.9409740567207336,"172":-0.42261219024658203,"173":0.9351210594177246,"174":-0.41795751452445984,"175":-0.048360876739025116,"176":-0.43676823377609253,"177":0.44986191391944885,"178":0.237774059176445,"179":0.33369314670562744,"180":0.9813199639320374,"181":0.797050416469574,"182":-0.1323852688074112,"183":0.39934033155441284,"184":-0.41487106680870056,"185":0.8925858736038208,"186":-0.6365910172462463,"187":0.4070119261741638,"188":-0.6124840378761292,"189":1.3088375329971313,"190":-1.1180775165557861,"191":0.5504922866821289,"192":1.3747435808181763,"193":0.8856526613235474,"194":-0.8405168056488037,"195":-1.744932770729065,"196":-0.38080886006355286,"197":-0.01726839877665043,"198":-3.561575174331665,"199":1.0092591047286987,"200":-1.5398342609405518,"201":-0.12285734713077545,"202":1.4030896425247192,"203":1.0039061307907104,"204":2.3944590091705322,"205":-0.14232823252677917,"206":-1.1621978282928467,"207":-0.8418241739273071,"208":-0.9457775354385376,"209":0.1551574021577835,"210":0.39493027329444885,"211":0.358210027217865,"212":-0.6147502064704895,"213":-0.4834784269332886,"214":0.12763740122318268,"215":1.9723210334777832,"216":0.4323844015598297,"217":0.19519147276878357,"218":0.3467864394187927,"219":0.7213399410247803,"220":0.8676406741142273,"221":-0.7426382303237915,"222":-0.33026766777038574,"223":1.995549201965332,"224":0.3906094431877136,"225":-0.361959844827652,"226":0.14741070568561554,"227":-0.2675846815109253,"228":-0.3433731496334076,"229":-0.549638569355011,"230":0.6935476660728455,"231":-0.42549699544906616,"232":1.3284093141555786,"233":-0.727047860622406,"234":-0.4083710312843323,"235":-0.6196741461753845,"236":-0.3665507137775421,"237":0.28291022777557373,"238":1.0890668630599976,"239":-0.7487925291061401,"240":1.4123622179031372,"241":-0.9375609755516052,"242":-0.8719704151153564,"243":-0.22049124538898468,"244":0.22475329041481018,"245":-2.218172788619995,"246":0.6470940709114075,"247":0.113386370241642,"248":-0.4990330934524536,"249":0.90682452917099,"250":0.058181073516607285,"251":0.9175454378128052,"252":0.3926686942577362,"253":-0.894810140132904,"254":2.159085273742676,"255":0.7446275949478149,"256":0.14527152478694916,"257":-1.806207537651062,"258":0.01814236491918564,"259":-0.3620757460594177,"260":1.0283516645431519,"261":-0.09838995337486267,"262":0.04923558235168457,"263":-0.5062198042869568,"264":-0.1534978449344635,"265":-0.6238996386528015,"266":-0.07758203148841858,"267":-2.072746992111206,"268":0.49937179684638977,"269":0.18739181756973267,"270":2.156271457672119,"271":0.35176876187324524,"272":-0.5587554574012756,"273":-0.4745330512523651,"274":-0.471423864364624,"275":-0.8578034043312073,"276":0.5021113157272339,"277":-0.13353975117206573,"278":-0.03399699181318283,"279":-3.1020045280456543,"280":0.37523242831230164,"281":-0.11681465804576874,"282":-0.5166971683502197,"283":1.4690533876419067,"284":-0.27788278460502625,"285":-1.3624166250228882,"286":-2.5504963397979736,"287":0.9155738949775696,"288":-0.264313280582428,"289":0.7328182458877563,"290":0.9265466928482056,"291":0.12471291422843933,"292":1.1982342004776,"293":0.5005549788475037,"294":0.4161190390586853,"295":-0.23583491146564484,"296":-0.6461697816848755,"297":-0.358917236328125,"298":-1.5966702699661255,"299":1.3903803825378418,"300":-0.07024309039115906,"301":1.0912688970565796,"302":-0.4094921350479126,"303":0.31186461448669434,"304":0.28294670581817627,"305":0.576613187789917,"306":0.30982470512390137,"307":0.1092514768242836,"308":-0.1272057741880417,"309":1.3905586004257202,"310":-0.18957561254501343,"311":1.0755023956298828,"312":-1.364633321762085,"313":0.4276742935180664,"314":-0.5144519209861755,"315":0.509459376335144,"316":1.0312362909317017,"317":0.02675844170153141,"318":-0.14603440463542938,"319":-0.46442902088165283,"320":-1.3460943698883057,"321":0.0642533078789711,"322":0.3716914653778076,"323":1.7939282655715942,"324":-0.8486839532852173,"325":0.08855567872524261,"326":-0.044885650277137756,"327":-1.306628942489624,"328":0.9903994202613831,"329":-0.4004487991333008,"330":-1.6733912229537964,"331":0.41324228048324585,"332":-0.9285114407539368,"333":-0.28633150458335876,"334":-0.4839349687099457,"335":-0.2649253308773041,"336":0.05252271145582199,"337":-0.4734147787094116,"338":-0.3881551921367645,"339":-1.925798773765564,"340":-2.3922481536865234,"341":1.5472238063812256,"342":0.6947096586227417,"343":0.3263548016548157,"344":0.3989107012748718,"345":0.6320455074310303,"346":0.9832838773727417,"347":0.4609268605709076,"348":-0.1489260196685791,"349":-0.027823565527796745,"350":1.0093308687210083,"351":1.4748486280441284,"352":-0.8388104438781738,"353":-0.8612465858459473,"354":-0.9282190799713135,"355":-0.3260014057159424,"356":0.500015914440155,"357":0.2794950604438782,"358":-1.2578814029693604,"359":1.0046273469924927,"360":1.6091084480285645,"361":0.35234305262565613,"362":-1.255415916442871,"363":-0.6634699702262878,"364":-0.667832612991333,"365":-0.23231656849384308,"366":0.8044285774230957,"367":-1.6407673358917236,"368":0.3668474555015564,"369":-1.1736855506896973,"370":1.0655709505081177,"371":-1.3007824420928955,"372":-0.05985995754599571,"373":-1.411512017250061,"374":-1.2010425329208374,"375":0.3610404431819916,"376":0.9224830269813538,"377":-0.46647539734840393,"378":0.6572785973548889,"379":-2.1900246143341064,"380":1.3673983812332153,"381":0.10960184782743454,"382":-0.993047833442688,"383":-0.0019820760935544968,"384":-1.3175647258758545,"385":0.20996491611003876,"386":-0.7977651357650757,"387":1.1628391742706299,"388":0.285439670085907,"389":-1.4601514339447021,"390":0.7596569061279297,"391":-1.5813226699829102,"392":0.568223237991333,"393":0.6530394554138184,"394":1.2337716817855835,"395":-0.06043235957622528,"396":0.027179967612028122,"397":0.29476282000541687,"398":-0.13074007630348206,"399":-1.5152945518493652,"400":-1.4534335136413574,"401":-0.8025104999542236,"402":-1.960494875907898,"403":-1.1497225761413574,"404":1.7721047401428223,"405":1.7030677795410156,"406":1.7683687210083008,"407":-0.6066700220108032,"408":0.8480488061904907,"409":1.329274296760559,"410":-0.16698387265205383,"411":0.31867024302482605,"412":-1.2512794733047485,"413":-0.13911806046962738,"414":-1.0356545448303223,"415":-0.8369448184967041,"416":-1.3036725521087646,"417":-0.6720049381256104,"418":1.2113597393035889,"419":1.870390772819519,"420":-0.762221097946167,"421":-0.378696471452713,"422":-0.06218557432293892,"423":-2.2625370025634766,"424":0.4471587836742401,"425":2.5529773235321045,"426":0.19134247303009033,"427":-1.426888108253479,"428":-1.009206771850586,"429":-1.2099456787109375,"430":0.40726903080940247,"431":1.3403066396713257,"432":0.3954218626022339,"433":1.2472635507583618,"434":0.9351679086685181,"435":0.5758019685745239,"436":-1.9206479787826538,"437":-0.6584458351135254,"438":0.5998139381408691,"439":1.817879319190979,"440":0.21962988376617432,"441":0.37460756301879883,"442":1.7797889709472656,"443":-2.708082675933838,"444":0.47057977318763733,"445":-0.06030583754181862,"446":0.9611873030662537,"447":-0.5604763031005859,"448":0.036949459463357925,"449":-1.2780745029449463,"450":-0.6599193215370178,"451":-0.7169084548950195,"452":-1.809897541999817,"453":-0.6926172375679016,"454":-0.9405296444892883,"455":-0.7477197051048279,"456":-0.1477535516023636,"457":-0.7373378276824951,"458":0.7479146122932434,"459":-1.1794123649597168,"460":-2.243877649307251,"461":-0.3631647527217865,"462":-0.7967202067375183,"463":0.843401312828064,"464":1.1299059391021729,"465":0.6826355457305908,"466":1.126704454421997,"467":1.0803481340408325,"468":0.7892351746559143,"469":1.5236635208129883,"470":2.490570545196533,"471":-0.23970149457454681,"472":-0.63532954454422,"473":-0.9685066342353821,"474":-0.6543845534324646,"475":-1.372694492340088,"476":-0.1531660258769989,"477":-2.287801504135132,"478":0.007258325349539518,"479":0.09179404377937317,"480":0.6422390341758728,"481":-1.5466917753219604,"482":-0.2663678228855133,"483":2.0036251544952393,"484":-2.2746810913085938,"485":0.7723288536071777,"486":-1.424864411354065,"487":0.812808632850647,"488":-0.7986153960227966,"489":-0.7914494276046753,"490":-1.060638666152954,"491":-0.5877150297164917,"492":-1.2151298522949219,"493":0.5249468088150024,"494":-0.3524659276008606,"495":-0.09644864499568939,"496":0.3062094748020172,"497":-0.870785117149353,"498":0.4716434180736542,"499":0.7290972471237183,"500":-0.13353990018367767,"501":0.8864109516143799,"502":2.042736053466797,"503":-0.2004266381263733,"504":-0.006761098746210337,"505":-0.4951295256614685,"506":-1.4371036291122437,"507":0.9595786929130554,"508":0.6737210750579834,"509":1.5209001302719116,"510":0.43914780020713806,"511":0.48041030764579773,"512":0.9498754739761353,"513":-0.30704548954963684,"514":-1.5170975923538208,"515":-0.2763254940509796,"516":-1.103501319885254,"517":1.0725280046463013,"518":0.08766946941614151,"519":-1.061118245124817,"520":-0.6833046674728394,"521":-0.007515302859246731,"522":-0.848000168800354,"523":-0.3179595172405243,"524":0.8207867741584778,"525":0.8430351614952087,"526":1.1787570714950562,"527":-1.2040975093841553,"528":0.987727165222168,"529":0.4807203710079193,"530":0.024769823998212814,"531":0.32229116559028625,"532":0.4972761571407318,"533":-1.619555950164795,"534":-0.6134230494499207,"535":-1.209457516670227,"536":-0.29520314931869507,"537":-0.47434478998184204,"538":0.9901938438415527,"539":0.740317702293396,"540":-0.15381622314453125,"541":0.5956204533576965,"542":0.7715276479721069,"543":1.207740306854248,"544":0.6232427358627319,"545":-1.5586779117584229,"546":-1.4200626611709595,"547":0.5054806470870972,"548":1.4834818840026855,"549":-0.5508041381835938,"550":0.25559839606285095,"551":0.8220776319503784,"552":-1.2938339710235596,"553":-0.9281303882598877,"554":-1.299522042274475,"555":0.5707462430000305,"556":0.3247748613357544,"557":1.3561838865280151,"558":-0.7666720747947693,"559":-0.07691007852554321,"560":-1.0091241598129272,"561":-0.5503666996955872,"562":0.5798739194869995,"563":0.10851297527551651,"564":-0.8978906273841858,"565":1.3348222970962524,"566":-0.4059153199195862,"567":0.5421765446662903,"568":0.9738854765892029,"569":0.07498209923505783,"570":-0.3979508876800537,"571":-1.4924629926681519,"572":0.7203437089920044,"573":-0.7489123344421387,"574":-0.8024912476539612,"575":-1.140387773513794,"576":-0.3608386218547821,"577":-0.6258504390716553,"578":0.5399399399757385,"579":-0.32692551612854004,"580":-0.8997405171394348,"581":1.6510212421417236,"582":0.10610821098089218,"583":-1.391150712966919,"584":1.4930075407028198,"585":-0.06278456002473831,"586":-1.101328730583191,"587":1.03848397731781,"588":-0.6193351745605469,"589":-2.140493154525757,"590":0.22819000482559204,"591":0.93653804063797,"592":-0.04632848501205444,"593":0.6950696706771851,"594":0.4232423007488251,"595":-1.2783704996109009,"596":0.08305900543928146,"597":0.104130819439888,"598":-0.3168751299381256,"599":-0.26572999358177185,"600":-1.1151063442230225,"601":-0.07312735170125961,"602":0.13093042373657227,"603":-0.3269103765487671,"604":1.353609323501587,"605":-1.426755666732788,"606":0.16563943028450012,"607":-0.6213811635971069,"608":1.0378925800323486,"609":-0.5963715314865112,"610":-1.5403947830200195,"611":1.6603543758392334,"612":-0.15074463188648224,"613":-0.6327230334281921,"614":0.05431872606277466,"615":0.11165464669466019,"616":0.32315585017204285,"617":0.6074008345603943,"618":-0.30620598793029785,"619":0.7989566326141357,"620":3.29013729095459,"621":1.1405805349349976,"622":-0.27007415890693665,"623":0.508590817451477,"624":-0.660211980342865,"625":-0.4251353144645691,"626":-0.8153533935546875,"627":-1.7084425687789917,"628":0.05929818004369736,"629":-0.5150936245918274,"630":-0.11887389421463013,"631":-1.1035016775131226,"632":-0.5861431360244751,"633":0.39029258489608765,"634":-0.47173771262168884,"635":1.3416798114776611,"636":-1.0137101411819458,"637":-1.0648261308670044,"638":1.3491896390914917,"639":-1.242355465888977,"640":0.4707266092300415,"641":-0.37639185786247253,"642":-0.048279184848070145,